<?xml version="1.0"?>
<MethodSetup Method="BDT::BDTG">
  <GeneralInfo>
    <Info name="TMVA Release" value="4.2.1 [262657]"/>
    <Info name="ROOT Release" value="6.24/06 [399366]"/>
    <Info name="Creator" value="gmadigan"/>
    <Info name="Date" value="Sat May 14 15:55:25 2022"/>
    <Info name="Host" value="Linux buildhw-x86-15.iad2.fedoraproject.org 5.15.6-200.fc35.x86_64 #1 SMP Wed Dec 1 13:41:10 UTC 2021 x86_64 x86_64 x86_64 GNU/Linux"/>
    <Info name="Dir" value="/afs/cern.ch/work/g/gmadigan/CMS/Analysis/Leptoquarks/MakeTreesStockNanoAODv6_2/LQ2Analysis13TeV/HHbdt_tmva/tmva/test"/>
    <Info name="Training events" value="213008"/>
    <Info name="TrainingTime" value="2.25569922e+02"/>
    <Info name="AnalysisType" value="Classification"/>
  </GeneralInfo>
  <Options>
    <Option name="V" modified="Yes">False</Option>
    <Option name="VerbosityLevel" modified="No">Default</Option>
    <Option name="VarTransform" modified="No">None</Option>
    <Option name="H" modified="Yes">False</Option>
    <Option name="CreateMVAPdfs" modified="Yes">True</Option>
    <Option name="IgnoreNegWeightsInTraining" modified="No">False</Option>
    <Option name="NTrees" modified="Yes">850</Option>
    <Option name="MaxDepth" modified="Yes">3</Option>
    <Option name="MinNodeSize" modified="Yes">2.5%</Option>
    <Option name="nCuts" modified="Yes">20</Option>
    <Option name="BoostType" modified="Yes">Grad</Option>
    <Option name="AdaBoostR2Loss" modified="No">quadratic</Option>
    <Option name="UseBaggedBoost" modified="Yes">True</Option>
    <Option name="Shrinkage" modified="Yes">1.000000e-01</Option>
    <Option name="AdaBoostBeta" modified="No">5.000000e-01</Option>
    <Option name="UseRandomisedTrees" modified="No">False</Option>
    <Option name="UseNvars" modified="No">3</Option>
    <Option name="UsePoissonNvars" modified="No">True</Option>
    <Option name="BaggedSampleFraction" modified="Yes">5.000000e-01</Option>
    <Option name="UseYesNoLeaf" modified="No">True</Option>
    <Option name="NegWeightTreatment" modified="Yes">ignorenegweightsintraining</Option>
    <Option name="Css" modified="No">1.000000e+00</Option>
    <Option name="Cts_sb" modified="No">1.000000e+00</Option>
    <Option name="Ctb_ss" modified="No">1.000000e+00</Option>
    <Option name="Cbb" modified="No">1.000000e+00</Option>
    <Option name="NodePurityLimit" modified="No">5.000000e-01</Option>
    <Option name="SeparationType" modified="Yes">giniindex</Option>
    <Option name="RegressionLossFunctionBDTG" modified="No">huber</Option>
    <Option name="HuberQuantile" modified="No">7.000000e-01</Option>
    <Option name="DoBoostMonitor" modified="Yes">True</Option>
    <Option name="UseFisherCuts" modified="No">False</Option>
    <Option name="MinLinCorrForFisher" modified="No">8.000000e-01</Option>
    <Option name="UseExclusiveVars" modified="No">False</Option>
    <Option name="DoPreselection" modified="No">False</Option>
    <Option name="SigToBkgFraction" modified="No">1.000000e+00</Option>
    <Option name="PruneMethod" modified="No">nopruning</Option>
    <Option name="PruneStrength" modified="No">0.000000e+00</Option>
    <Option name="PruningValFraction" modified="No">5.000000e-01</Option>
    <Option name="SkipNormalization" modified="No">False</Option>
    <Option name="nEventsMin" modified="No">0</Option>
    <Option name="UseBaggedGrad" modified="No">False</Option>
    <Option name="GradBaggingFraction" modified="No">5.000000e-01</Option>
    <Option name="UseNTrainEvents" modified="No">0</Option>
    <Option name="NNodesMax" modified="No">0</Option>
  </Options>
  <Variables NVar="11">
    <Variable VarIndex="0" Expression="M_uu" Label="M_uu" Title="M_uu" Unit="F" Internal="M_uu" Type="F" Min="2.50000626e+02" Max="9.28503125e+03"/>
    <Variable VarIndex="1" Expression="M_uujj" Label="M_uujj" Title="M_uujj" Unit="F" Internal="M_uujj" Type="F" Min="5.00001007e+02" Max="1.53524141e+04"/>
    <Variable VarIndex="2" Expression="M_uujj1" Label="M_uujj1" Title="M_uujj1" Unit="F" Internal="M_uujj1" Type="F" Min="4.49300385e+01" Max="6.18741113e+03"/>
    <Variable VarIndex="3" Expression="M_uujj2" Label="M_uujj2" Title="M_uujj2" Unit="F" Internal="M_uujj2" Type="F" Min="2.92875309e+01" Max="2.10023657e+03"/>
    <Variable VarIndex="4" Expression="St_uujj" Label="St_uujj" Title="St_uujj" Unit="F" Internal="St_uujj" Type="F" Min="3.00001160e+02" Max="8.12855518e+03"/>
    <Variable VarIndex="5" Expression="Pt_miss" Label="Pt_miss" Title="Pt_miss" Unit="F" Internal="Pt_miss" Type="F" Min="1.07937016e-01" Max="8.02041699e+03"/>
    <Variable VarIndex="6" Expression="Pt_muon1" Label="Pt_muon1" Title="Pt_muon1" Unit="F" Internal="Pt_muon1" Type="F" Min="5.38105278e+01" Max="7.57059570e+03"/>
    <Variable VarIndex="7" Expression="Pt_muon2" Label="Pt_muon2" Title="Pt_muon2" Unit="F" Internal="Pt_muon2" Type="F" Min="5.30009193e+01" Max="1.58055518e+03"/>
    <Variable VarIndex="8" Expression="Pt_jet1" Label="Pt_jet1" Title="Pt_jet1" Unit="F" Internal="Pt_jet1" Type="F" Min="5.04062500e+01" Max="2.93200000e+03"/>
    <Variable VarIndex="9" Expression="Pt_jet2" Label="Pt_jet2" Title="Pt_jet2" Unit="F" Internal="Pt_jet2" Type="F" Min="5.00312500e+01" Max="1.57800000e+03"/>
    <Variable VarIndex="10" Expression="DR_dimuonjet1" Label="DR_dimuonjet1" Title="DR_dimuonjet1" Unit="F" Internal="DR_dimuonjet1" Type="F" Min="1.45348739e-02" Max="8.41255665e+00"/>
  </Variables>
  <Spectators NSpec="0"/>
  <Classes NClass="2">
    <Class Name="Signal" Index="0"/>
    <Class Name="Background" Index="1"/>
  </Classes>
  <Transformations NTransformations="0"/>
  <MVAPdfs>
    <PDF Name="BDTG_PDFSig" MinNSmooth="0" MaxNSmooth="0" InterpolMethod="2" KDE_type="1" KDE_iter="1" KDE_border="1" KDE_finefactor="1.0000000000000000e+00">
      <Histogram Name="BDT_tr_S_original" NBins="20" XMin="-9.9994182586669922e-01" XMax="9.9996334314346313e-01" HasEquidistantBins="1">
        5.18375589e-02 3.23084614e-02 3.87802336e-02 3.63135582e-02 3.43063534e-02 3.49581890e-02 3.76257000e-02 4.33992742e-02 4.42874213e-02 5.58724043e-02 5.75151042e-02 6.65184268e-02 7.69942590e-02 1.00161580e-01 1.15350950e-01 1.63098805e-01 2.24485237e-01 3.72892132e-01 7.92821494e-01 7.62094703e+00 
      </Histogram>
    </PDF>
    <PDF Name="BDTG_PDFBkg" MinNSmooth="0" MaxNSmooth="0" InterpolMethod="2" KDE_type="1" KDE_iter="1" KDE_border="1" KDE_finefactor="1.0000000000000000e+00">
      <Histogram Name="BDT_tr_B_original" NBins="20" XMin="-9.9994182586669922e-01" XMax="9.9996334314346313e-01" HasEquidistantBins="1">
        8.13392739e+00 5.16209317e-01 2.74776151e-01 1.76487807e-01 1.31265833e-01 9.38460418e-02 8.03468503e-02 7.29999468e-02 6.08166877e-02 4.89557410e-02 4.40441145e-02 3.58775466e-02 4.51679048e-02 3.04606307e-02 3.50575932e-02 3.87986558e-02 4.29778816e-02 3.88880016e-02 5.06792141e-02 4.88908695e-02 
      </Histogram>
    </PDF>
  </MVAPdfs>
  <Weights NTrees="850" AnalysisType="1">
    <BinaryTree type="DecisionTree" boostWeight="1.0000000000000000e+00" itree="0">
      <Node pos="s" depth="0" NCoef="0" IVar="4" Cut="6.8286450195312500e+02" cType="1" res="1.4466732973232865e-03" rms="4.9999791383743286e-01" purity="5.0144666433334351e-01" nType="0">
        <Node pos="l" depth="1" NCoef="0" IVar="3" Cut="3.4541125488281250e+02" cType="1" res="-4.3170505762100220e-01" rms="2.5225135684013367e-01" purity="6.8294942378997803e-02" nType="0">
          <Node pos="l" depth="2" NCoef="0" IVar="1" Cut="7.7604632568359375e+02" cType="1" res="-4.6351024508476257e-01" rms="1.8750534951686859e-01" purity="3.6489758640527725e-02" nType="0">
            <Node pos="l" depth="3" NCoef="0" IVar="-1" Cut="0.0000000000000000e+00" cType="1" res="-9.7517423331737518e-02" rms="1.1071942746639252e-01" purity="1.2412870302796364e-02" nType="-99"/>
            <Node pos="r" depth="3" NCoef="0" IVar="-1" Cut="0.0000000000000000e+00" cType="1" res="-7.9125560820102692e-02" rms="3.0574277043342590e-01" purity="1.0437219589948654e-01" nType="-99"/>
          </Node>
          <Node pos="r" depth="2" NCoef="0" IVar="-1" Cut="0.0000000000000000e+00" cType="1" res="1.1554878437891603e-03" rms="4.9996662139892578e-01" purity="5.0577747821807861e-01" nType="-99"/>
        </Node>
        <Node pos="r" depth="1" NCoef="0" IVar="3" Cut="1.4517343139648438e+02" cType="1" res="3.5241287946701050e-01" rms="3.5469022393226624e-01" purity="8.5241287946701050e-01" nType="0">
          <Node pos="l" depth="2" NCoef="0" IVar="-1" Cut="0.0000000000000000e+00" cType="1" res="-7.9251721501350403e-02" rms="3.0492475628852844e-01" purity="1.0374138504266739e-01" nType="-99"/>
          <Node pos="r" depth="2" NCoef="0" IVar="3" Cut="3.3137948608398438e+02" cType="1" res="4.1080579161643982e-01" rms="2.8502383828163147e-01" purity="9.1080576181411743e-01" nType="0">
            <Node pos="l" depth="3" NCoef="0" IVar="-1" Cut="0.0000000000000000e+00" cType="1" res="4.3223947286605835e-02" rms="4.5087942481040955e-01" purity="7.1611970663070679e-01" nType="-99"/>
            <Node pos="r" depth="3" NCoef="0" IVar="-1" Cut="0.0000000000000000e+00" cType="1" res="8.9649572968482971e-02" rms="2.2152619063854218e-01" purity="9.4824784994125366e-01" nType="-99"/>
          </Node>
        </Node>
      </Node>
    </BinaryTree>
    <BinaryTree type="DecisionTree" boostWeight="1.0000000000000000e+00" itree="1">
      <Node pos="s" depth="0" NCoef="0" IVar="4" Cut="6.7278942871093750e+02" cType="1" res="-2.2488790564239025e-03" rms="4.6308410167694092e-01" purity="4.9750125408172607e-01" nType="0">
        <Node pos="l" depth="1" NCoef="0" IVar="3" Cut="3.2002841186523438e+02" cType="1" res="-3.9434102177619934e-01" rms="2.3611882328987122e-01" purity="6.2354020774364471e-02" nType="0">
          <Node pos="l" depth="2" NCoef="0" IVar="4" Cut="6.0177178955078125e+02" cType="1" res="-4.2457982897758484e-01" rms="1.6749311983585358e-01" purity="2.9119253158569336e-02" nType="0">
            <Node pos="l" depth="3" NCoef="0" IVar="-1" Cut="0.0000000000000000e+00" cType="1" res="-8.8413886725902557e-02" rms="1.2192823737859726e-01" purity="1.5193034894764423e-02" nType="-99"/>
            <Node pos="r" depth="3" NCoef="0" IVar="-1" Cut="0.0000000000000000e+00" cType="1" res="-6.8234033882617950e-02" rms="3.2067131996154785e-01" purity="1.1715693026781082e-01" nType="-99"/>
          </Node>
          <Node pos="r" depth="2" NCoef="0" IVar="-1" Cut="0.0000000000000000e+00" cType="1" res="-1.5050802379846573e-02" rms="4.8641914129257202e-01" purity="4.1322943568229675e-01" nType="-99"/>
        </Node>
        <Node pos="r" depth="1" NCoef="0" IVar="3" Cut="1.4574433898925781e+02" cType="1" res="3.1060421466827393e-01" rms="3.4716898202896118e-01" purity="8.4470826387405396e-01" nType="0">
          <Node pos="l" depth="2" NCoef="0" IVar="-1" Cut="0.0000000000000000e+00" cType="1" res="-7.2727799415588379e-02" rms="2.9839497804641724e-01" purity="9.9055752158164978e-02" nType="-99"/>
          <Node pos="r" depth="2" NCoef="0" IVar="3" Cut="3.3190164184570312e+02" cType="1" res="3.6792346835136414e-01" rms="2.8532874584197998e-01" purity="9.0831691026687622e-01" nType="0">
            <Node pos="l" depth="3" NCoef="0" IVar="-1" Cut="0.0000000000000000e+00" cType="1" res="3.5902880132198334e-02" rms="4.5767802000045776e-01" purity="6.9895231723785400e-01" nType="-99"/>
            <Node pos="r" depth="3" NCoef="0" IVar="-1" Cut="0.0000000000000000e+00" cType="1" res="8.1552825868129730e-02" rms="2.1985365450382233e-01" purity="9.4890874624252319e-01" nType="-99"/>
          </Node>
        </Node>
      </Node>
    </BinaryTree>
    <BinaryTree type="DecisionTree" boostWeight="1.0000000000000000e+00" itree="2">
      <Node pos="s" depth="0" NCoef="0" IVar="4" Cut="6.9318890380859375e+02" cType="1" res="2.6875049807131290e-03" rms="4.3120801448822021e-01" purity="5.0327730178833008e-01" nType="0">
        <Node pos="l" depth="1" NCoef="0" IVar="3" Cut="3.6395739746093750e+02" cType="1" res="-3.4665578603744507e-01" rms="2.4750037491321564e-01" purity="7.4019581079483032e-02" nType="0">
          <Node pos="l" depth="2" NCoef="0" IVar="3" Cut="1.5697181701660156e+02" cType="1" res="-3.7291049957275391e-01" rms="1.9618524610996246e-01" purity="4.2565215378999710e-02" nType="0">
            <Node pos="l" depth="3" NCoef="0" IVar="-1" Cut="0.0000000000000000e+00" cType="1" res="-8.3055481314659119e-02" rms="9.7043551504611969e-02" purity="9.6176490187644958e-03" nType="-99"/>
            <Node pos="r" depth="3" NCoef="0" IVar="-1" Cut="0.0000000000000000e+00" cType="1" res="-6.4305759966373444e-02" rms="3.0427503585815430e-01" purity="1.0997869074344635e-01" nType="-99"/>
          </Node>
          <Node pos="r" depth="2" NCoef="0" IVar="-1" Cut="0.0000000000000000e+00" cType="1" res="1.6686299815773964e-02" rms="4.8781314492225647e-01" purity="5.8894336223602295e-01" nType="-99"/>
        </Node>
        <Node pos="r" depth="1" NCoef="0" IVar="3" Cut="1.4706114196777344e+02" cType="1" res="2.9347142577171326e-01" rms="3.2184651494026184e-01" purity="8.6057978868484497e-01" nType="0">
          <Node pos="l" depth="2" NCoef="0" IVar="-1" Cut="0.0000000000000000e+00" cType="1" res="-6.1178002506494522e-02" rms="3.3180662989616394e-01" purity="1.2709715962409973e-01" nType="-99"/>
          <Node pos="r" depth="2" NCoef="0" IVar="5" Cut="1.3445001220703125e+02" cType="1" res="3.3760294318199158e-01" rms="2.7387124300003052e-01" purity="9.1521376371383667e-01" nType="0">
            <Node pos="l" depth="3" NCoef="0" IVar="-1" Cut="0.0000000000000000e+00" cType="1" res="7.3591560125350952e-02" rms="2.3946131765842438e-01" purity="9.3668717145919800e-01" nType="-99"/>
            <Node pos="r" depth="3" NCoef="0" IVar="-1" Cut="0.0000000000000000e+00" cType="1" res="1.2046508491039276e-02" rms="4.7527182102203369e-01" purity="6.3025301694869995e-01" nType="-99"/>
          </Node>
        </Node>
      </Node>
    </BinaryTree>
    <BinaryTree type="DecisionTree" boostWeight="1.0000000000000000e+00" itree="3">
      <Node pos="s" depth="0" NCoef="0" IVar="4" Cut="7.3698400878906250e+02" cType="1" res="4.9847771879285574e-04" rms="4.0407446026802063e-01" purity="5.0090372562408447e-01" nType="0">
        <Node pos="l" depth="1" NCoef="0" IVar="3" Cut="3.5651239013671875e+02" cType="1" res="-2.8711038827896118e-01" rms="2.7876147627830505e-01" purity="1.1118443310260773e-01" nType="0">
          <Node pos="l" depth="2" NCoef="0" IVar="4" Cut="6.1211535644531250e+02" cType="1" res="-3.2713869214057922e-01" rms="2.1755242347717285e-01" purity="5.7110849767923355e-02" nType="0">
            <Node pos="l" depth="3" NCoef="0" IVar="-1" Cut="0.0000000000000000e+00" cType="1" res="-7.5239069759845734e-02" rms="1.4555405080318451e-01" purity="2.2372290492057800e-02" nType="-99"/>
            <Node pos="r" depth="3" NCoef="0" IVar="-1" Cut="0.0000000000000000e+00" cType="1" res="-4.5795060694217682e-02" rms="3.8015219569206238e-01" purity="2.0538392663002014e-01" nType="-99"/>
          </Node>
          <Node pos="r" depth="2" NCoef="0" IVar="-1" Cut="0.0000000000000000e+00" cType="1" res="2.7529036626219749e-02" rms="4.5057925581932068e-01" purity="6.8105238676071167e-01" nType="-99"/>
        </Node>
        <Node pos="r" depth="1" NCoef="0" IVar="3" Cut="2.3905986022949219e+02" cType="1" res="2.8322395682334900e-01" rms="2.9350203275680542e-01" purity="8.8400584459304810e-01" nType="0">
          <Node pos="l" depth="2" NCoef="0" IVar="-1" Cut="0.0000000000000000e+00" cType="1" res="-1.8221095204353333e-02" rms="4.5054817199707031e-01" purity="3.9328929781913757e-01" nType="-99"/>
          <Node pos="r" depth="2" NCoef="0" IVar="5" Cut="1.2315000152587891e+02" cType="1" res="3.2316356897354126e-01" rms="2.3905862867832184e-01" purity="9.3678027391433716e-01" nType="0">
            <Node pos="l" depth="3" NCoef="0" IVar="-1" Cut="0.0000000000000000e+00" cType="1" res="7.2212778031826019e-02" rms="2.0024171471595764e-01" purity="9.5735919475555420e-01" nType="-99"/>
            <Node pos="r" depth="3" NCoef="0" IVar="-1" Cut="0.0000000000000000e+00" cType="1" res="2.5952771306037903e-02" rms="4.4629681110382080e-01" purity="7.1385896205902100e-01" nType="-99"/>
          </Node>
        </Node>
      </Node>
    </BinaryTree>
    <BinaryTree type="DecisionTree" boostWeight="1.0000000000000000e+00" itree="4">
      <Node pos="s" depth="0" NCoef="0" IVar="3" Cut="3.2541613769531250e+02" cType="1" res="-1.6842351760715246e-03" rms="3.7913307547569275e-01" purity="4.9821054935455322e-01" nType="0">
        <Node pos="l" depth="1" NCoef="0" IVar="4" Cut="7.5653387451171875e+02" cType="1" res="-2.4574394524097443e-01" rms="2.8622630238533020e-01" purity="1.3401804864406586e-01" nType="0">
          <Node pos="l" depth="2" NCoef="0" IVar="3" Cut="1.7046994018554688e+02" cType="1" res="-3.0101653933525085e-01" rms="2.0292130112648010e-01" purity="5.0571627914905548e-02" nType="0">
            <Node pos="l" depth="3" NCoef="0" IVar="-1" Cut="0.0000000000000000e+00" cType="1" res="-7.2958976030349731e-02" rms="1.1651501804590225e-01" purity="1.4632957987487316e-02" nType="-99"/>
            <Node pos="r" depth="3" NCoef="0" IVar="-1" Cut="0.0000000000000000e+00" cType="1" res="-5.1047727465629578e-02" rms="3.2030946016311646e-01" purity="1.3865610957145691e-01" nType="-99"/>
          </Node>
          <Node pos="r" depth="2" NCoef="0" IVar="3" Cut="1.6655639648437500e+02" cType="1" res="5.4540440440177917e-02" rms="4.4332268834114075e-01" purity="5.8736485242843628e-01" nType="0">
            <Node pos="l" depth="3" NCoef="0" IVar="-1" Cut="0.0000000000000000e+00" cType="1" res="-4.3676033616065979e-02" rms="3.8470831513404846e-01" purity="2.0512089133262634e-01" nType="-99"/>
            <Node pos="r" depth="3" NCoef="0" IVar="-1" Cut="0.0000000000000000e+00" cType="1" res="3.7657365202903748e-02" rms="4.1280722618103027e-01" purity="7.7215123176574707e-01" nType="-99"/>
          </Node>
        </Node>
        <Node pos="r" depth="1" NCoef="0" IVar="4" Cut="6.6396746826171875e+02" cType="1" res="2.7236756682395935e-01" rms="2.6676839590072632e-01" purity="9.0715807676315308e-01" nType="0">
          <Node pos="l" depth="2" NCoef="0" IVar="-1" Cut="0.0000000000000000e+00" cType="1" res="-1.4750531874597073e-02" rms="4.8057240247726440e-01" purity="4.0631711483001709e-01" nType="-99"/>
          <Node pos="r" depth="2" NCoef="0" IVar="7" Cut="1.2564955139160156e+02" cType="1" res="2.9886803030967712e-01" rms="2.2146840393543243e-01" purity="9.4561296701431274e-01" nType="0">
            <Node pos="l" depth="3" NCoef="0" IVar="-1" Cut="0.0000000000000000e+00" cType="1" res="4.6598855406045914e-02" rms="3.4475556015968323e-01" purity="8.5362946987152100e-01" nType="-99"/>
            <Node pos="r" depth="3" NCoef="0" IVar="-1" Cut="0.0000000000000000e+00" cType="1" res="6.9670431315898895e-02" rms="1.7895825207233429e-01" purity="9.6553254127502441e-01" nType="-99"/>
          </Node>
        </Node>
      </Node>
    </BinaryTree>
    <BinaryTree type="DecisionTree" boostWeight="1.0000000000000000e+00" itree="5">
      <Node pos="s" depth="0" NCoef="0" IVar="4" Cut="6.7278942871093750e+02" cType="1" res="-1.7477069050073624e-03" rms="3.5823714733123779e-01" purity="4.9752095341682434e-01" nType="0">
        <Node pos="l" depth="1" NCoef="0" IVar="3" Cut="3.4575506591796875e+02" cType="1" res="-2.6456299424171448e-01" rms="2.1750716865062714e-01" purity="6.0504186898469925e-02" nType="0">
          <Node pos="l" depth="2" NCoef="0" IVar="1" Cut="7.5928424072265625e+02" cType="1" res="-2.8189748525619507e-01" rms="1.7202268540859222e-01" purity="3.1963136047124863e-02" nType="0">
            <Node pos="l" depth="3" NCoef="0" IVar="-1" Cut="0.0000000000000000e+00" cType="1" res="-7.0157997310161591e-02" rms="9.8547667264938354e-02" purity="9.9458554759621620e-03" nType="-99"/>
            <Node pos="r" depth="3" NCoef="0" IVar="-1" Cut="0.0000000000000000e+00" cType="1" res="-5.4068084806203842e-02" rms="2.7750512957572937e-01" purity="8.7657235562801361e-02" nType="-99"/>
          </Node>
          <Node pos="r" depth="2" NCoef="0" IVar="-1" Cut="0.0000000000000000e+00" cType="1" res="2.5085572269745171e-04" rms="4.9369224905967712e-01" purity="4.9816155433654785e-01" nType="-99"/>
        </Node>
        <Node pos="r" depth="1" NCoef="0" IVar="3" Cut="1.4657160949707031e+02" cType="1" res="2.0503623783588409e-01" rms="3.0818596482276917e-01" purity="8.4136724472045898e-01" nType="0">
          <Node pos="l" depth="2" NCoef="0" IVar="-1" Cut="0.0000000000000000e+00" cType="1" res="-5.2180275321006775e-02" rms="3.1707319617271423e-01" purity="1.1524578183889389e-01" nType="-99"/>
          <Node pos="r" depth="2" NCoef="0" IVar="7" Cut="1.2574262237548828e+02" cType="1" res="2.4477997422218323e-01" rms="2.7438372373580933e-01" purity="9.0648221969604492e-01" nType="0">
            <Node pos="l" depth="3" NCoef="0" IVar="-1" Cut="0.0000000000000000e+00" cType="1" res="2.5811603292822838e-02" rms="4.0543174743652344e-01" purity="7.5672394037246704e-01" nType="-99"/>
            <Node pos="r" depth="3" NCoef="0" IVar="-1" Cut="0.0000000000000000e+00" cType="1" res="6.2733985483646393e-02" rms="2.1925690770149231e-01" purity="9.4374263286590576e-01" nType="-99"/>
          </Node>
        </Node>
      </Node>
    </BinaryTree>
    <BinaryTree type="DecisionTree" boostWeight="1.0000000000000000e+00" itree="6">
      <Node pos="s" depth="0" NCoef="0" IVar="3" Cut="3.2277096557617188e+02" cType="1" res="-3.0054477974772453e-04" rms="3.4041795134544373e-01" purity="4.9887123703956604e-01" nType="0">
        <Node pos="l" depth="1" NCoef="0" IVar="4" Cut="7.7061004638671875e+02" cType="1" res="-2.0170241594314575e-01" rms="2.7063170075416565e-01" purity="1.3375896215438843e-01" nType="0">
          <Node pos="l" depth="2" NCoef="0" IVar="3" Cut="2.1094657897949219e+02" cType="1" res="-2.4312344193458557e-01" rms="2.0678207278251648e-01" purity="5.5651079863309860e-02" nType="0">
            <Node pos="l" depth="3" NCoef="0" IVar="-1" Cut="0.0000000000000000e+00" cType="1" res="-6.4913131296634674e-02" rms="1.4082251489162445e-01" purity="2.3087019100785255e-02" nType="-99"/>
            <Node pos="r" depth="3" NCoef="0" IVar="-1" Cut="0.0000000000000000e+00" cType="1" res="-3.8740172982215881e-02" rms="3.4192839264869690e-01" purity="1.7166462540626526e-01" nType="-99"/>
          </Node>
          <Node pos="r" depth="2" NCoef="0" IVar="7" Cut="1.4790374755859375e+02" cType="1" res="4.3695457279682159e-02" rms="4.2831152677536011e-01" purity="5.9650725126266479e-01" nType="0">
            <Node pos="l" depth="3" NCoef="0" IVar="-1" Cut="0.0000000000000000e+00" cType="1" res="-2.7329264208674431e-02" rms="4.2514142394065857e-01" purity="3.8198602199554443e-01" nType="-99"/>
            <Node pos="r" depth="3" NCoef="0" IVar="-1" Cut="0.0000000000000000e+00" cType="1" res="3.5346563905477524e-02" rms="3.8853842020034790e-01" purity="7.4619871377944946e-01" nType="-99"/>
          </Node>
        </Node>
        <Node pos="r" depth="1" NCoef="0" IVar="4" Cut="6.9140008544921875e+02" cType="1" res="2.2463376820087433e-01" rms="2.6002329587936401e-01" purity="9.0664440393447876e-01" nType="0">
          <Node pos="l" depth="2" NCoef="0" IVar="-1" Cut="0.0000000000000000e+00" cType="1" res="-1.8038310809060931e-03" rms="4.7489136457443237e-01" purity="4.7483474016189575e-01" nType="-99"/>
          <Node pos="r" depth="2" NCoef="0" IVar="2" Cut="5.7029504394531250e+02" cType="1" res="2.4733956158161163e-01" rms="2.1548740565776825e-01" purity="9.4865339994430542e-01" nType="0">
            <Node pos="l" depth="3" NCoef="0" IVar="-1" Cut="0.0000000000000000e+00" cType="1" res="6.3473768532276154e-02" rms="1.7456115782260895e-01" purity="9.6696418523788452e-01" nType="-99"/>
            <Node pos="r" depth="3" NCoef="0" IVar="-1" Cut="0.0000000000000000e+00" cType="1" res="3.1461175531148911e-02" rms="3.6482411623001099e-01" purity="8.3159255981445312e-01" nType="-99"/>
          </Node>
        </Node>
      </Node>
    </BinaryTree>
    <BinaryTree type="DecisionTree" boostWeight="1.0000000000000000e+00" itree="7">
      <Node pos="s" depth="0" NCoef="0" IVar="3" Cut="3.2112078857421875e+02" cType="1" res="-3.0712257139384747e-03" rms="3.2560488581657410e-01" purity="4.9607124924659729e-01" nType="0">
        <Node pos="l" depth="1" NCoef="0" IVar="7" Cut="1.7541775512695312e+02" cType="1" res="-1.8410922586917877e-01" rms="2.6159876585006714e-01" purity="1.3012571632862091e-01" nType="0">
          <Node pos="l" depth="2" NCoef="0" IVar="4" Cut="5.8676812744140625e+02" cType="1" res="-2.1743977069854736e-01" rms="2.1921923756599426e-01" purity="7.3624379932880402e-02" nType="0">
            <Node pos="l" depth="3" NCoef="0" IVar="-1" Cut="0.0000000000000000e+00" cType="1" res="-6.3787184655666351e-02" rms="1.1617738008499146e-01" purity="1.4004333876073360e-02" nType="-99"/>
            <Node pos="r" depth="3" NCoef="0" IVar="-1" Cut="0.0000000000000000e+00" cType="1" res="-3.5636559128761292e-02" rms="3.5452055931091309e-01" purity="2.1767595410346985e-01" nType="-99"/>
          </Node>
          <Node pos="r" depth="2" NCoef="0" IVar="4" Cut="8.2754071044921875e+02" cType="1" res="9.1342881321907043e-02" rms="3.8958764076232910e-01" purity="5.9706699848175049e-01" nType="0">
            <Node pos="l" depth="3" NCoef="0" IVar="-1" Cut="0.0000000000000000e+00" cType="1" res="-1.0849481448531151e-02" rms="4.0074324607849121e-01" purity="3.5470369458198547e-01" nType="-99"/>
            <Node pos="r" depth="3" NCoef="0" IVar="-1" Cut="0.0000000000000000e+00" cType="1" res="5.0518613308668137e-02" rms="3.2402405142784119e-01" purity="8.3816802501678467e-01" nType="-99"/>
          </Node>
        </Node>
        <Node pos="r" depth="1" NCoef="0" IVar="6" Cut="1.7177568054199219e+02" cType="1" res="1.9668021798133850e-01" rms="2.6725447177886963e-01" purity="8.9984369277954102e-01" nType="0">
          <Node pos="l" depth="2" NCoef="0" IVar="-1" Cut="0.0000000000000000e+00" cType="1" res="-1.7255550250411034e-02" rms="4.3112617731094360e-01" purity="5.1256829500198364e-01" nType="-99"/>
          <Node pos="r" depth="2" NCoef="0" IVar="5" Cut="1.3443077087402344e+02" cType="1" res="2.1871598064899445e-01" rms="2.3599642515182495e-01" purity="9.3102204799652100e-01" nType="0">
            <Node pos="l" depth="3" NCoef="0" IVar="-1" Cut="0.0000000000000000e+00" cType="1" res="5.7281065732240677e-02" rms="2.1319319307804108e-01" purity="9.4463956356048584e-01" nType="-99"/>
            <Node pos="r" depth="3" NCoef="0" IVar="-1" Cut="0.0000000000000000e+00" cType="1" res="1.0784073732793331e-02" rms="4.3375080823898315e-01" purity="7.1339935064315796e-01" nType="-99"/>
          </Node>
        </Node>
      </Node>
    </BinaryTree>
    <BinaryTree type="DecisionTree" boostWeight="1.0000000000000000e+00" itree="8">
      <Node pos="s" depth="0" NCoef="0" IVar="4" Cut="7.3698919677734375e+02" cType="1" res="-3.4100883640348911e-03" rms="3.1256380677223206e-01" purity="4.9611529707908630e-01" nType="0">
        <Node pos="l" depth="1" NCoef="0" IVar="3" Cut="3.9470123291015625e+02" cType="1" res="-1.8247693777084351e-01" rms="2.4787728488445282e-01" purity="1.0509907454252243e-01" nType="0">
          <Node pos="l" depth="2" NCoef="0" IVar="1" Cut="8.0203576660156250e+02" cType="1" res="-2.0004568994045258e-01" rms="2.2149910032749176e-01" purity="6.8501420319080353e-02" nType="0">
            <Node pos="l" depth="3" NCoef="0" IVar="-1" Cut="0.0000000000000000e+00" cType="1" res="-6.1322741210460663e-02" rms="1.3335511088371277e-01" purity="1.9817406311631203e-02" nType="-99"/>
            <Node pos="r" depth="3" NCoef="0" IVar="-1" Cut="0.0000000000000000e+00" cType="1" res="-3.4368231892585754e-02" rms="3.5204273462295532e-01" purity="1.9303591549396515e-01" nType="-99"/>
          </Node>
          <Node pos="r" depth="2" NCoef="0" IVar="-1" Cut="0.0000000000000000e+00" cType="1" res="2.4139788001775742e-02" rms="4.2069521546363831e-01" purity="7.1650630235671997e-01" nType="-99"/>
        </Node>
        <Node pos="r" depth="1" NCoef="0" IVar="3" Cut="1.5174964904785156e+02" cType="1" res="1.7424708604812622e-01" rms="2.6512098312377930e-01" purity="8.8405328989028931e-01" nType="0">
          <Node pos="l" depth="2" NCoef="0" IVar="-1" Cut="0.0000000000000000e+00" cType="1" res="-4.1018895804882050e-02" rms="3.4419429302215576e-01" purity="1.5607944130897522e-01" nType="-99"/>
          <Node pos="r" depth="2" NCoef="0" IVar="7" Cut="1.2564223480224609e+02" cType="1" res="1.9507916271686554e-01" rms="2.4419936537742615e-01" purity="9.2678058147430420e-01" nType="0">
            <Node pos="l" depth="3" NCoef="0" IVar="-1" Cut="0.0000000000000000e+00" cType="1" res="2.4809416383504868e-02" rms="3.7520188093185425e-01" purity="7.9835295677185059e-01" nType="-99"/>
            <Node pos="r" depth="3" NCoef="0" IVar="-1" Cut="0.0000000000000000e+00" cType="1" res="5.6222375482320786e-02" rms="1.9987367093563080e-01" purity="9.5444631576538086e-01" nType="-99"/>
          </Node>
        </Node>
      </Node>
    </BinaryTree>
    <BinaryTree type="DecisionTree" boostWeight="1.0000000000000000e+00" itree="9">
      <Node pos="s" depth="0" NCoef="0" IVar="3" Cut="3.2513739013671875e+02" cType="1" res="4.0327021270059049e-04" rms="3.0079174041748047e-01" purity="5.0174009799957275e-01" nType="0">
        <Node pos="l" depth="1" NCoef="0" IVar="7" Cut="1.4776399230957031e+02" cType="1" res="-1.4852532744407654e-01" rms="2.5865191221237183e-01" purity="1.3761943578720093e-01" nType="0">
          <Node pos="l" depth="2" NCoef="0" IVar="3" Cut="1.7016317749023438e+02" cType="1" res="-1.8685601651668549e-01" rms="2.0457266271114349e-01" purity="6.1538774520158768e-02" nType="0">
            <Node pos="l" depth="3" NCoef="0" IVar="-1" Cut="0.0000000000000000e+00" cType="1" res="-6.0527924448251724e-02" rms="1.1424036324024200e-01" purity="1.4356190338730812e-02" nType="-99"/>
            <Node pos="r" depth="3" NCoef="0" IVar="-1" Cut="0.0000000000000000e+00" cType="1" res="-3.6126349121332169e-02" rms="3.2423326373100281e-01" purity="1.7037272453308105e-01" nType="-99"/>
          </Node>
          <Node pos="r" depth="2" NCoef="0" IVar="3" Cut="1.4210217285156250e+02" cType="1" res="1.6627084463834763e-02" rms="3.7580534815788269e-01" purity="4.6542212367057800e-01" nType="0">
            <Node pos="l" depth="3" NCoef="0" IVar="-1" Cut="0.0000000000000000e+00" cType="1" res="-4.4021341949701309e-02" rms="2.7638578414916992e-01" purity="9.3699589371681213e-02" nType="-99"/>
            <Node pos="r" depth="3" NCoef="0" IVar="-1" Cut="0.0000000000000000e+00" cType="1" res="2.8565751388669014e-02" rms="3.8458910584449768e-01" purity="6.7603605985641479e-01" nType="-99"/>
          </Node>
        </Node>
        <Node pos="r" depth="1" NCoef="0" IVar="4" Cut="6.4504327392578125e+02" cType="1" res="1.6568741202354431e-01" rms="2.5437214970588684e-01" purity="9.0584892034530640e-01" nType="0">
          <Node pos="l" depth="2" NCoef="0" IVar="-1" Cut="0.0000000000000000e+00" cType="1" res="-1.9241943955421448e-02" rms="4.5619666576385498e-01" purity="3.6921450495719910e-01" nType="-99"/>
          <Node pos="r" depth="2" NCoef="0" IVar="5" Cut="1.1779996490478516e+02" cType="1" res="1.8169985711574554e-01" rms="2.2678582370281219e-01" purity="9.3905073404312134e-01" nType="0">
            <Node pos="l" depth="3" NCoef="0" IVar="-1" Cut="0.0000000000000000e+00" cType="1" res="5.4623108357191086e-02" rms="1.9232380390167236e-01" purity="9.5839530229568481e-01" nType="-99"/>
            <Node pos="r" depth="3" NCoef="0" IVar="-1" Cut="0.0000000000000000e+00" cType="1" res="7.8371800482273102e-03" rms="4.1838997602462769e-01" purity="7.4051153659820557e-01" nType="-99"/>
          </Node>
        </Node>
      </Node>
    </BinaryTree>
    <BinaryTree type="DecisionTree" boostWeight="1.0000000000000000e+00" itree="10">
      <Node pos="s" depth="0" NCoef="0" IVar="4" Cut="6.9318890380859375e+02" cType="1" res="-7.3294219328090549e-04" rms="2.9042243957519531e-01" purity="5.0076866149902344e-01" nType="0">
        <Node pos="l" depth="1" NCoef="0" IVar="2" Cut="4.2274429321289062e+02" cType="1" res="-1.5967419743537903e-01" rms="2.2241145372390747e-01" purity="7.4334912002086639e-02" nType="0">
          <Node pos="l" depth="2" NCoef="0" IVar="4" Cut="6.1828564453125000e+02" cType="1" res="-1.7512542009353638e-01" rms="1.7650739848613739e-01" purity="3.7175551056861877e-02" nType="0">
            <Node pos="l" depth="3" NCoef="0" IVar="-1" Cut="0.0000000000000000e+00" cType="1" res="-5.7176072150468826e-02" rms="1.3696970045566559e-01" purity="2.0304633304476738e-02" nType="-99"/>
            <Node pos="r" depth="3" NCoef="0" IVar="-1" Cut="0.0000000000000000e+00" cType="1" res="-2.9377406463027000e-02" rms="3.3481803536415100e-01" purity="1.5397788584232330e-01" nType="-99"/>
          </Node>
          <Node pos="r" depth="2" NCoef="0" IVar="-1" Cut="0.0000000000000000e+00" cType="1" res="-7.1788453496992588e-03" rms="4.2832711338996887e-01" purity="3.8390672206878662e-01" nType="-99"/>
        </Node>
        <Node pos="r" depth="1" NCoef="0" IVar="3" Cut="1.4517343139648438e+02" cType="1" res="1.3195669651031494e-01" rms="2.7343448996543884e-01" purity="8.5677021741867065e-01" nType="0">
          <Node pos="l" depth="2" NCoef="0" IVar="-1" Cut="0.0000000000000000e+00" cType="1" res="-4.0527194738388062e-02" rms="3.0593767762184143e-01" purity="1.1185550689697266e-01" nType="-99"/>
          <Node pos="r" depth="2" NCoef="0" IVar="2" Cut="5.4412493896484375e+02" cType="1" res="1.5339669585227966e-01" rms="2.5822034478187561e-01" purity="9.1162484884262085e-01" nType="0">
            <Node pos="l" depth="3" NCoef="0" IVar="-1" Cut="0.0000000000000000e+00" cType="1" res="4.9260910600423813e-02" rms="2.2264903783798218e-01" purity="9.3418931961059570e-01" nType="-99"/>
            <Node pos="r" depth="3" NCoef="0" IVar="-1" Cut="0.0000000000000000e+00" cType="1" res="1.0901232250034809e-02" rms="3.7365472316741943e-01" purity="7.9497629404067993e-01" nType="-99"/>
          </Node>
        </Node>
      </Node>
    </BinaryTree>
    <BinaryTree type="DecisionTree" boostWeight="1.0000000000000000e+00" itree="11">
      <Node pos="s" depth="0" NCoef="0" IVar="4" Cut="6.6820806884765625e+02" cType="1" res="1.1943022254854441e-03" rms="2.8114140033721924e-01" purity="5.0111043453216553e-01" nType="0">
        <Node pos="l" depth="1" NCoef="0" IVar="4" Cut="5.9804766845703125e+02" cType="1" res="-1.4760375022888184e-01" rms="2.0890788733959198e-01" purity="6.1750095337629318e-02" nType="0">
          <Node pos="l" depth="2" NCoef="0" IVar="4" Cut="5.2708251953125000e+02" cType="1" res="-1.6595807671546936e-01" rms="1.5526692569255829e-01" purity="2.9331980273127556e-02" nType="0">
            <Node pos="l" depth="3" NCoef="0" IVar="-1" Cut="0.0000000000000000e+00" cType="1" res="-5.8667663484811783e-02" rms="1.0825637727975845e-01" purity="1.1953095905482769e-02" nType="-99"/>
            <Node pos="r" depth="3" NCoef="0" IVar="-1" Cut="0.0000000000000000e+00" cType="1" res="-4.1471898555755615e-02" rms="2.4317637085914612e-01" purity="8.0430500209331512e-02" nType="-99"/>
          </Node>
          <Node pos="r" depth="2" NCoef="0" IVar="3" Cut="1.4571836853027344e+02" cType="1" res="-5.7410657405853271e-02" rms="3.6034101247787476e-01" purity="2.2105255722999573e-01" nType="0">
            <Node pos="l" depth="3" NCoef="0" IVar="-1" Cut="0.0000000000000000e+00" cType="1" res="-5.3627353161573410e-02" rms="1.7113472521305084e-01" purity="3.0753606930375099e-02" nType="-99"/>
            <Node pos="r" depth="3" NCoef="0" IVar="-1" Cut="0.0000000000000000e+00" cType="1" res="1.3547698967158794e-02" rms="4.4830358028411865e-01" purity="4.0585145354270935e-01" nType="-99"/>
          </Node>
        </Node>
        <Node pos="r" depth="1" NCoef="0" IVar="3" Cut="1.4526640319824219e+02" cType="1" res="1.1606321483850479e-01" rms="2.7582570910453796e-01" purity="8.4028714895248413e-01" nType="0">
          <Node pos="l" depth="2" NCoef="0" IVar="-1" Cut="0.0000000000000000e+00" cType="1" res="-3.9572782814502716e-02" rms="2.9158246517181396e-01" purity="1.0094431042671204e-01" nType="-99"/>
          <Node pos="r" depth="2" NCoef="0" IVar="5" Cut="1.3784890747070312e+02" cType="1" res="1.3917478919029236e-01" rms="2.6209014654159546e-01" purity="9.0537589788436890e-01" nType="0">
            <Node pos="l" depth="3" NCoef="0" IVar="-1" Cut="0.0000000000000000e+00" cType="1" res="4.6158861368894577e-02" rms="2.3300130665302277e-01" purity="9.2943698167800903e-01" nType="-99"/>
            <Node pos="r" depth="3" NCoef="0" IVar="-1" Cut="0.0000000000000000e+00" cType="1" res="-2.0702064037322998e-02" rms="4.5223858952522278e-01" purity="5.8606886863708496e-01" nType="-99"/>
          </Node>
        </Node>
      </Node>
    </BinaryTree>
    <BinaryTree type="DecisionTree" boostWeight="1.0000000000000000e+00" itree="12">
      <Node pos="s" depth="0" NCoef="0" IVar="3" Cut="3.1880249023437500e+02" cType="1" res="-3.0938065610826015e-03" rms="2.7548596262931824e-01" purity="4.9661046266555786e-01" nType="0">
        <Node pos="l" depth="1" NCoef="0" IVar="7" Cut="1.4776399230957031e+02" cType="1" res="-1.1773519963026047e-01" rms="2.4018274247646332e-01" purity="1.2932501733303070e-01" nType="0">
          <Node pos="l" depth="2" NCoef="0" IVar="5" Cut="6.1528045654296875e+01" cType="1" res="-1.4347009360790253e-01" rms="1.9636924564838409e-01" purity="5.9289962053298950e-02" nType="0">
            <Node pos="l" depth="3" NCoef="0" IVar="-1" Cut="0.0000000000000000e+00" cType="1" res="-3.8548678159713745e-02" rms="2.3225677013397217e-01" purity="9.0023942291736603e-02" nType="-99"/>
            <Node pos="r" depth="3" NCoef="0" IVar="-1" Cut="0.0000000000000000e+00" cType="1" res="-5.4661601781845093e-02" rms="1.6185532510280609e-01" purity="3.6614783108234406e-02" nType="-99"/>
          </Node>
          <Node pos="r" depth="2" NCoef="0" IVar="3" Cut="1.3997273254394531e+02" cType="1" res="-3.1826978083699942e-03" rms="3.5602805018424988e-01" purity="4.4106855988502502e-01" nType="0">
            <Node pos="l" depth="3" NCoef="0" IVar="-1" Cut="0.0000000000000000e+00" cType="1" res="-4.0892675518989563e-02" rms="2.5366264581680298e-01" purity="7.7004753053188324e-02" nType="-99"/>
            <Node pos="r" depth="3" NCoef="0" IVar="-1" Cut="0.0000000000000000e+00" cType="1" res="1.8081666901707649e-02" rms="3.8316369056701660e-01" purity="6.4732819795608521e-01" nType="-99"/>
          </Node>
        </Node>
        <Node pos="r" depth="1" NCoef="0" IVar="6" Cut="1.7179615783691406e+02" cType="1" res="1.2159495800733566e-01" rms="2.5661444664001465e-01" purity="8.9608550071716309e-01" nType="0">
          <Node pos="l" depth="2" NCoef="0" IVar="-1" Cut="0.0000000000000000e+00" cType="1" res="-2.0022392272949219e-02" rms="4.0405100584030151e-01" purity="5.0150120258331299e-01" nType="-99"/>
          <Node pos="r" depth="2" NCoef="0" IVar="3" Cut="4.0149288940429688e+02" cType="1" res="1.3804259896278381e-01" rms="2.3313371837139130e-01" purity="9.2804265022277832e-01" nType="0">
            <Node pos="l" depth="3" NCoef="0" IVar="-1" Cut="0.0000000000000000e+00" cType="1" res="1.8930023536086082e-02" rms="3.5144641995429993e-01" purity="8.1035208702087402e-01" nType="-99"/>
            <Node pos="r" depth="3" NCoef="0" IVar="-1" Cut="0.0000000000000000e+00" cType="1" res="5.1895298063755035e-02" rms="1.7474991083145142e-01" purity="9.6484661102294922e-01" nType="-99"/>
          </Node>
        </Node>
      </Node>
    </BinaryTree>
    <BinaryTree type="DecisionTree" boostWeight="1.0000000000000000e+00" itree="13">
      <Node pos="s" depth="0" NCoef="0" IVar="4" Cut="6.8286450195312500e+02" cType="1" res="1.3579628430306911e-03" rms="2.6727941632270813e-01" purity="5.0221949815750122e-01" nType="0">
        <Node pos="l" depth="1" NCoef="0" IVar="4" Cut="5.7346911621093750e+02" cType="1" res="-1.2035939097404480e-01" rms="2.1250823140144348e-01" purity="6.9756187498569489e-02" nType="0">
          <Node pos="l" depth="2" NCoef="0" IVar="4" Cut="5.2137329101562500e+02" cType="1" res="-1.4193850755691528e-01" rms="1.3901323080062866e-01" purity="2.2454455494880676e-02" nType="0">
            <Node pos="l" depth="3" NCoef="0" IVar="-1" Cut="0.0000000000000000e+00" cType="1" res="-5.6476261466741562e-02" rms="1.0167769342660904e-01" purity="1.0394139215350151e-02" nType="-99"/>
            <Node pos="r" depth="3" NCoef="0" IVar="-1" Cut="0.0000000000000000e+00" cType="1" res="-4.1501116007566452e-02" rms="2.2343499958515167e-01" purity="6.4443469047546387e-02" nType="-99"/>
          </Node>
          <Node pos="r" depth="2" NCoef="0" IVar="5" Cut="7.1739387512207031e+01" cType="1" res="-5.7535994797945023e-02" rms="3.3922126889228821e-01" purity="2.0746596157550812e-01" nType="0">
            <Node pos="l" depth="3" NCoef="0" IVar="-1" Cut="0.0000000000000000e+00" cType="1" res="8.2163773477077484e-03" rms="3.8575187325477600e-01" purity="3.2465994358062744e-01" nType="-99"/>
            <Node pos="r" depth="3" NCoef="0" IVar="-1" Cut="0.0000000000000000e+00" cType="1" res="-4.6045828610658646e-02" rms="2.4838759005069733e-01" purity="8.1260077655315399e-02" nType="-99"/>
          </Node>
        </Node>
        <Node pos="r" depth="1" NCoef="0" IVar="3" Cut="2.4346894836425781e+02" cType="1" res="1.0013784468173981e-01" rms="2.6642820239067078e-01" purity="8.5318571329116821e-01" nType="0">
          <Node pos="l" depth="2" NCoef="0" IVar="10" Cut="2.7150268554687500e+00" cType="1" res="-6.2129691243171692e-02" rms="3.8687530159950256e-01" purity="3.4191527962684631e-01" nType="0">
            <Node pos="l" depth="3" NCoef="0" IVar="-1" Cut="0.0000000000000000e+00" cType="1" res="1.5544682741165161e-02" rms="3.7941047549247742e-01" purity="4.7740355134010315e-01" nType="-99"/>
            <Node pos="r" depth="3" NCoef="0" IVar="-1" Cut="0.0000000000000000e+00" cType="1" res="-3.3477105200290680e-02" rms="3.7418422102928162e-01" purity="2.6767873764038086e-01" nType="-99"/>
          </Node>
          <Node pos="r" depth="2" NCoef="0" IVar="5" Cut="1.3801464843750000e+02" cType="1" res="1.2467265129089355e-01" rms="2.3345908522605896e-01" purity="9.3048965930938721e-01" nType="0">
            <Node pos="l" depth="3" NCoef="0" IVar="-1" Cut="0.0000000000000000e+00" cType="1" res="4.5500341802835464e-02" rms="2.0761652290821075e-01" purity="9.4892126321792603e-01" nType="-99"/>
            <Node pos="r" depth="3" NCoef="0" IVar="-1" Cut="0.0000000000000000e+00" cType="1" res="-8.4405550733208656e-03" rms="4.3970566987991333e-01" purity="6.6210865974426270e-01" nType="-99"/>
          </Node>
        </Node>
      </Node>
    </BinaryTree>
    <BinaryTree type="DecisionTree" boostWeight="1.0000000000000000e+00" itree="14">
      <Node pos="s" depth="0" NCoef="0" IVar="3" Cut="2.9342785644531250e+02" cType="1" res="-2.8507283423095942e-04" rms="2.5975960493087769e-01" purity="4.9878853559494019e-01" nType="0">
        <Node pos="l" depth="1" NCoef="0" IVar="7" Cut="1.9514775085449219e+02" cType="1" res="-1.0333785414695740e-01" rms="2.1991275250911713e-01" purity="1.0570577532052994e-01" nType="0">
          <Node pos="l" depth="2" NCoef="0" IVar="5" Cut="5.2326614379882812e+01" cType="1" res="-1.1667568981647491e-01" rms="1.9840426743030548e-01" purity="6.8210065364837646e-02" nType="0">
            <Node pos="l" depth="3" NCoef="0" IVar="-1" Cut="0.0000000000000000e+00" cType="1" res="-2.9551429674029350e-02" rms="2.4698017537593842e-01" purity="1.1466766148805618e-01" nType="-99"/>
            <Node pos="r" depth="3" NCoef="0" IVar="-1" Cut="0.0000000000000000e+00" cType="1" res="-5.0370749086141586e-02" rms="1.6367271542549133e-01" purity="4.3342452496290207e-02" nType="-99"/>
          </Node>
          <Node pos="r" depth="2" NCoef="0" IVar="-1" Cut="0.0000000000000000e+00" cType="1" res="2.2240357473492622e-02" rms="3.7043297290802002e-01" purity="6.3313794136047363e-01" nType="-99"/>
        </Node>
        <Node pos="r" depth="1" NCoef="0" IVar="1" Cut="8.6003710937500000e+02" cType="1" res="9.9112510681152344e-02" rms="2.5649064779281616e-01" purity="8.7792897224426270e-01" nType="0">
          <Node pos="l" depth="2" NCoef="0" IVar="-1" Cut="0.0000000000000000e+00" cType="1" res="-3.5548944026231766e-02" rms="3.6461290717124939e-01" purity="2.3564629256725311e-01" nType="-99"/>
          <Node pos="r" depth="2" NCoef="0" IVar="2" Cut="5.4689123535156250e+02" cType="1" res="1.1193141341209412e-01" rms="2.4275137484073639e-01" purity="9.1389030218124390e-01" nType="0">
            <Node pos="l" depth="3" NCoef="0" IVar="-1" Cut="0.0000000000000000e+00" cType="1" res="4.5544855296611786e-02" rms="2.0644541084766388e-01" purity="9.3679374456405640e-01" nType="-99"/>
            <Node pos="r" depth="3" NCoef="0" IVar="-1" Cut="0.0000000000000000e+00" cType="1" res="1.2201897334307432e-03" rms="3.6088496446609497e-01" purity="7.9418480396270752e-01" nType="-99"/>
          </Node>
        </Node>
      </Node>
    </BinaryTree>
    <BinaryTree type="DecisionTree" boostWeight="1.0000000000000000e+00" itree="15">
      <Node pos="s" depth="0" NCoef="0" IVar="4" Cut="6.7281384277343750e+02" cType="1" res="1.4588772319257259e-03" rms="2.5407737493515015e-01" purity="5.0061321258544922e-01" nType="0">
        <Node pos="l" depth="1" NCoef="0" IVar="1" Cut="7.6298645019531250e+02" cType="1" res="-1.0165780782699585e-01" rms="2.0057113468647003e-01" purity="6.2923148274421692e-02" nType="0">
          <Node pos="l" depth="2" NCoef="0" IVar="3" Cut="2.5848876953125000e+02" cType="1" res="-1.2356740981340408e-01" rms="9.8230026662349701e-02" purity="9.9343219771981239e-03" nType="0">
            <Node pos="l" depth="3" NCoef="0" IVar="-1" Cut="0.0000000000000000e+00" cType="1" res="-5.3791552782058716e-02" rms="9.0550206601619720e-02" purity="8.6534461006522179e-03" nType="-99"/>
            <Node pos="r" depth="3" NCoef="0" IVar="-1" Cut="0.0000000000000000e+00" cType="1" res="-5.3300481289625168e-02" rms="1.5571098029613495e-01" purity="2.3516781628131866e-02" nType="-99"/>
          </Node>
          <Node pos="r" depth="2" NCoef="0" IVar="4" Cut="5.4859704589843750e+02" cType="1" res="-5.4448582231998444e-02" rms="3.2071250677108765e-01" purity="1.7709961533546448e-01" nType="0">
            <Node pos="l" depth="3" NCoef="0" IVar="-1" Cut="0.0000000000000000e+00" cType="1" res="-4.5796915888786316e-02" rms="2.0894524455070496e-01" purity="5.2053835242986679e-02" nType="-99"/>
            <Node pos="r" depth="3" NCoef="0" IVar="-1" Cut="0.0000000000000000e+00" cType="1" res="5.2729491144418716e-03" rms="3.9200657606124878e-01" purity="3.0668044090270996e-01" nType="-99"/>
          </Node>
        </Node>
        <Node pos="r" depth="1" NCoef="0" IVar="3" Cut="1.4657160949707031e+02" cType="1" res="8.1766039133071899e-02" rms="2.6224136352539062e-01" purity="8.4148579835891724e-01" nType="0">
          <Node pos="l" depth="2" NCoef="0" IVar="-1" Cut="0.0000000000000000e+00" cType="1" res="-2.9975995421409607e-02" rms="2.9632019996643066e-01" purity="1.0716538876295090e-01" nType="-99"/>
          <Node pos="r" depth="2" NCoef="0" IVar="7" Cut="1.1420987701416016e+02" cType="1" res="9.7767196595668793e-02" rms="2.5289702415466309e-01" purity="9.0759915113449097e-01" nType="0">
            <Node pos="l" depth="3" NCoef="0" IVar="-1" Cut="0.0000000000000000e+00" cType="1" res="2.2055220324546099e-03" rms="3.7603154778480530e-01" purity="7.4278557300567627e-01" nType="-99"/>
            <Node pos="r" depth="3" NCoef="0" IVar="-1" Cut="0.0000000000000000e+00" cType="1" res="4.0937129408121109e-02" rms="2.1961188316345215e-01" purity="9.3738919496536255e-01" nType="-99"/>
          </Node>
        </Node>
      </Node>
    </BinaryTree>
    <BinaryTree type="DecisionTree" boostWeight="1.0000000000000000e+00" itree="16">
      <Node pos="s" depth="0" NCoef="0" IVar="4" Cut="8.8978759765625000e+02" cType="1" res="-8.7766110664233565e-04" rms="2.5239241123199463e-01" purity="5.0074291229248047e-01" nType="0">
        <Node pos="l" depth="1" NCoef="0" IVar="3" Cut="3.5847399902343750e+02" cType="1" res="-6.3548929989337921e-02" rms="2.5757515430450439e-01" purity="2.5412368774414062e-01" nType="0">
          <Node pos="l" depth="2" NCoef="0" IVar="7" Cut="1.3101216125488281e+02" cType="1" res="-9.1770485043525696e-02" rms="2.3092146217823029e-01" purity="1.1076416075229645e-01" nType="0">
            <Node pos="l" depth="3" NCoef="0" IVar="-1" Cut="0.0000000000000000e+00" cType="1" res="-4.4935531914234161e-02" rms="1.8518254160881042e-01" purity="4.9368564039468765e-02" nType="-99"/>
            <Node pos="r" depth="3" NCoef="0" IVar="-1" Cut="0.0000000000000000e+00" cType="1" res="-1.5018997713923454e-02" rms="3.2790833711624146e-01" purity="2.9457852244377136e-01" nType="-99"/>
          </Node>
          <Node pos="r" depth="2" NCoef="0" IVar="5" Cut="7.7015167236328125e+01" cType="1" res="4.9970965832471848e-02" rms="3.2035568356513977e-01" purity="8.3078068494796753e-01" nType="0">
            <Node pos="l" depth="3" NCoef="0" IVar="-1" Cut="0.0000000000000000e+00" cType="1" res="3.3066436648368835e-02" rms="2.7121534943580627e-01" purity="8.9027971029281616e-01" nType="-99"/>
            <Node pos="r" depth="3" NCoef="0" IVar="-1" Cut="0.0000000000000000e+00" cType="1" res="-3.6285810172557831e-02" rms="4.1473326086997986e-01" purity="6.1151927709579468e-01" nType="-99"/>
          </Node>
        </Node>
        <Node pos="r" depth="1" NCoef="0" IVar="2" Cut="6.1463391113281250e+02" cType="1" res="1.1007793992757797e-01" rms="1.9939343631267548e-01" purity="9.3736690282821655e-01" nType="0">
          <Node pos="l" depth="2" NCoef="0" IVar="2" Cut="5.4072308349609375e+02" cType="1" res="1.2338408827781677e-01" rms="1.6493107378482819e-01" purity="9.5429861545562744e-01" nType="0">
            <Node pos="l" depth="3" NCoef="0" IVar="-1" Cut="0.0000000000000000e+00" cType="1" res="5.0649426877498627e-02" rms="1.4494891464710236e-01" purity="9.6207082271575928e-01" nType="-99"/>
            <Node pos="r" depth="3" NCoef="0" IVar="-1" Cut="0.0000000000000000e+00" cType="1" res="1.9867448136210442e-02" rms="2.9745095968246460e-01" purity="8.7124162912368774e-01" nType="-99"/>
          </Node>
          <Node pos="r" depth="2" NCoef="0" IVar="-1" Cut="0.0000000000000000e+00" cType="1" res="5.1268958486616611e-03" rms="3.4503328800201416e-01" purity="8.1658726930618286e-01" nType="-99"/>
        </Node>
      </Node>
    </BinaryTree>
    <BinaryTree type="DecisionTree" boostWeight="1.0000000000000000e+00" itree="17">
      <Node pos="s" depth="0" NCoef="0" IVar="3" Cut="3.2304971313476562e+02" cType="1" res="-3.9377016946673393e-03" rms="2.4892188608646393e-01" purity="4.9450930953025818e-01" nType="0">
        <Node pos="l" depth="1" NCoef="0" IVar="7" Cut="1.7541679382324219e+02" cType="1" res="-7.4709817767143250e-02" rms="2.3173934221267700e-01" purity="1.3124264776706696e-01" nType="0">
          <Node pos="l" depth="2" NCoef="0" IVar="5" Cut="1.0421830749511719e+02" cType="1" res="-8.8391423225402832e-02" rms="2.0638751983642578e-01" purity="7.5338490307331085e-02" nType="0">
            <Node pos="l" depth="3" NCoef="0" IVar="-1" Cut="0.0000000000000000e+00" cType="1" res="-3.0880892649292946e-02" rms="2.2079835832118988e-01" purity="9.2690363526344299e-02" nType="-99"/>
            <Node pos="r" depth="3" NCoef="0" IVar="-1" Cut="0.0000000000000000e+00" cType="1" res="-5.4936535656452179e-02" rms="1.5447261929512024e-01" purity="2.9264830052852631e-02" nType="-99"/>
          </Node>
          <Node pos="r" depth="2" NCoef="0" IVar="4" Cut="8.4577154541015625e+02" cType="1" res="3.8416977971792221e-02" rms="3.6221385002136230e-01" purity="5.9348797798156738e-01" nType="0">
            <Node pos="l" depth="3" NCoef="0" IVar="-1" Cut="0.0000000000000000e+00" cType="1" res="-9.2315301299095154e-03" rms="3.8929891586303711e-01" purity="3.7376284599304199e-01" nType="-99"/>
            <Node pos="r" depth="3" NCoef="0" IVar="-1" Cut="0.0000000000000000e+00" cType="1" res="3.5518836230039597e-02" rms="3.0905613303184509e-01" purity="8.4530717134475708e-01" nType="-99"/>
          </Node>
        </Node>
        <Node pos="r" depth="1" NCoef="0" IVar="5" Cut="1.1779996490478516e+02" cType="1" res="7.5077347457408905e-02" rms="2.4361358582973480e-01" purity="9.0008628368377686e-01" nType="0">
          <Node pos="l" depth="2" NCoef="0" IVar="3" Cut="4.0690048217773438e+02" cType="1" res="8.9166276156902313e-02" rms="2.1677000820636749e-01" purity="9.2478638887405396e-01" nType="0">
            <Node pos="l" depth="3" NCoef="0" IVar="-1" Cut="0.0000000000000000e+00" cType="1" res="1.0238764807581902e-02" rms="3.2184335589408875e-01" purity="7.9718589782714844e-01" nType="-99"/>
            <Node pos="r" depth="3" NCoef="0" IVar="-1" Cut="0.0000000000000000e+00" cType="1" res="4.6068329364061356e-02" rms="1.6399404406547546e-01" purity="9.6655428409576416e-01" nType="-99"/>
          </Node>
          <Node pos="r" depth="2" NCoef="0" IVar="-1" Cut="0.0000000000000000e+00" cType="1" res="-1.8378438428044319e-02" rms="4.0121078491210938e-01" purity="6.5346479415893555e-01" nType="-99"/>
        </Node>
      </Node>
    </BinaryTree>
    <BinaryTree type="DecisionTree" boostWeight="1.0000000000000000e+00" itree="18">
      <Node pos="s" depth="0" NCoef="0" IVar="4" Cut="6.9319403076171875e+02" cType="1" res="1.6261340351775289e-03" rms="2.4298433959484100e-01" purity="4.9921250343322754e-01" nType="0">
        <Node pos="l" depth="1" NCoef="0" IVar="1" Cut="7.8279229736328125e+02" cType="1" res="-7.5189709663391113e-02" rms="2.0919170975685120e-01" purity="7.6061524450778961e-02" nType="0">
          <Node pos="l" depth="2" NCoef="0" IVar="3" Cut="2.6517520141601562e+02" cType="1" res="-9.5601268112659454e-02" rms="1.1243637651205063e-01" purity="1.3646115548908710e-02" nType="0">
            <Node pos="l" depth="3" NCoef="0" IVar="-1" Cut="0.0000000000000000e+00" cType="1" res="-5.0011068582534790e-02" rms="1.0329005122184753e-01" purity="1.1539643630385399e-02" nType="-99"/>
            <Node pos="r" depth="3" NCoef="0" IVar="-1" Cut="0.0000000000000000e+00" cType="1" res="-4.6964857727289200e-02" rms="1.8726788461208344e-01" purity="3.8267277181148529e-02" nType="-99"/>
          </Node>
          <Node pos="r" depth="2" NCoef="0" IVar="5" Cut="6.0641803741455078e+01" cType="1" res="-2.9162032529711723e-02" rms="3.3298107981681824e-01" purity="2.1680708229541779e-01" nType="0">
            <Node pos="l" depth="3" NCoef="0" IVar="-1" Cut="0.0000000000000000e+00" cType="1" res="1.2923633679747581e-02" rms="3.7823799252510071e-01" purity="3.3363550901412964e-01" nType="-99"/>
            <Node pos="r" depth="3" NCoef="0" IVar="-1" Cut="0.0000000000000000e+00" cType="1" res="-3.5190191119909286e-02" rms="2.6633036136627197e-01" purity="1.0577052831649780e-01" nType="-99"/>
          </Node>
        </Node>
        <Node pos="r" depth="1" NCoef="0" IVar="5" Cut="1.2258267974853516e+02" cType="1" res="6.7299537360668182e-02" rms="2.5049433112144470e-01" purity="8.6098372936248779e-01" nType="0">
          <Node pos="l" depth="2" NCoef="0" IVar="3" Cut="1.4146093750000000e+02" cType="1" res="8.4135495126247406e-02" rms="2.2521157562732697e-01" purity="8.9900755882263184e-01" nType="0">
            <Node pos="l" depth="3" NCoef="0" IVar="-1" Cut="0.0000000000000000e+00" cType="1" res="-1.4537727460265160e-02" rms="3.3697012066841125e-01" purity="1.4609897136688232e-01" nType="-99"/>
            <Node pos="r" depth="3" NCoef="0" IVar="-1" Cut="0.0000000000000000e+00" cType="1" res="3.7779435515403748e-02" rms="2.1511438488960266e-01" purity="9.4076550006866455e-01" nType="-99"/>
          </Node>
          <Node pos="r" depth="2" NCoef="0" IVar="3" Cut="3.5403643798828125e+02" cType="1" res="-8.0407060682773590e-02" rms="3.7942183017730713e-01" purity="5.2739006280899048e-01" nType="0">
            <Node pos="l" depth="3" NCoef="0" IVar="-1" Cut="0.0000000000000000e+00" cType="1" res="-5.1296308636665344e-02" rms="3.4440034627914429e-01" purity="2.3991411924362183e-01" nType="-99"/>
            <Node pos="r" depth="3" NCoef="0" IVar="-1" Cut="0.0000000000000000e+00" cType="1" res="7.3238438926637173e-03" rms="3.7983968853950500e-01" purity="7.9513138532638550e-01" nType="-99"/>
          </Node>
        </Node>
      </Node>
    </BinaryTree>
    <BinaryTree type="DecisionTree" boostWeight="1.0000000000000000e+00" itree="19">
      <Node pos="s" depth="0" NCoef="0" IVar="1" Cut="8.6317492675781250e+02" cType="1" res="2.3196286056190729e-03" rms="2.4044638872146606e-01" purity="5.0225150585174561e-01" nType="0">
        <Node pos="l" depth="1" NCoef="0" IVar="1" Cut="7.9398706054687500e+02" cType="1" res="-8.0995962023735046e-02" rms="1.7997048795223236e-01" purity="4.7849316149950027e-02" nType="0">
          <Node pos="l" depth="2" NCoef="0" IVar="3" Cut="2.6941696166992188e+02" cType="1" res="-8.7172150611877441e-02" rms="1.3923700153827667e-01" purity="2.1665884181857109e-02" nType="0">
            <Node pos="l" depth="3" NCoef="0" IVar="-1" Cut="0.0000000000000000e+00" cType="1" res="-4.7064844518899918e-02" rms="1.2532980740070343e-01" purity="1.7767351120710373e-02" nType="-99"/>
            <Node pos="r" depth="3" NCoef="0" IVar="-1" Cut="0.0000000000000000e+00" cType="1" res="-4.6390131115913391e-02" rms="2.4395468831062317e-01" purity="6.5562866628170013e-02" nType="-99"/>
          </Node>
          <Node pos="r" depth="2" NCoef="0" IVar="6" Cut="1.9424148559570312e+02" cType="1" res="-4.2776267975568771e-02" rms="3.3339861035346985e-01" purity="2.0987844467163086e-01" nType="0">
            <Node pos="l" depth="3" NCoef="0" IVar="-1" Cut="0.0000000000000000e+00" cType="1" res="-3.6133274435997009e-02" rms="2.6067751646041870e-01" purity="8.2804508507251740e-02" nType="-99"/>
            <Node pos="r" depth="3" NCoef="0" IVar="-1" Cut="0.0000000000000000e+00" cType="1" res="3.0401346739381552e-03" rms="3.9249166846275330e-01" purity="3.5155224800109863e-01" nType="-99"/>
          </Node>
        </Node>
        <Node pos="r" depth="1" NCoef="0" IVar="7" Cut="1.1420987701416016e+02" cType="1" res="5.5539149791002274e-02" rms="2.5843551754951477e-01" purity="7.9251009225845337e-01" nType="0">
          <Node pos="l" depth="2" NCoef="0" IVar="3" Cut="4.1679232788085938e+02" cType="1" res="-3.1720239669084549e-02" rms="3.2921546697616577e-01" purity="4.7200122475624084e-01" nType="0">
            <Node pos="l" depth="3" NCoef="0" IVar="-1" Cut="0.0000000000000000e+00" cType="1" res="-2.4820769205689430e-02" rms="3.3582872152328491e-01" purity="2.7563250064849854e-01" nType="-99"/>
            <Node pos="r" depth="3" NCoef="0" IVar="-1" Cut="0.0000000000000000e+00" cType="1" res="1.8704980611801147e-02" rms="2.9769179224967957e-01" purity="8.5611784458160400e-01" nType="-99"/>
          </Node>
          <Node pos="r" depth="2" NCoef="0" IVar="2" Cut="5.7535943603515625e+02" cType="1" res="8.2255914807319641e-02" rms="2.2585122287273407e-01" purity="8.9064234495162964e-01" nType="0">
            <Node pos="l" depth="3" NCoef="0" IVar="-1" Cut="0.0000000000000000e+00" cType="1" res="3.9696648716926575e-02" rms="2.0643632113933563e-01" purity="9.0169256925582886e-01" nType="-99"/>
            <Node pos="r" depth="3" NCoef="0" IVar="-1" Cut="0.0000000000000000e+00" cType="1" res="1.8945313058793545e-03" rms="3.2521262764930725e-01" purity="8.0963832139968872e-01" nType="-99"/>
          </Node>
        </Node>
      </Node>
    </BinaryTree>
    <BinaryTree type="DecisionTree" boostWeight="1.0000000000000000e+00" itree="20">
      <Node pos="s" depth="0" NCoef="0" IVar="4" Cut="6.9320697021484375e+02" cType="1" res="1.3077860930934548e-03" rms="2.3801665008068085e-01" purity="5.0180965662002563e-01" nType="0">
        <Node pos="l" depth="1" NCoef="0" IVar="3" Cut="1.5137081909179688e+02" cType="1" res="-6.3290849328041077e-02" rms="2.1261703968048096e-01" purity="7.6821260154247284e-02" nType="0">
          <Node pos="l" depth="2" NCoef="0" IVar="2" Cut="1.4071951293945312e+02" cType="1" res="-8.2658305764198303e-02" rms="9.4931557774543762e-02" purity="9.4342287629842758e-03" nType="0">
            <Node pos="l" depth="3" NCoef="0" IVar="-1" Cut="0.0000000000000000e+00" cType="1" res="-5.4129712283611298e-02" rms="4.5662373304367065e-02" purity="1.8292309250682592e-03" nType="-99"/>
            <Node pos="r" depth="3" NCoef="0" IVar="-1" Cut="0.0000000000000000e+00" cType="1" res="-4.3804619461297989e-02" rms="1.3628077507019043e-01" purity="2.0065821707248688e-02" nType="-99"/>
          </Node>
          <Node pos="r" depth="2" NCoef="0" IVar="4" Cut="5.4352221679687500e+02" cType="1" res="-3.2098900526762009e-02" rms="3.1925016641616821e-01" purity="1.8535041809082031e-01" nType="0">
            <Node pos="l" depth="3" NCoef="0" IVar="-1" Cut="0.0000000000000000e+00" cType="1" res="-4.0198627859354019e-02" rms="1.9254349172115326e-01" purity="4.2694337666034698e-02" nType="-99"/>
            <Node pos="r" depth="3" NCoef="0" IVar="-1" Cut="0.0000000000000000e+00" cType="1" res="8.5015948861837387e-03" rms="4.1830891370773315e-01" purity="3.6106452345848083e-01" nType="-99"/>
          </Node>
        </Node>
        <Node pos="r" depth="1" NCoef="0" IVar="5" Cut="1.1797854614257812e+02" cType="1" res="5.6336436420679092e-02" rms="2.4457974731922150e-01" purity="8.6383801698684692e-01" nType="0">
          <Node pos="l" depth="2" NCoef="0" IVar="4" Cut="8.6591217041015625e+02" cType="1" res="7.1966215968132019e-02" rms="2.1926151216030121e-01" purity="9.0351533889770508e-01" nType="0">
            <Node pos="l" depth="3" NCoef="0" IVar="-1" Cut="0.0000000000000000e+00" cType="1" res="1.1424013413488865e-02" rms="3.1032481789588928e-01" purity="7.6066488027572632e-01" nType="-99"/>
            <Node pos="r" depth="3" NCoef="0" IVar="-1" Cut="0.0000000000000000e+00" cType="1" res="4.3036118149757385e-02" rms="1.6684214770793915e-01" purity="9.6063071489334106e-01" nType="-99"/>
          </Node>
          <Node pos="r" depth="2" NCoef="0" IVar="6" Cut="3.1160504150390625e+02" cType="1" res="-7.0890650153160095e-02" rms="3.7045621871948242e-01" purity="5.4086273908615112e-01" nType="0">
            <Node pos="l" depth="3" NCoef="0" IVar="-1" Cut="0.0000000000000000e+00" cType="1" res="-4.4471357017755508e-02" rms="3.8518059253692627e-01" purity="3.8194921612739563e-01" nType="-99"/>
            <Node pos="r" depth="3" NCoef="0" IVar="-1" Cut="0.0000000000000000e+00" cType="1" res="8.5392585024237633e-03" rms="3.2563206553459167e-01" purity="7.1921396255493164e-01" nType="-99"/>
          </Node>
        </Node>
      </Node>
    </BinaryTree>
    <BinaryTree type="DecisionTree" boostWeight="1.0000000000000000e+00" itree="21">
      <Node pos="s" depth="0" NCoef="0" IVar="2" Cut="3.7862448120117188e+02" cType="1" res="-7.2727148653939366e-04" rms="2.3727335035800934e-01" purity="5.0094515085220337e-01" nType="0">
        <Node pos="l" depth="1" NCoef="0" IVar="1" Cut="8.6869012451171875e+02" cType="1" res="-6.2424514442682266e-02" rms="2.0297469198703766e-01" purity="8.9366205036640167e-02" nType="0">
          <Node pos="l" depth="2" NCoef="0" IVar="4" Cut="6.7634686279296875e+02" cType="1" res="-7.5463704764842987e-02" rms="1.7293405532836914e-01" purity="3.4572675824165344e-02" nType="0">
            <Node pos="l" depth="3" NCoef="0" IVar="-1" Cut="0.0000000000000000e+00" cType="1" res="-4.3001823127269745e-02" rms="1.3304968178272247e-01" purity="1.9775137305259705e-02" nType="-99"/>
            <Node pos="r" depth="3" NCoef="0" IVar="-1" Cut="0.0000000000000000e+00" cType="1" res="-4.9155719578266144e-02" rms="3.9666470885276794e-01" purity="1.9841375946998596e-01" nType="-99"/>
          </Node>
          <Node pos="r" depth="2" NCoef="0" IVar="3" Cut="1.6399986267089844e+02" cType="1" res="-8.1369020044803619e-03" rms="2.9079076647758484e-01" purity="3.1749457120895386e-01" nType="0">
            <Node pos="l" depth="3" NCoef="0" IVar="-1" Cut="0.0000000000000000e+00" cType="1" res="-3.4943539649248123e-02" rms="2.1512143313884735e-01" purity="7.4107743799686432e-02" nType="-99"/>
            <Node pos="r" depth="3" NCoef="0" IVar="-1" Cut="0.0000000000000000e+00" cType="1" res="3.3969793468713760e-02" rms="3.4886294603347778e-01" purity="6.9998753070831299e-01" nType="-99"/>
          </Node>
        </Node>
        <Node pos="r" depth="1" NCoef="0" IVar="6" Cut="1.6751716613769531e+02" cType="1" res="5.0588034093379974e-02" rms="2.5111427903175354e-01" purity="8.4326678514480591e-01" nType="0">
          <Node pos="l" depth="2" NCoef="0" IVar="-1" Cut="0.0000000000000000e+00" cType="1" res="-3.2486155629158020e-02" rms="3.4618321061134338e-01" purity="3.4405174851417542e-01" nType="-99"/>
          <Node pos="r" depth="2" NCoef="0" IVar="2" Cut="5.2665826416015625e+02" cType="1" res="6.3939802348613739e-02" rms="2.3635961115360260e-01" purity="8.8707071542739868e-01" nType="0">
            <Node pos="l" depth="3" NCoef="0" IVar="-1" Cut="0.0000000000000000e+00" cType="1" res="3.9376433938741684e-02" rms="2.0289856195449829e-01" purity="9.1342401504516602e-01" nType="-99"/>
            <Node pos="r" depth="3" NCoef="0" IVar="-1" Cut="0.0000000000000000e+00" cType="1" res="-4.0544285438954830e-03" rms="3.1494966149330139e-01" purity="7.9667067527770996e-01" nType="-99"/>
          </Node>
        </Node>
      </Node>
    </BinaryTree>
    <BinaryTree type="DecisionTree" boostWeight="1.0000000000000000e+00" itree="22">
      <Node pos="s" depth="0" NCoef="0" IVar="4" Cut="8.8601049804687500e+02" cType="1" res="-2.7665190864354372e-03" rms="2.3406699299812317e-01" purity="4.9947464466094971e-01" nType="0">
        <Node pos="l" depth="1" NCoef="0" IVar="3" Cut="3.7930554199218750e+02" cType="1" res="-4.3028756976127625e-02" rms="2.4403922259807587e-01" purity="2.4753810465335846e-01" nType="0">
          <Node pos="l" depth="2" NCoef="0" IVar="5" Cut="3.7269931793212891e+01" cType="1" res="-5.9655793011188507e-02" rms="2.3055608570575714e-01" purity="1.2370631098747253e-01" nType="0">
            <Node pos="l" depth="3" NCoef="0" IVar="-1" Cut="0.0000000000000000e+00" cType="1" res="-6.1431601643562317e-03" rms="2.7771374583244324e-01" purity="2.1737971901893616e-01" nType="-99"/>
            <Node pos="r" depth="3" NCoef="0" IVar="-1" Cut="0.0000000000000000e+00" cType="1" res="-3.7309642881155014e-02" rms="2.1343275904655457e-01" purity="9.7059890627861023e-02" nType="-99"/>
          </Node>
          <Node pos="r" depth="2" NCoef="0" IVar="5" Cut="5.5059223175048828e+01" cType="1" res="3.9870545268058777e-02" rms="2.8845945000648499e-01" purity="8.6494016647338867e-01" nType="0">
            <Node pos="l" depth="3" NCoef="0" IVar="-1" Cut="0.0000000000000000e+00" cType="1" res="3.2776817679405212e-02" rms="2.4133263528347015e-01" purity="9.1981244087219238e-01" nType="-99"/>
            <Node pos="r" depth="3" NCoef="0" IVar="-1" Cut="0.0000000000000000e+00" cType="1" res="-1.0192633606493473e-02" rms="3.4719604253768921e-01" purity="7.6710015535354614e-01" nType="-99"/>
          </Node>
        </Node>
        <Node pos="r" depth="1" NCoef="0" IVar="2" Cut="6.3627526855468750e+02" cType="1" res="6.7034423351287842e-02" rms="1.9707645475864410e-01" purity="9.3624633550643921e-01" nType="0">
          <Node pos="l" depth="2" NCoef="0" IVar="2" Cut="5.3371832275390625e+02" cType="1" res="7.7034845948219299e-02" rms="1.6648890078067780e-01" purity="9.5202559232711792e-01" nType="0">
            <Node pos="l" depth="3" NCoef="0" IVar="-1" Cut="0.0000000000000000e+00" cType="1" res="4.4657170772552490e-02" rms="1.4201617240905762e-01" purity="9.6237355470657349e-01" nType="-99"/>
            <Node pos="r" depth="3" NCoef="0" IVar="-1" Cut="0.0000000000000000e+00" cType="1" res="1.2409009970724583e-02" rms="2.8176152706146240e-01" purity="8.7757962942123413e-01" nType="-99"/>
          </Node>
          <Node pos="r" depth="2" NCoef="0" IVar="-1" Cut="0.0000000000000000e+00" cType="1" res="-3.7717707455158234e-03" rms="3.4305009245872498e-01" purity="8.1488645076751709e-01" nType="-99"/>
        </Node>
      </Node>
    </BinaryTree>
    <BinaryTree type="DecisionTree" boostWeight="1.0000000000000000e+00" itree="23">
      <Node pos="s" depth="0" NCoef="0" IVar="3" Cut="3.2685195922851562e+02" cType="1" res="-2.4488894268870354e-04" rms="2.2896319627761841e-01" purity="5.0064873695373535e-01" nType="0">
        <Node pos="l" depth="1" NCoef="0" IVar="3" Cut="1.5795446777343750e+02" cType="1" res="-4.4377818703651428e-02" rms="2.2196528315544128e-01" purity="1.3775296509265900e-01" nType="0">
          <Node pos="l" depth="2" NCoef="0" IVar="2" Cut="1.6617826843261719e+02" cType="1" res="-6.5676711499691010e-02" rms="1.3726867735385895e-01" purity="2.4353716522455215e-02" nType="0">
            <Node pos="l" depth="3" NCoef="0" IVar="-1" Cut="0.0000000000000000e+00" cType="1" res="-5.0595223903656006e-02" rms="8.1207707524299622e-02" purity="7.1229869499802589e-03" nType="-99"/>
            <Node pos="r" depth="3" NCoef="0" IVar="-1" Cut="0.0000000000000000e+00" cType="1" res="-2.8402637690305710e-02" rms="2.0789544284343719e-01" purity="5.9172742068767548e-02" nType="-99"/>
          </Node>
          <Node pos="r" depth="2" NCoef="0" IVar="7" Cut="1.4420004272460938e+02" cType="1" res="-1.0183780454099178e-02" rms="3.1019017100334167e-01" purity="3.1980836391448975e-01" nType="0">
            <Node pos="l" depth="3" NCoef="0" IVar="-1" Cut="0.0000000000000000e+00" cType="1" res="-1.6192406415939331e-02" rms="2.8576689958572388e-01" purity="1.5641759335994720e-01" nType="-99"/>
            <Node pos="r" depth="3" NCoef="0" IVar="-1" Cut="0.0000000000000000e+00" cType="1" res="1.5494957566261292e-02" rms="3.4918990731239319e-01" purity="6.6391742229461670e-01" nType="-99"/>
          </Node>
        </Node>
        <Node pos="r" depth="1" NCoef="0" IVar="6" Cut="2.3146775817871094e+02" cType="1" res="4.9582913517951965e-02" rms="2.2650614380836487e-01" purity="9.1037231683731079e-01" nType="0">
          <Node pos="l" depth="2" NCoef="0" IVar="5" Cut="6.7681427001953125e+01" cType="1" res="-9.5908669754862785e-03" rms="3.3058705925941467e-01" purity="7.4466156959533691e-01" nType="0">
            <Node pos="l" depth="3" NCoef="0" IVar="-1" Cut="0.0000000000000000e+00" cType="1" res="1.7178613692522049e-02" rms="2.9276543855667114e-01" purity="8.3842468261718750e-01" nType="-99"/>
            <Node pos="r" depth="3" NCoef="0" IVar="-1" Cut="0.0000000000000000e+00" cType="1" res="-3.8958545774221420e-02" rms="3.7610739469528198e-01" purity="5.4020172357559204e-01" nType="-99"/>
          </Node>
          <Node pos="r" depth="2" NCoef="0" IVar="2" Cut="6.2905725097656250e+02" cType="1" res="6.6584467887878418e-02" rms="1.8262138962745667e-01" purity="9.5798367261886597e-01" nType="0">
            <Node pos="l" depth="3" NCoef="0" IVar="-1" Cut="0.0000000000000000e+00" cType="1" res="4.1170157492160797e-02" rms="1.5646371245384216e-01" purity="9.6922552585601807e-01" nType="-99"/>
            <Node pos="r" depth="3" NCoef="0" IVar="-1" Cut="0.0000000000000000e+00" cType="1" res="5.6658103130757809e-03" rms="3.2478255033493042e-01" purity="8.6266559362411499e-01" nType="-99"/>
          </Node>
        </Node>
      </Node>
    </BinaryTree>
    <BinaryTree type="DecisionTree" boostWeight="1.0000000000000000e+00" itree="24">
      <Node pos="s" depth="0" NCoef="0" IVar="4" Cut="7.3699414062500000e+02" cType="1" res="-1.3149594888091087e-03" rms="2.3248797655105591e-01" purity="5.0175887346267700e-01" nType="0">
        <Node pos="l" depth="1" NCoef="0" IVar="5" Cut="6.0224994659423828e+01" cType="1" res="-4.6389907598495483e-02" rms="2.2299058735370636e-01" purity="1.0696726292371750e-01" nType="0">
          <Node pos="l" depth="2" NCoef="0" IVar="4" Cut="5.2890722656250000e+02" cType="1" res="-2.1807797253131866e-02" rms="2.7033618092536926e-01" purity="1.7560747265815735e-01" nType="0">
            <Node pos="l" depth="3" NCoef="0" IVar="-1" Cut="0.0000000000000000e+00" cType="1" res="-4.2359203100204468e-02" rms="1.4087213575839996e-01" purity="2.2529883310198784e-02" nType="-99"/>
            <Node pos="r" depth="3" NCoef="0" IVar="-1" Cut="0.0000000000000000e+00" cType="1" res="9.6906051039695740e-03" rms="3.6541751027107239e-01" purity="3.6147597432136536e-01" nType="-99"/>
          </Node>
          <Node pos="r" depth="2" NCoef="0" IVar="3" Cut="3.0607641601562500e+02" cType="1" res="-6.6015347838401794e-02" rms="1.7381018400192261e-01" purity="5.2167486399412155e-02" nType="0">
            <Node pos="l" depth="3" NCoef="0" IVar="-1" Cut="0.0000000000000000e+00" cType="1" res="-4.2081590741872787e-02" rms="1.3077731430530548e-01" purity="2.1648889407515526e-02" nType="-99"/>
            <Node pos="r" depth="3" NCoef="0" IVar="-1" Cut="0.0000000000000000e+00" cType="1" res="-3.2506573945283890e-02" rms="3.6942076683044434e-01" purity="3.0658981204032898e-01" nType="-99"/>
          </Node>
        </Node>
        <Node pos="r" depth="1" NCoef="0" IVar="2" Cut="6.2630877685546875e+02" cType="1" res="4.2379591614007950e-02" rms="2.3316365480422974e-01" purity="8.8446027040481567e-01" nType="0">
          <Node pos="l" depth="2" NCoef="0" IVar="5" Cut="1.2264894866943359e+02" cType="1" res="5.3026590496301651e-02" rms="2.1067826449871063e-01" purity="8.9893382787704468e-01" nType="0">
            <Node pos="l" depth="3" NCoef="0" IVar="-1" Cut="0.0000000000000000e+00" cType="1" res="3.3739618957042694e-02" rms="1.9107708334922791e-01" purity="9.2840695381164551e-01" nType="-99"/>
            <Node pos="r" depth="3" NCoef="0" IVar="-1" Cut="0.0000000000000000e+00" cType="1" res="-8.9459223672747612e-03" rms="3.4072023630142212e-01" purity="6.0305857658386230e-01" nType="-99"/>
          </Node>
          <Node pos="r" depth="2" NCoef="0" IVar="-1" Cut="0.0000000000000000e+00" cType="1" res="-2.0493321120738983e-02" rms="3.6767929792404175e-01" purity="7.5196331739425659e-01" nType="-99"/>
        </Node>
      </Node>
    </BinaryTree>
    <BinaryTree type="DecisionTree" boostWeight="1.0000000000000000e+00" itree="25">
      <Node pos="s" depth="0" NCoef="0" IVar="3" Cut="3.8309393310546875e+02" cType="1" res="2.5376334087923169e-04" rms="2.2598601877689362e-01" purity="4.9902325868606567e-01" nType="0">
        <Node pos="l" depth="1" NCoef="0" IVar="7" Cut="1.7054188537597656e+02" cType="1" res="-3.3066019415855408e-02" rms="2.3743154108524323e-01" purity="2.1347142755985260e-01" nType="0">
          <Node pos="l" depth="2" NCoef="0" IVar="5" Cut="6.1528045654296875e+01" cType="1" res="-4.5903574675321579e-02" rms="2.1809026598930359e-01" purity="1.1502175778150558e-01" nType="0">
            <Node pos="l" depth="3" NCoef="0" IVar="-1" Cut="0.0000000000000000e+00" cType="1" res="-1.2393055483698845e-02" rms="2.4902030825614929e-01" purity="1.6644118726253510e-01" nType="-99"/>
            <Node pos="r" depth="3" NCoef="0" IVar="-1" Cut="0.0000000000000000e+00" cType="1" res="-3.7880867719650269e-02" rms="1.8923212587833405e-01" purity="7.5629681348800659e-02" nType="-99"/>
          </Node>
          <Node pos="r" depth="2" NCoef="0" IVar="9" Cut="8.4339286804199219e+01" cType="1" res="3.1480886042118073e-02" rms="3.0931717157363892e-01" purity="7.0847386121749878e-01" nType="0">
            <Node pos="l" depth="3" NCoef="0" IVar="-1" Cut="0.0000000000000000e+00" cType="1" res="-1.3938395306468010e-02" rms="3.6169898509979248e-01" purity="5.2027344703674316e-01" nType="-99"/>
            <Node pos="r" depth="3" NCoef="0" IVar="-1" Cut="0.0000000000000000e+00" cType="1" res="2.8538415208458900e-02" rms="2.6734307408332825e-01" purity="8.1605243682861328e-01" nType="-99"/>
          </Node>
        </Node>
        <Node pos="r" depth="1" NCoef="0" IVar="2" Cut="6.0206713867187500e+02" cType="1" res="5.2244208753108978e-02" rms="1.9585250318050385e-01" purity="9.4458329677581787e-01" nType="0">
          <Node pos="l" depth="2" NCoef="0" IVar="2" Cut="5.2951727294921875e+02" cType="1" res="6.1489615589380264e-02" rms="1.6317635774612427e-01" purity="9.6152055263519287e-01" nType="0">
            <Node pos="l" depth="3" NCoef="0" IVar="-1" Cut="0.0000000000000000e+00" cType="1" res="4.1329223662614822e-02" rms="1.4420740306377411e-01" purity="9.6943795680999756e-01" nType="-99"/>
            <Node pos="r" depth="3" NCoef="0" IVar="-1" Cut="0.0000000000000000e+00" cType="1" res="1.1631362140178680e-02" rms="2.6052737236022949e-01" purity="9.0321093797683716e-01" nType="-99"/>
          </Node>
          <Node pos="r" depth="2" NCoef="0" IVar="-1" Cut="0.0000000000000000e+00" cType="1" res="-5.5037522688508034e-03" rms="3.4304979443550110e-01" purity="8.2279241085052490e-01" nType="-99"/>
        </Node>
      </Node>
    </BinaryTree>
    <BinaryTree type="DecisionTree" boostWeight="1.0000000000000000e+00" itree="26">
      <Node pos="s" depth="0" NCoef="0" IVar="1" Cut="8.6317492675781250e+02" cType="1" res="1.3483378570526838e-03" rms="2.2674076259136200e-01" purity="4.9975341558456421e-01" nType="0">
        <Node pos="l" depth="1" NCoef="0" IVar="1" Cut="7.5940942382812500e+02" cType="1" res="-4.6217933297157288e-02" rms="1.7425227165222168e-01" purity="4.6371161937713623e-02" nType="0">
          <Node pos="l" depth="2" NCoef="0" IVar="3" Cut="2.5703024291992188e+02" cType="1" res="-5.2865341305732727e-02" rms="1.0906174033880234e-01" purity="1.2760388664901257e-02" nType="0">
            <Node pos="l" depth="3" NCoef="0" IVar="-1" Cut="0.0000000000000000e+00" cType="1" res="-4.4264089316129684e-02" rms="1.0010670125484467e-01" purity="1.1150130070745945e-02" nType="-99"/>
            <Node pos="r" depth="3" NCoef="0" IVar="-1" Cut="0.0000000000000000e+00" cType="1" res="-4.5427925884723663e-02" rms="1.7069856822490692e-01" purity="2.8312902897596359e-02" nType="-99"/>
          </Node>
          <Node pos="r" depth="2" NCoef="0" IVar="3" Cut="1.4862251281738281e+02" cType="1" res="-2.1109361201524734e-02" rms="3.1516507267951965e-01" purity="1.7332564294338226e-01" nType="0">
            <Node pos="l" depth="3" NCoef="0" IVar="-1" Cut="0.0000000000000000e+00" cType="1" res="-3.5926591604948044e-02" rms="1.6879121959209442e-01" purity="3.1458720564842224e-02" nType="-99"/>
            <Node pos="r" depth="3" NCoef="0" IVar="-1" Cut="0.0000000000000000e+00" cType="1" res="5.4640802554786205e-03" rms="4.1639328002929688e-01" purity="3.2710877060890198e-01" nType="-99"/>
          </Node>
        </Node>
        <Node pos="r" depth="1" NCoef="0" IVar="2" Cut="5.5461297607421875e+02" cType="1" res="3.1579658389091492e-02" rms="2.4987287819385529e-01" purity="7.8790599107742310e-01" nType="0">
          <Node pos="l" depth="2" NCoef="0" IVar="3" Cut="1.5907952880859375e+02" cType="1" res="4.6259723603725433e-02" rms="2.2455623745918274e-01" purity="8.0191463232040405e-01" nType="0">
            <Node pos="l" depth="3" NCoef="0" IVar="-1" Cut="0.0000000000000000e+00" cType="1" res="-2.2786486893892288e-02" rms="2.4429625272750854e-01" purity="9.0655878186225891e-02" nType="-99"/>
            <Node pos="r" depth="3" NCoef="0" IVar="-1" Cut="0.0000000000000000e+00" cType="1" res="3.1213128939270973e-02" rms="2.1837936341762543e-01" purity="9.0262174606323242e-01" nType="-99"/>
          </Node>
          <Node pos="r" depth="2" NCoef="0" IVar="6" Cut="2.8632403564453125e+02" cType="1" res="-5.9530701488256454e-02" rms="3.5685095191001892e-01" purity="7.0096302032470703e-01" nType="0">
            <Node pos="l" depth="3" NCoef="0" IVar="-1" Cut="0.0000000000000000e+00" cType="1" res="-6.4528316259384155e-02" rms="3.8923951983451843e-01" purity="4.4377866387367249e-01" nType="-99"/>
            <Node pos="r" depth="3" NCoef="0" IVar="-1" Cut="0.0000000000000000e+00" cType="1" res="6.7176129668951035e-03" rms="3.1232169270515442e-01" purity="8.4492319822311401e-01" nType="-99"/>
          </Node>
        </Node>
      </Node>
    </BinaryTree>
    <BinaryTree type="DecisionTree" boostWeight="1.0000000000000000e+00" itree="27">
      <Node pos="s" depth="0" NCoef="0" IVar="3" Cut="4.1620285034179688e+02" cType="1" res="-1.9542677327990532e-03" rms="2.2449864447116852e-01" purity="4.9775910377502441e-01" nType="0">
        <Node pos="l" depth="1" NCoef="0" IVar="7" Cut="1.7054127502441406e+02" cType="1" res="-2.6544690132141113e-02" rms="2.4080541729927063e-01" purity="2.7505332231521606e-01" nType="0">
          <Node pos="l" depth="2" NCoef="0" IVar="2" Cut="5.0713723754882812e+02" cType="1" res="-3.9358738809823990e-02" rms="2.2479262948036194e-01" purity="1.4944127202033997e-01" nType="0">
            <Node pos="l" depth="3" NCoef="0" IVar="-1" Cut="0.0000000000000000e+00" cType="1" res="-2.0821178331971169e-02" rms="2.1137695014476776e-01" purity="1.3349600136280060e-01" nType="-99"/>
            <Node pos="r" depth="3" NCoef="0" IVar="-1" Cut="0.0000000000000000e+00" cType="1" res="-4.1618071496486664e-02" rms="3.6214551329612732e-01" purity="3.9308759570121765e-01" nType="-99"/>
          </Node>
          <Node pos="r" depth="2" NCoef="0" IVar="8" Cut="1.3127975463867188e+02" cType="1" res="2.2674407809972763e-02" rms="2.8908634185791016e-01" purity="7.5753265619277954e-01" nType="0">
            <Node pos="l" depth="3" NCoef="0" IVar="-1" Cut="0.0000000000000000e+00" cType="1" res="-4.0532443672418594e-02" rms="3.7568336725234985e-01" purity="3.9345347881317139e-01" nType="-99"/>
            <Node pos="r" depth="3" NCoef="0" IVar="-1" Cut="0.0000000000000000e+00" cType="1" res="2.5984028354287148e-02" rms="2.5230774283409119e-01" purity="8.5135179758071899e-01" nType="-99"/>
          </Node>
        </Node>
        <Node pos="r" depth="1" NCoef="0" IVar="5" Cut="1.0019509887695312e+02" cType="1" res="4.8417069017887115e-02" rms="1.7629851400852203e-01" purity="9.5395237207412720e-01" nType="0">
          <Node pos="l" depth="2" NCoef="0" IVar="2" Cut="5.2610278320312500e+02" cType="1" res="5.6592471897602081e-02" rms="1.4809630811214447e-01" purity="9.7108250856399536e-01" nType="0">
            <Node pos="l" depth="3" NCoef="0" IVar="-1" Cut="0.0000000000000000e+00" cType="1" res="4.7540560364723206e-02" rms="9.7911871969699860e-02" purity="9.8842996358871460e-01" nType="-99"/>
            <Node pos="r" depth="3" NCoef="0" IVar="-1" Cut="0.0000000000000000e+00" cType="1" res="1.9977441057562828e-02" rms="2.4329029023647308e-01" purity="9.1824615001678467e-01" nType="-99"/>
          </Node>
          <Node pos="r" depth="2" NCoef="0" IVar="-1" Cut="0.0000000000000000e+00" cType="1" res="-1.1054188944399357e-02" rms="3.3310240507125854e-01" purity="7.9202485084533691e-01" nType="-99"/>
        </Node>
      </Node>
    </BinaryTree>
    <BinaryTree type="DecisionTree" boostWeight="1.0000000000000000e+00" itree="28">
      <Node pos="s" depth="0" NCoef="0" IVar="7" Cut="1.2564405822753906e+02" cType="1" res="-6.8663898855447769e-04" rms="2.2552220523357391e-01" purity="4.9900093674659729e-01" nType="0">
        <Node pos="l" depth="1" NCoef="0" IVar="0" Cut="5.1662286376953125e+02" cType="1" res="-3.6269780248403549e-02" rms="2.1495988965034485e-01" purity="2.0011432468891144e-01" nType="0">
          <Node pos="l" depth="2" NCoef="0" IVar="5" Cut="6.1679252624511719e+01" cType="1" res="-4.2090293020009995e-02" rms="2.0841552317142487e-01" purity="1.7393340170383453e-01" nType="0">
            <Node pos="l" depth="3" NCoef="0" IVar="-1" Cut="0.0000000000000000e+00" cType="1" res="-1.2278261594474316e-02" rms="2.2732087969779968e-01" purity="2.5454071164131165e-01" nType="-99"/>
            <Node pos="r" depth="3" NCoef="0" IVar="-1" Cut="0.0000000000000000e+00" cType="1" res="-4.0187895298004150e-02" rms="1.8938611447811127e-01" purity="1.0673070698976517e-01" nType="-99"/>
          </Node>
          <Node pos="r" depth="2" NCoef="0" IVar="-1" Cut="0.0000000000000000e+00" cType="1" res="2.0801715552806854e-02" rms="2.7961859107017517e-01" purity="5.7109886407852173e-01" nType="-99"/>
        </Node>
        <Node pos="r" depth="1" NCoef="0" IVar="8" Cut="1.4590475463867188e+02" cType="1" res="3.0712304636836052e-02" rms="2.2991849482059479e-01" purity="7.6274168491363525e-01" nType="0">
          <Node pos="l" depth="2" NCoef="0" IVar="8" Cut="9.6309524536132812e+01" cType="1" res="-3.5970043390989304e-02" rms="2.8666147589683533e-01" purity="3.1330657005310059e-01" nType="0">
            <Node pos="l" depth="3" NCoef="0" IVar="-1" Cut="0.0000000000000000e+00" cType="1" res="-6.0701377689838409e-02" rms="3.1062871217727661e-01" purity="1.3986790180206299e-01" nType="-99"/>
            <Node pos="r" depth="3" NCoef="0" IVar="-1" Cut="0.0000000000000000e+00" cType="1" res="-1.8870357598643750e-04" rms="2.6753547787666321e-01" purity="3.9287087321281433e-01" nType="-99"/>
          </Node>
          <Node pos="r" depth="2" NCoef="0" IVar="5" Cut="1.3813684082031250e+02" cType="1" res="4.5228302478790283e-02" rms="2.1284474432468414e-01" purity="8.6057865619659424e-01" nType="0">
            <Node pos="l" depth="3" NCoef="0" IVar="-1" Cut="0.0000000000000000e+00" cType="1" res="3.1631261110305786e-02" rms="1.9997051358222961e-01" purity="8.8646715879440308e-01" nType="-99"/>
            <Node pos="r" depth="3" NCoef="0" IVar="-1" Cut="0.0000000000000000e+00" cType="1" res="-1.1256054975092411e-02" rms="3.3267873525619507e-01" purity="5.0992751121520996e-01" nType="-99"/>
          </Node>
        </Node>
      </Node>
    </BinaryTree>
    <BinaryTree type="DecisionTree" boostWeight="1.0000000000000000e+00" itree="29">
      <Node pos="s" depth="0" NCoef="0" IVar="3" Cut="4.1493585205078125e+02" cType="1" res="-1.2969927629455924e-03" rms="2.2404459118843079e-01" purity="4.9576616287231445e-01" nType="0">
        <Node pos="l" depth="1" NCoef="0" IVar="7" Cut="1.1420948791503906e+02" cType="1" res="-2.2549275308847427e-02" rms="2.4137455224990845e-01" purity="2.7106973528862000e-01" nType="0">
          <Node pos="l" depth="2" NCoef="0" IVar="0" Cut="4.4996728515625000e+02" cType="1" res="-4.3338805437088013e-02" rms="2.0077233016490936e-01" purity="8.5199512541294098e-02" nType="0">
            <Node pos="l" depth="3" NCoef="0" IVar="-1" Cut="0.0000000000000000e+00" cType="1" res="-3.4828145056962967e-02" rms="1.8844138085842133e-01" purity="6.7647315561771393e-02" nType="-99"/>
            <Node pos="r" depth="3" NCoef="0" IVar="-1" Cut="0.0000000000000000e+00" cType="1" res="1.1895092204213142e-02" rms="2.8954145312309265e-01" purity="2.6241755485534668e-01" nType="-99"/>
          </Node>
          <Node pos="r" depth="2" NCoef="0" IVar="3" Cut="1.3099882507324219e+02" cType="1" res="8.3237775834277272e-04" rms="2.7824336290359497e-01" purity="4.8011505603790283e-01" nType="0">
            <Node pos="l" depth="3" NCoef="0" IVar="-1" Cut="0.0000000000000000e+00" cType="1" res="-3.2161764800548553e-02" rms="1.7323762178421021e-01" purity="3.6281701177358627e-02" nType="-99"/>
            <Node pos="r" depth="3" NCoef="0" IVar="-1" Cut="0.0000000000000000e+00" cType="1" res="8.2666473463177681e-03" rms="3.0678561329841614e-01" purity="6.4721667766571045e-01" nType="-99"/>
          </Node>
        </Node>
        <Node pos="r" depth="1" NCoef="0" IVar="2" Cut="6.2046685791015625e+02" cType="1" res="4.2153488844633102e-02" rms="1.7576757073402405e-01" purity="9.5515990257263184e-01" nType="0">
          <Node pos="l" depth="2" NCoef="0" IVar="2" Cut="5.3327142333984375e+02" cType="1" res="4.9072388559579849e-02" rms="1.4077642560005188e-01" purity="9.7163265943527222e-01" nType="0">
            <Node pos="l" depth="3" NCoef="0" IVar="-1" Cut="0.0000000000000000e+00" cType="1" res="4.2625412344932556e-02" rms="1.1457420885562897e-01" purity="9.8164612054824829e-01" nType="-99"/>
            <Node pos="r" depth="3" NCoef="0" IVar="-1" Cut="0.0000000000000000e+00" cType="1" res="1.0892042890191078e-02" rms="2.5361576676368713e-01" purity="9.0362483263015747e-01" nType="-99"/>
          </Node>
          <Node pos="r" depth="2" NCoef="0" IVar="-1" Cut="0.0000000000000000e+00" cType="1" res="-3.5860298667103052e-03" rms="3.3123975992202759e-01" purity="8.3352231979370117e-01" nType="-99"/>
        </Node>
      </Node>
    </BinaryTree>
    <BinaryTree type="DecisionTree" boostWeight="1.0000000000000000e+00" itree="30">
      <Node pos="s" depth="0" NCoef="0" IVar="4" Cut="9.5547546386718750e+02" cType="1" res="-1.2637801701202989e-03" rms="2.2534596920013428e-01" purity="4.9778065085411072e-01" nType="0">
        <Node pos="l" depth="1" NCoef="0" IVar="2" Cut="5.2095513916015625e+02" cType="1" res="-2.0344691351056099e-02" rms="2.3929478228092194e-01" purity="3.1428378820419312e-01" nType="0">
          <Node pos="l" depth="2" NCoef="0" IVar="2" Cut="4.3105853271484375e+02" cType="1" res="-1.1743284761905670e-02" rms="2.2471173107624054e-01" purity="2.9659682512283325e-01" nType="0">
            <Node pos="l" depth="3" NCoef="0" IVar="-1" Cut="0.0000000000000000e+00" cType="1" res="-2.1086761727929115e-02" rms="2.1119318902492523e-01" purity="1.1229427158832550e-01" nType="-99"/>
            <Node pos="r" depth="3" NCoef="0" IVar="-1" Cut="0.0000000000000000e+00" cType="1" res="2.2488744929432869e-02" rms="2.5258204340934753e-01" purity="8.4018367528915405e-01" nType="-99"/>
          </Node>
          <Node pos="r" depth="2" NCoef="0" IVar="-1" Cut="0.0000000000000000e+00" cType="1" res="-5.1121599972248077e-02" rms="3.6317506432533264e-01" purity="5.4470783472061157e-01" nType="-99"/>
        </Node>
        <Node pos="r" depth="1" NCoef="0" IVar="2" Cut="5.9427709960937500e+02" cType="1" res="4.5178294181823730e-02" rms="1.7878162860870361e-01" purity="9.4440382719039917e-01" nType="0">
          <Node pos="l" depth="2" NCoef="0" IVar="9" Cut="2.6602529907226562e+02" cType="1" res="5.3974740207195282e-02" rms="1.3367390632629395e-01" purity="9.6733307838439941e-01" nType="0">
            <Node pos="l" depth="3" NCoef="0" IVar="-1" Cut="0.0000000000000000e+00" cType="1" res="3.7274122238159180e-02" rms="1.4077533781528473e-01" purity="9.6143460273742676e-01" nType="-99"/>
            <Node pos="r" depth="3" NCoef="0" IVar="-1" Cut="0.0000000000000000e+00" cType="1" res="4.9222335219383240e-02" rms="1.0938224196434021e-01" purity="9.8416584730148315e-01" nType="-99"/>
          </Node>
          <Node pos="r" depth="2" NCoef="0" IVar="-1" Cut="0.0000000000000000e+00" cType="1" res="-2.0048089209012687e-04" rms="3.2043230533599854e-01" purity="8.2531219720840454e-01" nType="-99"/>
        </Node>
      </Node>
    </BinaryTree>
    <BinaryTree type="DecisionTree" boostWeight="1.0000000000000000e+00" itree="31">
      <Node pos="s" depth="0" NCoef="0" IVar="7" Cut="1.2564184570312500e+02" cType="1" res="1.8120700260624290e-03" rms="2.2058202326297760e-01" purity="5.0251585245132446e-01" nType="0">
        <Node pos="l" depth="1" NCoef="0" IVar="5" Cut="8.6374954223632812e+01" cType="1" res="-2.6500923559069633e-02" rms="2.1436195075511932e-01" purity="2.0513406395912170e-01" nType="0">
          <Node pos="l" depth="2" NCoef="0" IVar="6" Cut="2.1646980285644531e+02" cType="1" res="-9.6326274797320366e-03" rms="2.2346255183219910e-01" purity="2.6337608695030212e-01" nType="0">
            <Node pos="l" depth="3" NCoef="0" IVar="-1" Cut="0.0000000000000000e+00" cType="1" res="-2.3327240720391273e-02" rms="1.8899770081043243e-01" purity="1.1508349329233170e-01" nType="-99"/>
            <Node pos="r" depth="3" NCoef="0" IVar="-1" Cut="0.0000000000000000e+00" cType="1" res="2.0387655124068260e-02" rms="2.8342241048812866e-01" purity="6.1984449625015259e-01" nType="-99"/>
          </Node>
          <Node pos="r" depth="2" NCoef="0" IVar="2" Cut="4.5167993164062500e+02" cType="1" res="-5.7570897042751312e-02" rms="1.9267214834690094e-01" purity="9.7857207059860229e-02" nType="0">
            <Node pos="l" depth="3" NCoef="0" IVar="-1" Cut="0.0000000000000000e+00" cType="1" res="-3.9439603686332703e-02" rms="1.3963836431503296e-01" purity="3.4653939306735992e-02" nType="-99"/>
            <Node pos="r" depth="3" NCoef="0" IVar="-1" Cut="0.0000000000000000e+00" cType="1" res="-3.9144258946180344e-02" rms="3.4726867079734802e-01" purity="4.1521006822586060e-01" nType="-99"/>
          </Node>
        </Node>
        <Node pos="r" depth="1" NCoef="0" IVar="3" Cut="1.3523158264160156e+02" cType="1" res="2.6928834617137909e-02" rms="2.2296729683876038e-01" purity="7.6632642745971680e-01" nType="0">
          <Node pos="l" depth="2" NCoef="0" IVar="2" Cut="1.4164941406250000e+02" cType="1" res="-3.7600759416818619e-02" rms="1.9875778257846832e-01" purity="4.9696471542119980e-02" nType="0">
            <Node pos="l" depth="3" NCoef="0" IVar="-1" Cut="0.0000000000000000e+00" cType="1" res="-4.8454102128744125e-02" rms="1.0262876003980637e-01" purity="1.0352835059165955e-02" nType="-99"/>
            <Node pos="r" depth="3" NCoef="0" IVar="-1" Cut="0.0000000000000000e+00" cType="1" res="1.4057806693017483e-03" rms="2.8463798761367798e-01" purity="1.0969036072492599e-01" nType="-99"/>
          </Node>
          <Node pos="r" depth="2" NCoef="0" IVar="8" Cut="1.4596427917480469e+02" cType="1" res="3.6231894046068192e-02" rms="2.2472085058689117e-01" purity="8.6964112520217896e-01" nType="0">
            <Node pos="l" depth="3" NCoef="0" IVar="-1" Cut="0.0000000000000000e+00" cType="1" res="-2.7153983246535063e-03" rms="3.2165515422821045e-01" purity="4.8549339175224304e-01" nType="-99"/>
            <Node pos="r" depth="3" NCoef="0" IVar="-1" Cut="0.0000000000000000e+00" cType="1" res="2.7423005551099777e-02" rms="2.0641504228115082e-01" purity="9.2477494478225708e-01" nType="-99"/>
          </Node>
        </Node>
      </Node>
    </BinaryTree>
    <BinaryTree type="DecisionTree" boostWeight="1.0000000000000000e+00" itree="32">
      <Node pos="s" depth="0" NCoef="0" IVar="7" Cut="1.2127130889892578e+02" cType="1" res="-3.1425306224264205e-04" rms="2.2306384146213531e-01" purity="4.9881023168563843e-01" nType="0">
        <Node pos="l" depth="1" NCoef="0" IVar="5" Cut="1.2242523956298828e+02" cType="1" res="-2.7765231207013130e-02" rms="2.1427224576473236e-01" purity="1.9030445814132690e-01" nType="0">
          <Node pos="l" depth="2" NCoef="0" IVar="3" Cut="1.3848857116699219e+02" cType="1" res="-1.6849601641297340e-02" rms="2.1740041673183441e-01" purity="2.1845632791519165e-01" nType="0">
            <Node pos="l" depth="3" NCoef="0" IVar="-1" Cut="0.0000000000000000e+00" cType="1" res="-4.3086785823106766e-02" rms="9.2529721558094025e-02" purity="8.9991530403494835e-03" nType="-99"/>
            <Node pos="r" depth="3" NCoef="0" IVar="-1" Cut="0.0000000000000000e+00" cType="1" res="2.8574240859597921e-03" rms="2.9336705803871155e-01" purity="4.3389943242073059e-01" nType="-99"/>
          </Node>
          <Node pos="r" depth="2" NCoef="0" IVar="1" Cut="8.6785522460937500e+02" cType="1" res="-7.6896585524082184e-02" rms="1.9205339252948761e-01" purity="6.3592702150344849e-02" nType="0">
            <Node pos="l" depth="3" NCoef="0" IVar="-1" Cut="0.0000000000000000e+00" cType="1" res="-4.6961139887571335e-02" rms="7.9725377261638641e-02" purity="6.3940836116671562e-03" nType="-99"/>
            <Node pos="r" depth="3" NCoef="0" IVar="-1" Cut="0.0000000000000000e+00" cType="1" res="-5.1624935120344162e-02" rms="2.9384991526603699e-01" purity="1.6975186765193939e-01" nType="-99"/>
          </Node>
        </Node>
        <Node pos="r" depth="1" NCoef="0" IVar="3" Cut="1.3523158264160156e+02" cType="1" res="2.1703874692320824e-02" rms="2.2749109566211700e-01" purity="7.4625927209854126e-01" nType="0">
          <Node pos="l" depth="2" NCoef="0" IVar="2" Cut="1.4164941406250000e+02" cType="1" res="-3.4258157014846802e-02" rms="1.8259049952030182e-01" purity="4.2907986789941788e-02" nType="0">
            <Node pos="l" depth="3" NCoef="0" IVar="-1" Cut="0.0000000000000000e+00" cType="1" res="-4.6226251870393753e-02" rms="1.0067319869995117e-01" purity="1.0509142652153969e-02" nType="-99"/>
            <Node pos="r" depth="3" NCoef="0" IVar="-1" Cut="0.0000000000000000e+00" cType="1" res="9.3453604495152831e-04" rms="2.7287954092025757e-01" purity="1.0308749228715897e-01" nType="-99"/>
          </Node>
          <Node pos="r" depth="2" NCoef="0" IVar="10" Cut="3.8006460666656494e+00" cType="1" res="3.0498923733830452e-02" rms="2.3254342377185822e-01" purity="8.5679870843887329e-01" nType="0">
            <Node pos="l" depth="3" NCoef="0" IVar="-1" Cut="0.0000000000000000e+00" cType="1" res="2.1977147087454796e-02" rms="2.2489498555660248e-01" purity="8.6887639760971069e-01" nType="-99"/>
            <Node pos="r" depth="3" NCoef="0" IVar="-1" Cut="0.0000000000000000e+00" cType="1" res="-1.5666300430893898e-02" rms="3.2767727971076965e-01" purity="6.5766847133636475e-01" nType="-99"/>
          </Node>
        </Node>
      </Node>
    </BinaryTree>
    <BinaryTree type="DecisionTree" boostWeight="1.0000000000000000e+00" itree="33">
      <Node pos="s" depth="0" NCoef="0" IVar="4" Cut="8.8978271484375000e+02" cType="1" res="-7.0041837170720100e-04" rms="2.2303889691829681e-01" purity="4.9914345145225525e-01" nType="0">
        <Node pos="l" depth="1" NCoef="0" IVar="2" Cut="5.2095513916015625e+02" cType="1" res="-1.8905472010374069e-02" rms="2.3789773881435394e-01" purity="2.5401562452316284e-01" nType="0">
          <Node pos="l" depth="2" NCoef="0" IVar="2" Cut="4.5351559448242188e+02" cType="1" res="-1.2814276851713657e-02" rms="2.2760935127735138e-01" purity="2.4057948589324951e-01" nType="0">
            <Node pos="l" depth="3" NCoef="0" IVar="-1" Cut="0.0000000000000000e+00" cType="1" res="-1.7787227407097816e-02" rms="2.1652401983737946e-01" purity="1.2367316335439682e-01" nType="-99"/>
            <Node pos="r" depth="3" NCoef="0" IVar="-1" Cut="0.0000000000000000e+00" cType="1" res="2.2780371829867363e-02" rms="2.6948037743568420e-01" purity="8.3346325159072876e-01" nType="-99"/>
          </Node>
          <Node pos="r" depth="2" NCoef="0" IVar="-1" Cut="0.0000000000000000e+00" cType="1" res="-4.6555180102586746e-02" rms="3.5854193568229675e-01" purity="4.8975488543510437e-01" nType="-99"/>
        </Node>
        <Node pos="r" depth="1" NCoef="0" IVar="5" Cut="1.3420706176757812e+02" cType="1" res="3.1786121428012848e-02" rms="1.8941405415534973e-01" purity="9.3656891584396362e-01" nType="0">
          <Node pos="l" depth="2" NCoef="0" IVar="10" Cut="2.8077490329742432e+00" cType="1" res="3.6749273538589478e-02" rms="1.6884830594062805e-01" purity="9.5842015743255615e-01" nType="0">
            <Node pos="l" depth="3" NCoef="0" IVar="-1" Cut="0.0000000000000000e+00" cType="1" res="4.1300795972347260e-02" rms="1.3354074954986572e-01" purity="9.7746437788009644e-01" nType="-99"/>
            <Node pos="r" depth="3" NCoef="0" IVar="-1" Cut="0.0000000000000000e+00" cType="1" res="2.0319111645221710e-02" rms="1.9250859320163727e-01" purity="9.4271636009216309e-01" nType="-99"/>
          </Node>
          <Node pos="r" depth="2" NCoef="0" IVar="-1" Cut="0.0000000000000000e+00" cType="1" res="-8.9010661467909813e-03" rms="3.4848532080650330e-01" purity="6.7114269733428955e-01" nType="-99"/>
        </Node>
      </Node>
    </BinaryTree>
    <BinaryTree type="DecisionTree" boostWeight="1.0000000000000000e+00" itree="34">
      <Node pos="s" depth="0" NCoef="0" IVar="3" Cut="4.2537332153320312e+02" cType="1" res="-1.8217238830402493e-03" rms="2.1913088858127594e-01" purity="4.9717226624488831e-01" nType="0">
