<?xml version="1.0"?>
<MethodSetup Method="BDT::BDTG01">
  <GeneralInfo>
    <Info name="TMVA Release" value="4.2.0 [262656]"/>
    <Info name="ROOT Release" value="5.34/36 [336420]"/>
    <Info name="Creator" value="ahortian"/>
    <Info name="Date" value="Sun Mar  3 03:13:29 2019"/>
    <Info name="Host" value="Linux lcgapp-slc6-x86-64-25.cern.ch 2.6.32-573.18.1.el6.x86_64 #1 SMP Wed Feb 10 14:02:50 CET 2016 x86_64 x86_64 x86_64 GNU/Linux"/>
    <Info name="Dir" value="/afs/cern.ch/user/a/ahortian/HH_WORK_Jul13/TMVA-v4.2.0/test"/>
    <Info name="Training events" value="770331"/>
    <Info name="TrainingTime" value="2.39214687e+03"/>
    <Info name="AnalysisType" value="Classification"/>
  </GeneralInfo>
  <Options>
    <Option name="V" modified="Yes">False</Option>
    <Option name="VerbosityLevel" modified="No">Default</Option>
    <Option name="VarTransform" modified="No">None</Option>
    <Option name="H" modified="Yes">False</Option>
    <Option name="CreateMVAPdfs" modified="Yes">True</Option>
    <Option name="IgnoreNegWeightsInTraining" modified="No">False</Option>
    <Option name="NTrees" modified="Yes">850</Option>
    <Option name="MaxDepth" modified="Yes">3</Option>
    <Option name="MinNodeSize" modified="Yes">2.5%</Option>
    <Option name="nCuts" modified="Yes">20</Option>
    <Option name="BoostType" modified="Yes">Grad</Option>
    <Option name="AdaBoostR2Loss" modified="No">quadratic</Option>
    <Option name="UseBaggedBoost" modified="Yes">True</Option>
    <Option name="Shrinkage" modified="Yes">1.000000e-01</Option>
    <Option name="AdaBoostBeta" modified="No">5.000000e-01</Option>
    <Option name="UseRandomisedTrees" modified="No">False</Option>
    <Option name="UseNvars" modified="No">5</Option>
    <Option name="UsePoissonNvars" modified="No">True</Option>
    <Option name="BaggedSampleFraction" modified="Yes">5.000000e-01</Option>
    <Option name="UseYesNoLeaf" modified="No">True</Option>
    <Option name="NegWeightTreatment" modified="No">ignorenegweightsintraining</Option>
    <Option name="Css" modified="No">1.000000e+00</Option>
    <Option name="Cts_sb" modified="No">1.000000e+00</Option>
    <Option name="Ctb_ss" modified="No">1.000000e+00</Option>
    <Option name="Cbb" modified="No">1.000000e+00</Option>
    <Option name="NodePurityLimit" modified="No">5.000000e-01</Option>
    <Option name="SeparationType" modified="Yes">giniindex</Option>
    <Option name="DoBoostMonitor" modified="Yes">True</Option>
    <Option name="UseFisherCuts" modified="No">False</Option>
    <Option name="MinLinCorrForFisher" modified="No">8.000000e-01</Option>
    <Option name="UseExclusiveVars" modified="No">False</Option>
    <Option name="DoPreselection" modified="No">False</Option>
    <Option name="SigToBkgFraction" modified="No">1.000000e+00</Option>
    <Option name="PruneMethod" modified="No">nopruning</Option>
    <Option name="PruneStrength" modified="No">0.000000e+00</Option>
    <Option name="PruningValFraction" modified="No">5.000000e-01</Option>
    <Option name="nEventsMin" modified="No">0</Option>
    <Option name="UseBaggedGrad" modified="No">False</Option>
    <Option name="GradBaggingFraction" modified="No">5.000000e-01</Option>
    <Option name="UseNTrainEvents" modified="No">0</Option>
    <Option name="NNodesMax" modified="No">0</Option>
  </Options>
  <Variables NVar="22">
    <Variable VarIndex="0" Expression="Mbb_H" Label="Mbb_H" Title="Mbb_H" Unit="F" Internal="Mbb_H" Type="F" Min="1.01499853e+01" Max="3.96460767e+03"/>
    <Variable VarIndex="1" Expression="DR_bb_H" Label="DR_bb_H" Title="DR_bb_H" Unit="F" Internal="DR_bb_H" Type="F" Min="3.87430340e-01" Max="5.63006258e+00"/>
    <Variable VarIndex="2" Expression="Mjj_Z" Label="Mjj_Z" Title="Mjj_Z" Unit="F" Internal="Mjj_Z" Type="F" Min="8.17392063e+00" Max="4.83833789e+03"/>
    <Variable VarIndex="3" Expression="DR_jj_Z" Label="DR_jj_Z" Title="DR_jj_Z" Unit="F" Internal="DR_jj_Z" Type="F" Min="3.70232314e-01" Max="5.71026611e+00"/>
    <Variable VarIndex="4" Expression="M_uu" Label="M_uu" Title="M_uu" Unit="F" Internal="M_uu" Type="F" Min="1.50014849e+01" Max="1.47438013e+03"/>
    <Variable VarIndex="5" Expression="DR_muon1muon2" Label="DR_muon1muon2" Title="DR_muon1muon2" Unit="F" Internal="DR_muon1muon2" Type="F" Min="6.90048859e-02" Max="5.43448305e+00"/>
    <Variable VarIndex="6" Expression="DR_uu_bb_H" Label="DR_uu_bb_H" Title="DR_uu_bb_H" Unit="F" Internal="DR_uu_bb_H" Type="F" Min="2.01103278e-03" Max="1.07569876e+01"/>
    <Variable VarIndex="7" Expression="DR_u1Hj1" Label="DR_u1Hj1" Title="DR_u1Hj1" Unit="F" Internal="DR_u1Hj1" Type="F" Min="3.21775824e-01" Max="5.61282492e+00"/>
    <Variable VarIndex="8" Expression="DR_u1Hj2" Label="DR_u1Hj2" Title="DR_u1Hj2" Unit="F" Internal="DR_u1Hj2" Type="F" Min="3.42638433e-01" Max="5.70122242e+00"/>
    <Variable VarIndex="9" Expression="DR_u2Hj1" Label="DR_u2Hj1" Title="DR_u2Hj1" Unit="F" Internal="DR_u2Hj1" Type="F" Min="3.01009327e-01" Max="5.58418512e+00"/>
    <Variable VarIndex="10" Expression="DR_u2Hj2" Label="DR_u2Hj2" Title="DR_u2Hj2" Unit="F" Internal="DR_u2Hj2" Type="F" Min="3.00579816e-01" Max="5.63921785e+00"/>
    <Variable VarIndex="11" Expression="DR_uu_jj_Z" Label="DR_uu_jj_Z" Title="DR_uu_jj_Z" Unit="F" Internal="DR_uu_jj_Z" Type="F" Min="4.89668176e-03" Max="1.03237705e+01"/>
    <Variable VarIndex="12" Expression="DR_u1Zj1" Label="DR_u1Zj1" Title="DR_u1Zj1" Unit="F" Internal="DR_u1Zj1" Type="F" Min="3.04434478e-01" Max="5.61734247e+00"/>
    <Variable VarIndex="13" Expression="DR_u1Zj2" Label="DR_u1Zj2" Title="DR_u1Zj2" Unit="F" Internal="DR_u1Zj2" Type="F" Min="3.13629538e-01" Max="5.63599253e+00"/>
    <Variable VarIndex="14" Expression="DR_u2Zj1" Label="DR_u2Zj1" Title="DR_u2Zj1" Unit="F" Internal="DR_u2Zj1" Type="F" Min="3.02008480e-01" Max="5.66884851e+00"/>
    <Variable VarIndex="15" Expression="DR_u2Zj2" Label="DR_u2Zj2" Title="DR_u2Zj2" Unit="F" Internal="DR_u2Zj2" Type="F" Min="3.09897184e-01" Max="5.69850969e+00"/>
    <Variable VarIndex="16" Expression="abs(cosThetaStarMu)" Label="abs(cosThetaStarMu)" Title="cosThetaStarMu" Unit="F" Internal="abs_cosThetaStarMu_" Type="F" Min="1.88486206e-06" Max="9.99999523e-01"/>
    <Variable VarIndex="17" Expression="abs(cosTheta_hbb_uu)" Label="abs(cosTheta_hbb_uu)" Title="cosTheta_hbb_uu" Unit="F" Internal="abs_cosTheta_hbb_uu_" Type="F" Min="5.26769827e-06" Max="9.99999583e-01"/>
    <Variable VarIndex="18" Expression="abs(cosTheta_zuu_hzz)" Label="abs(cosTheta_zuu_hzz)" Title="cosTheta_zuu_hzz" Unit="F" Internal="abs_cosTheta_zuu_hzz_" Type="F" Min="4.31183423e-07" Max="9.99999464e-01"/>
    <Variable VarIndex="19" Expression="abs(DPhi_muon1met)" Label="abs(DPhi_muon1met)" Title="DPhi_muon1met" Unit="F" Internal="abs_DPhi_muon1met_" Type="F" Min="7.38352537e-06" Max="3.14158511e+00"/>
    <Variable VarIndex="20" Expression="abs(phi1_uu)" Label="abs(phi1_uu)" Title="phi1_uu" Unit="F" Internal="abs_phi1_uu_" Type="F" Min="1.34391621e-06" Max="3.14158630e+00"/>
    <Variable VarIndex="21" Expression="abs(phi1_zjj_uu)" Label="abs(phi1_zjj_uu)" Title="phi1_zjj_uu" Unit="F" Internal="abs_phi1_zjj_uu_" Type="F" Min="2.33316794e-03" Max="3.14032054e+00"/>
  </Variables>
  <Spectators NSpec="0"/>
  <Classes NClass="2">
    <Class Name="Signal" Index="0"/>
    <Class Name="Background" Index="1"/>
  </Classes>
  <Transformations NTransformations="0"/>
  <MVAPdfs>
    <PDF Name="BDTG01_PDFSig" MinNSmooth="0" MaxNSmooth="0" InterpolMethod="2" KDE_type="1" KDE_iter="1" KDE_border="1" KDE_finefactor="1.0000000000000000e+00">
      <Histogram Name="BDT_tr_S_original" NBins="20" XMin="-9.9206370115280151e-01" XMax="9.6163672208786011e-01" HasEquidistantBins="1">
        2.54360602e-02 6.40960812e-02 8.14570963e-02 1.18526060e-01 1.30583208e-01 1.53275549e-01 1.43428681e-01 1.64348440e-01 2.01926961e-01 2.16473546e-01 2.59183337e-01 3.00140369e-01 3.41381574e-01 4.22492940e-01 5.32314302e-01 5.81640116e-01 7.25861208e-01 1.05688208e+00 1.65655591e+00 3.06098050e+00 
      </Histogram>
    </PDF>
    <PDF Name="BDTG01_PDFBkg" MinNSmooth="0" MaxNSmooth="0" InterpolMethod="2" KDE_type="1" KDE_iter="1" KDE_border="1" KDE_finefactor="1.0000000000000000e+00">
      <Histogram Name="BDT_tr_B_original" NBins="20" XMin="-9.9206370115280151e-01" XMax="9.6163672208786011e-01" HasEquidistantBins="1">
        3.03934750e+00 1.54026475e+00 9.75694841e-01 7.20070688e-01 5.94880293e-01 5.17400879e-01 4.07312230e-01 3.32163780e-01 3.25835796e-01 2.90985755e-01 2.11961998e-01 2.15050657e-01 1.78684995e-01 1.73936396e-01 1.90207444e-01 1.60778252e-01 1.12793123e-01 1.21971106e-01 8.96221246e-02 3.80214097e-02 
      </Histogram>
    </PDF>
  </MVAPdfs>
  <Weights NTrees="850" AnalysisType="1">
    <BinaryTree type="DecisionTree" boostWeight="1.0000000000000000e+00" itree="0">
      <Node pos="s" depth="0" NCoef="0" IVar="5" Cut="1.8517836332321167e+00" cType="1" res="-8.8241230696439743e-04" rms="4.9999922513961792e-01" purity="4.9911755323410034e-01" nType="0">
        <Node pos="l" depth="1" NCoef="0" IVar="11" Cut="1.8388184309005737e+00" cType="1" res="1.8863081932067871e-01" rms="4.6305334568023682e-01" purity="6.8863081932067871e-01" nType="0">
          <Node pos="l" depth="2" NCoef="0" IVar="16" Cut="6.6666591167449951e-01" cType="1" res="3.6960420012474060e-01" rms="3.3673837780952454e-01" purity="8.6960417032241821e-01" nType="0">
            <Node pos="l" depth="3" NCoef="0" IVar="-1" Cut="0.0000000000000000e+00" cType="1" res="5.7173077948391438e-03" rms="2.9139524698257446e-01" purity="9.0631121397018433e-01" nType="-99"/>
            <Node pos="r" depth="3" NCoef="0" IVar="-1" Cut="0.0000000000000000e+00" cType="1" res="2.1860299166291952e-03" rms="4.8294797539710999e-01" purity="6.2946534156799316e-01" nType="-99"/>
          </Node>
          <Node pos="r" depth="2" NCoef="0" IVar="13" Cut="1.1349586248397827e+00" cType="1" res="3.0163664370775223e-02" rms="4.9908933043479919e-01" purity="5.3016364574432373e-01" nType="0">
            <Node pos="l" depth="3" NCoef="0" IVar="-1" Cut="0.0000000000000000e+00" cType="1" res="4.7702444717288017e-03" rms="3.6797729134559631e-01" purity="8.3851546049118042e-01" nType="-99"/>
            <Node pos="r" depth="3" NCoef="0" IVar="-1" Cut="0.0000000000000000e+00" cType="1" res="-3.8840659544803202e-04" rms="4.9879625439643860e-01" purity="4.6532607078552246e-01" nType="-99"/>
          </Node>
        </Node>
        <Node pos="r" depth="1" NCoef="0" IVar="11" Cut="1.4141461849212646e+00" cType="1" res="-2.7150046825408936e-01" rms="4.1986605525016785e-01" purity="2.2849953174591064e-01" nType="0">
          <Node pos="l" depth="2" NCoef="0" IVar="1" Cut="1.8668935298919678e+00" cType="1" res="5.1974080502986908e-02" rms="4.9729135632514954e-01" purity="5.5197405815124512e-01" nType="0">
            <Node pos="l" depth="3" NCoef="0" IVar="-1" Cut="0.0000000000000000e+00" cType="1" res="4.5713270083069801e-03" rms="4.2440626025199890e-01" purity="7.6434695720672607e-01" nType="-99"/>
            <Node pos="r" depth="3" NCoef="0" IVar="-1" Cut="0.0000000000000000e+00" cType="1" res="-4.7619799152016640e-03" rms="4.7049346566200256e-01" purity="3.3077856898307800e-01" nType="-99"/>
          </Node>
          <Node pos="r" depth="2" NCoef="0" IVar="1" Cut="1.6137530803680420e+00" cType="1" res="-3.5428416728973389e-01" rms="3.5282108187675476e-01" purity="1.4571581780910492e-01" nType="0">
            <Node pos="l" depth="3" NCoef="0" IVar="-1" Cut="0.0000000000000000e+00" cType="1" res="-4.6956497244536877e-03" rms="4.7159591317176819e-01" purity="3.3387568593025208e-01" nType="-99"/>
            <Node pos="r" depth="3" NCoef="0" IVar="-1" Cut="0.0000000000000000e+00" cType="1" res="-1.4021610841155052e-02" rms="3.0051025748252869e-01" purity="1.0038321465253830e-01" nType="-99"/>
          </Node>
        </Node>
      </Node>
    </BinaryTree>
    <BinaryTree type="DecisionTree" boostWeight="1.0000000000000000e+00" itree="1">
      <Node pos="s" depth="0" NCoef="0" IVar="5" Cut="2.1063742637634277e+00" cType="1" res="4.7441390343010426e-03" rms="4.9772828817367554e-01" purity="5.0352966785430908e-01" nType="0">
        <Node pos="l" depth="1" NCoef="0" IVar="11" Cut="1.5042783021926880e+00" cType="1" res="1.6357851028442383e-01" rms="4.7116088867187500e-01" purity="6.6428422927856445e-01" nType="0">
          <Node pos="l" depth="2" NCoef="0" IVar="16" Cut="6.6665178537368774e-01" cType="1" res="3.8356733322143555e-01" rms="3.1748321652412415e-01" purity="8.8598835468292236e-01" nType="0">
            <Node pos="l" depth="3" NCoef="0" IVar="-1" Cut="0.0000000000000000e+00" cType="1" res="5.9353192336857319e-03" rms="2.6858058571815491e-01" purity="9.2163413763046265e-01" nType="-99"/>
            <Node pos="r" depth="3" NCoef="0" IVar="-1" Cut="0.0000000000000000e+00" cType="1" res="2.2333983797580004e-03" rms="4.8061916232109070e-01" purity="6.3724911212921143e-01" nType="-99"/>
          </Node>
          <Node pos="r" depth="2" NCoef="0" IVar="16" Cut="6.6666245460510254e-01" cType="1" res="2.7631474658846855e-02" rms="4.9849832057952881e-01" purity="5.2727711200714111e-01" nType="0">
            <Node pos="l" depth="3" NCoef="0" IVar="-1" Cut="0.0000000000000000e+00" cType="1" res="1.9528141710907221e-03" rms="4.8207435011863708e-01" purity="6.3033938407897949e-01" nType="-99"/>
            <Node pos="r" depth="3" NCoef="0" IVar="-1" Cut="0.0000000000000000e+00" cType="1" res="-2.5603091344237328e-03" rms="4.7879183292388916e-01" purity="3.5830768942832947e-01" nType="-99"/>
          </Node>
        </Node>
        <Node pos="r" depth="1" NCoef="0" IVar="11" Cut="1.4790215492248535e+00" cType="1" res="-3.1411567330360413e-01" rms="3.8352411985397339e-01" purity="1.8081519007682800e-01" nType="0">
          <Node pos="l" depth="2" NCoef="0" IVar="-1" Cut="0.0000000000000000e+00" cType="1" res="-1.0701586725190282e-03" rms="4.9718949198722839e-01" purity="4.5878472924232483e-01" nType="-99"/>
          <Node pos="r" depth="2" NCoef="0" IVar="1" Cut="1.6137530803680420e+00" cType="1" res="-3.8188859820365906e-01" rms="3.1488937139511108e-01" purity="1.1193375289440155e-01" nType="0">
            <Node pos="l" depth="3" NCoef="0" IVar="-1" Cut="0.0000000000000000e+00" cType="1" res="-6.5541374497115612e-03" rms="4.4054499268531799e-01" purity="2.6352563500404358e-01" nType="-99"/>
            <Node pos="r" depth="3" NCoef="0" IVar="-1" Cut="0.0000000000000000e+00" cType="1" res="-1.5216260217130184e-02" rms="2.6969918608665466e-01" purity="7.8974649310112000e-02" nType="-99"/>
          </Node>
        </Node>
      </Node>
    </BinaryTree>
    <BinaryTree type="DecisionTree" boostWeight="1.0000000000000000e+00" itree="2">
      <Node pos="s" depth="0" NCoef="0" IVar="5" Cut="1.8513537645339966e+00" cType="1" res="4.0514837019145489e-03" rms="4.9557372927665710e-01" purity="5.0170975923538208e-01" nType="0">
        <Node pos="l" depth="1" NCoef="0" IVar="11" Cut="1.8797074556350708e+00" cType="1" res="1.9042196869850159e-01" rms="4.5997199416160583e-01" purity="6.9292551279067993e-01" nType="0">
          <Node pos="l" depth="2" NCoef="0" IVar="16" Cut="6.6666090488433838e-01" cType="1" res="3.6359205842018127e-01" rms="3.3740097284317017e-01" purity="8.6849415302276611e-01" nType="0">
            <Node pos="l" depth="3" NCoef="0" IVar="-1" Cut="0.0000000000000000e+00" cType="1" res="5.6104208342730999e-03" rms="2.9162997007369995e-01" purity="9.0600585937500000e-01" nType="-99"/>
            <Node pos="r" depth="3" NCoef="0" IVar="-1" Cut="0.0000000000000000e+00" cType="1" res="2.0784377120435238e-03" rms="4.8299729824066162e-01" purity="6.2864989042282104e-01" nType="-99"/>
          </Node>
          <Node pos="r" depth="2" NCoef="0" IVar="13" Cut="1.0885925292968750e+00" cType="1" res="3.3963978290557861e-02" rms="4.9830114841461182e-01" purity="5.3430044651031494e-01" nType="0">
            <Node pos="l" depth="3" NCoef="0" IVar="-1" Cut="0.0000000000000000e+00" cType="1" res="4.8201791942119598e-03" rms="3.5893172025680542e-01" purity="8.4794688224792480e-01" nType="-99"/>
            <Node pos="r" depth="3" NCoef="0" IVar="-1" Cut="0.0000000000000000e+00" cType="1" res="-3.8866157410666347e-04" rms="4.9911940097808838e-01" purity="4.7561311721801758e-01" nType="-99"/>
          </Node>
        </Node>
        <Node pos="r" depth="1" NCoef="0" IVar="11" Cut="1.4790215492248535e+00" cType="1" res="-2.5623866915702820e-01" rms="4.2052820324897766e-01" purity="2.3465259373188019e-01" nType="0">
          <Node pos="l" depth="2" NCoef="0" IVar="1" Cut="1.8690606355667114e+00" cType="1" res="5.9060018509626389e-02" rms="4.9479863047599792e-01" purity="5.5932855606079102e-01" nType="0">
            <Node pos="l" depth="3" NCoef="0" IVar="-1" Cut="0.0000000000000000e+00" cType="1" res="4.4070733711123466e-03" rms="4.2243391275405884e-01" purity="7.6661837100982666e-01" nType="-99"/>
            <Node pos="r" depth="3" NCoef="0" IVar="-1" Cut="0.0000000000000000e+00" cType="1" res="-4.9931621178984642e-03" rms="4.6964398026466370e-01" purity="3.3001804351806641e-01" nType="-99"/>
          </Node>
          <Node pos="r" depth="2" NCoef="0" IVar="1" Cut="1.6286175251007080e+00" cType="1" res="-3.4415268898010254e-01" rms="3.4991529583930969e-01" purity="1.4412392675876617e-01" nType="0">
            <Node pos="l" depth="3" NCoef="0" IVar="-1" Cut="0.0000000000000000e+00" cType="1" res="-4.8654950223863125e-03" rms="4.6830701828002930e-01" purity="3.2567662000656128e-01" nType="-99"/>
            <Node pos="r" depth="3" NCoef="0" IVar="-1" Cut="0.0000000000000000e+00" cType="1" res="-1.3646081089973450e-02" rms="3.0033123493194580e-01" purity="1.0067895054817200e-01" nType="-99"/>
          </Node>
        </Node>
      </Node>
    </BinaryTree>
    <BinaryTree type="DecisionTree" boostWeight="1.0000000000000000e+00" itree="3">
      <Node pos="s" depth="0" NCoef="0" IVar="5" Cut="1.8685930967330933e+00" cType="1" res="1.1230980453547090e-04" rms="4.9347102642059326e-01" purity="4.9667045474052429e-01" nType="0">
        <Node pos="l" depth="1" NCoef="0" IVar="11" Cut="1.8251349925994873e+00" cType="1" res="1.8042409420013428e-01" rms="4.6289974451065063e-01" purity="6.8409866094589233e-01" nType="0">
          <Node pos="l" depth="2" NCoef="0" IVar="16" Cut="6.6665655374526978e-01" cType="1" res="3.6169415712356567e-01" rms="3.3645081520080566e-01" purity="8.6925232410430908e-01" nType="0">
            <Node pos="l" depth="3" NCoef="0" IVar="-1" Cut="0.0000000000000000e+00" cType="1" res="5.6410585530102253e-03" rms="2.9250907897949219e-01" purity="9.0540999174118042e-01" nType="-99"/>
            <Node pos="r" depth="3" NCoef="0" IVar="-1" Cut="0.0000000000000000e+00" cType="1" res="2.1600271575152874e-03" rms="4.8446789383888245e-01" purity="6.2294667959213257e-01" nType="-99"/>
          </Node>
          <Node pos="r" depth="2" NCoef="0" IVar="13" Cut="1.3309507369995117e+00" cType="1" res="2.9397532343864441e-02" rms="4.9830076098442078e-01" purity="5.2983653545379639e-01" nType="0">
            <Node pos="l" depth="3" NCoef="0" IVar="-1" Cut="0.0000000000000000e+00" cType="1" res="4.2865942232310772e-03" rms="4.0236487984657288e-01" purity="7.9589384794235229e-01" nType="-99"/>
            <Node pos="r" depth="3" NCoef="0" IVar="-1" Cut="0.0000000000000000e+00" cType="1" res="-5.3041114006191492e-04" rms="4.9830234050750732e-01" purity="4.6268150210380554e-01" nType="-99"/>
          </Node>
        </Node>
        <Node pos="r" depth="1" NCoef="0" IVar="11" Cut="1.4139239788055420e+00" cType="1" res="-2.6387763023376465e-01" rms="4.1113051772117615e-01" purity="2.2226154804229736e-01" nType="0">
          <Node pos="l" depth="2" NCoef="0" IVar="1" Cut="2.0777933597564697e+00" cType="1" res="4.8652097582817078e-02" rms="4.9509617686271667e-01" purity="5.4895865917205811e-01" nType="0">
            <Node pos="l" depth="3" NCoef="0" IVar="-1" Cut="0.0000000000000000e+00" cType="1" res="4.0500215254724026e-03" rms="4.4165244698524475e-01" purity="7.3266732692718506e-01" nType="-99"/>
            <Node pos="r" depth="3" NCoef="0" IVar="-1" Cut="0.0000000000000000e+00" cType="1" res="-5.4954583756625652e-03" rms="4.5689281821250916e-01" purity="2.9760131239891052e-01" nType="-99"/>
          </Node>
          <Node pos="r" depth="2" NCoef="0" IVar="1" Cut="1.6319533586502075e+00" cType="1" res="-3.4351709485054016e-01" rms="3.4410208463668823e-01" purity="1.3901190459728241e-01" nType="0">
            <Node pos="l" depth="3" NCoef="0" IVar="-1" Cut="0.0000000000000000e+00" cType="1" res="-4.7407760284841061e-03" rms="4.6535059809684753e-01" purity="3.1848168373107910e-01" nType="-99"/>
            <Node pos="r" depth="3" NCoef="0" IVar="-1" Cut="0.0000000000000000e+00" cType="1" res="-1.3462724164128304e-02" rms="2.9003363847732544e-01" purity="9.3121096491813660e-02" nType="-99"/>
          </Node>
        </Node>
      </Node>
    </BinaryTree>
    <BinaryTree type="DecisionTree" boostWeight="1.0000000000000000e+00" itree="4">
      <Node pos="s" depth="0" NCoef="0" IVar="5" Cut="2.0561358928680420e+00" cType="1" res="2.2278423421084881e-03" rms="4.9141111969947815e-01" purity="4.9754118919372559e-01" nType="0">
        <Node pos="l" depth="1" NCoef="0" IVar="11" Cut="1.8251349925994873e+00" cType="1" res="1.5749242901802063e-01" rms="4.6980357170104980e-01" purity="6.6096210479736328e-01" nType="0">
          <Node pos="l" depth="2" NCoef="0" IVar="16" Cut="7.1427470445632935e-01" cType="1" res="3.4786576032638550e-01" rms="3.4845256805419922e-01" purity="8.5715144872665405e-01" nType="0">
            <Node pos="l" depth="3" NCoef="0" IVar="-1" Cut="0.0000000000000000e+00" cType="1" res="5.4977508261799812e-03" rms="3.1238806247711182e-01" purity="8.8975328207015991e-01" nType="-99"/>
            <Node pos="r" depth="3" NCoef="0" IVar="-1" Cut="0.0000000000000000e+00" cType="1" res="1.1407963465899229e-03" rms="4.9148052930831909e-01" purity="5.8647763729095459e-01" nType="-99"/>
          </Node>
          <Node pos="r" depth="2" NCoef="0" IVar="8" Cut="1.1252423524856567e+00" cType="1" res="-2.2805482149124146e-04" rms="4.9807509779930115e-01" purity="4.9842321872711182e-01" nType="0">
            <Node pos="l" depth="3" NCoef="0" IVar="-1" Cut="0.0000000000000000e+00" cType="1" res="4.1739773005247116e-03" rms="4.2177709937095642e-01" purity="7.6621633768081665e-01" nType="-99"/>
            <Node pos="r" depth="3" NCoef="0" IVar="-1" Cut="0.0000000000000000e+00" cType="1" res="-9.2824146850034595e-04" rms="4.9417501688003540e-01" purity="4.3879675865173340e-01" nType="-99"/>
          </Node>
        </Node>
        <Node pos="r" depth="1" NCoef="0" IVar="11" Cut="1.3737579584121704e+00" cType="1" res="-2.8917577862739563e-01" rms="3.8769152760505676e-01" purity="1.9082958996295929e-01" nType="0">
          <Node pos="l" depth="2" NCoef="0" IVar="-1" Cut="0.0000000000000000e+00" cType="1" res="-1.2538713053800166e-04" rms="4.9672499299049377e-01" purity="5.0157046318054199e-01" nType="-99"/>
          <Node pos="r" depth="2" NCoef="0" IVar="1" Cut="1.6468406915664673e+00" cType="1" res="-3.5238540172576904e-01" rms="3.2706809043884277e-01" purity="1.2345348298549652e-01" nType="0">
            <Node pos="l" depth="3" NCoef="0" IVar="-1" Cut="0.0000000000000000e+00" cType="1" res="-5.9562963433563709e-03" rms="4.5100533962249756e-01" purity="2.8503623604774475e-01" nType="-99"/>
            <Node pos="r" depth="3" NCoef="0" IVar="-1" Cut="0.0000000000000000e+00" cType="1" res="-1.4107842929661274e-02" rms="2.7918657660484314e-01" purity="8.5428856313228607e-02" nType="-99"/>
          </Node>
        </Node>
      </Node>
    </BinaryTree>
    <BinaryTree type="DecisionTree" boostWeight="1.0000000000000000e+00" itree="5">
      <Node pos="s" depth="0" NCoef="0" IVar="5" Cut="1.8579275608062744e+00" cType="1" res="3.7656428758054972e-03" rms="4.8933067917823792e-01" purity="4.9810501933097839e-01" nType="0">
        <Node pos="l" depth="1" NCoef="0" IVar="12" Cut="1.1299282312393188e+00" cType="1" res="1.8151551485061646e-01" rms="4.6024706959724426e-01" purity="6.8775993585586548e-01" nType="0">
          <Node pos="l" depth="2" NCoef="0" IVar="16" Cut="5.2368378639221191e-01" cType="1" res="4.1060587763786316e-01" rms="2.6606142520904541e-01" purity="9.2264229059219360e-01" nType="0">
            <Node pos="l" depth="3" NCoef="0" IVar="-1" Cut="0.0000000000000000e+00" cType="1" res="6.1807050369679928e-03" rms="2.1219041943550110e-01" purity="9.5254111289978027e-01" nType="-99"/>
            <Node pos="r" depth="3" NCoef="0" IVar="-1" Cut="0.0000000000000000e+00" cType="1" res="4.4603128917515278e-03" rms="3.7749651074409485e-01" purity="8.2644766569137573e-01" nType="-99"/>
          </Node>
          <Node pos="r" depth="2" NCoef="0" IVar="13" Cut="1.3309507369995117e+00" cType="1" res="6.4557939767837524e-02" rms="4.9331426620483398e-01" purity="5.6784528493881226e-01" nType="0">
            <Node pos="l" depth="3" NCoef="0" IVar="-1" Cut="0.0000000000000000e+00" cType="1" res="4.6431189402937889e-03" rms="3.8430729508399963e-01" purity="8.1878679990768433e-01" nType="-99"/>
            <Node pos="r" depth="3" NCoef="0" IVar="-1" Cut="0.0000000000000000e+00" cType="1" res="-4.7215147060342133e-04" rms="4.9772685766220093e-01" purity="4.6527007222175598e-01" nType="-99"/>
          </Node>
        </Node>
        <Node pos="r" depth="1" NCoef="0" IVar="11" Cut="1.4141461849212646e+00" cType="1" res="-2.4867092072963715e-01" rms="4.1239669919013977e-01" purity="2.2876124083995819e-01" nType="0">
          <Node pos="l" depth="2" NCoef="0" IVar="1" Cut="2.0923554897308350e+00" cType="1" res="6.1801712960004807e-02" rms="4.9198791384696960e-01" purity="5.6271880865097046e-01" nType="0">
            <Node pos="l" depth="3" NCoef="0" IVar="-1" Cut="0.0000000000000000e+00" cType="1" res="4.0090875700116158e-03" rms="4.3309959769248962e-01" purity="7.4747222661972046e-01" nType="-99"/>
            <Node pos="r" depth="3" NCoef="0" IVar="-1" Cut="0.0000000000000000e+00" cType="1" res="-5.2575040608644485e-03" rms="4.5575657486915588e-01" purity="2.9592844843864441e-01" nType="-99"/>
          </Node>
          <Node pos="r" depth="2" NCoef="0" IVar="1" Cut="1.6285886764526367e+00" cType="1" res="-3.3081594109535217e-01" rms="3.4463697671890259e-01" purity="1.4040257036685944e-01" nType="0">
            <Node pos="l" depth="3" NCoef="0" IVar="-1" Cut="0.0000000000000000e+00" cType="1" res="-4.5165540650486946e-03" rms="4.6269777417182922e-01" purity="3.1264594197273254e-01" nType="-99"/>
            <Node pos="r" depth="3" NCoef="0" IVar="-1" Cut="0.0000000000000000e+00" cType="1" res="-1.2982737272977829e-02" rms="2.9764309525489807e-01" purity="9.8896019160747528e-02" nType="-99"/>
          </Node>
        </Node>
      </Node>
    </BinaryTree>
    <BinaryTree type="DecisionTree" boostWeight="1.0000000000000000e+00" itree="6">
      <Node pos="s" depth="0" NCoef="0" IVar="5" Cut="2.0589842796325684e+00" cType="1" res="3.4688126761466265e-03" rms="4.8725304007530212e-01" purity="4.9675300717353821e-01" nType="0">
        <Node pos="l" depth="1" NCoef="0" IVar="11" Cut="1.4936400651931763e+00" cType="1" res="1.5368667244911194e-01" rms="4.6871423721313477e-01" purity="6.5903925895690918e-01" nType="0">
          <Node pos="l" depth="2" NCoef="0" IVar="16" Cut="6.6665655374526978e-01" cType="1" res="3.7454786896705627e-01" rms="3.1190901994705200e-01" purity="8.8947856426239014e-01" nType="0">
            <Node pos="l" depth="3" NCoef="0" IVar="-1" Cut="0.0000000000000000e+00" cType="1" res="5.7637938298285007e-03" rms="2.6697963476181030e-01" purity="9.2232984304428101e-01" nType="-99"/>
            <Node pos="r" depth="3" NCoef="0" IVar="-1" Cut="0.0000000000000000e+00" cType="1" res="2.2302316501736641e-03" rms="4.7693905234336853e-01" purity="6.4648675918579102e-01" nType="-99"/>
          </Node>
          <Node pos="r" depth="2" NCoef="0" IVar="16" Cut="7.6189893484115601e-01" cType="1" res="2.0311035215854645e-02" rms="4.9635267257690430e-01" purity="5.1987957954406738e-01" nType="0">
            <Node pos="l" depth="3" NCoef="0" IVar="-1" Cut="0.0000000000000000e+00" cType="1" res="1.7694005509838462e-03" rms="4.8600268363952637e-01" purity="6.0572379827499390e-01" nType="-99"/>
            <Node pos="r" depth="3" NCoef="0" IVar="-1" Cut="0.0000000000000000e+00" cType="1" res="-3.1227229628711939e-03" rms="4.6237865090370178e-01" purity="3.1624817848205566e-01" nType="-99"/>
          </Node>
        </Node>
        <Node pos="r" depth="1" NCoef="0" IVar="1" Cut="1.6458965539932251e+00" cType="1" res="-2.8271695971488953e-01" rms="3.8247466087341309e-01" purity="1.8757514655590057e-01" nType="0">
          <Node pos="l" depth="2" NCoef="0" IVar="0" Cut="9.9980140686035156e+01" cType="0" res="-3.7374529987573624e-02" rms="4.9309933185577393e-01" purity="4.5495349168777466e-01" nType="0">
            <Node pos="l" depth="3" NCoef="0" IVar="-1" Cut="0.0000000000000000e+00" cType="1" res="4.8021133989095688e-03" rms="4.0172636508941650e-01" purity="7.9270344972610474e-01" nType="-99"/>
            <Node pos="r" depth="3" NCoef="0" IVar="-1" Cut="0.0000000000000000e+00" cType="1" res="-9.8899686709046364e-03" rms="4.0450474619865417e-01" purity="2.1112953126430511e-01" nType="-99"/>
          </Node>
          <Node pos="r" depth="2" NCoef="0" IVar="11" Cut="1.4790828227996826e+00" cType="1" res="-3.5874119400978088e-01" rms="3.0305308103561401e-01" purity="1.0472264140844345e-01" nType="0">
            <Node pos="l" depth="3" NCoef="0" IVar="-1" Cut="0.0000000000000000e+00" cType="1" res="-6.1611435376107693e-03" rms="4.5306938886642456e-01" purity="2.9150232672691345e-01" nType="-99"/>
            <Node pos="r" depth="3" NCoef="0" IVar="-1" Cut="0.0000000000000000e+00" cType="1" res="-1.3811981305480003e-02" rms="2.5636845827102661e-01" purity="7.0794142782688141e-02" nType="-99"/>
          </Node>
        </Node>
      </Node>
    </BinaryTree>
    <BinaryTree type="DecisionTree" boostWeight="1.0000000000000000e+00" itree="7">
      <Node pos="s" depth="0" NCoef="0" IVar="5" Cut="2.1059749126434326e+00" cType="1" res="1.2979342602193356e-02" rms="4.8506459593772888e-01" purity="5.0516802072525024e-01" nType="0">
        <Node pos="l" depth="1" NCoef="0" IVar="11" Cut="1.8340239524841309e+00" cType="1" res="1.5698595345020294e-01" rms="4.6627250313758850e-01" purity="6.6288602352142334e-01" nType="0">
          <Node pos="l" depth="2" NCoef="0" IVar="16" Cut="7.6189321279525757e-01" cType="1" res="3.4308028221130371e-01" rms="3.4534218907356262e-01" purity="8.5876494646072388e-01" nType="0">
            <Node pos="l" depth="3" NCoef="0" IVar="-1" Cut="0.0000000000000000e+00" cType="1" res="5.3214374929666519e-03" rms="3.1205064058303833e-01" purity="8.8914841413497925e-01" nType="-99"/>
            <Node pos="r" depth="3" NCoef="0" IVar="-1" Cut="0.0000000000000000e+00" cType="1" res="1.8442611326463521e-04" rms="4.9692082405090332e-01" purity="5.3562128543853760e-01" nType="-99"/>
          </Node>
          <Node pos="r" depth="2" NCoef="0" IVar="16" Cut="7.6190257072448730e-01" cType="1" res="-3.2940402161329985e-04" rms="4.9634340405464172e-01" purity="4.9729922413825989e-01" nType="0">
            <Node pos="l" depth="3" NCoef="0" IVar="-1" Cut="0.0000000000000000e+00" cType="1" res="1.2964369961991906e-03" rms="4.9015200138092041e-01" purity="5.8343291282653809e-01" nType="-99"/>
            <Node pos="r" depth="3" NCoef="0" IVar="-1" Cut="0.0000000000000000e+00" cType="1" res="-3.4178022760897875e-03" rms="4.5651870965957642e-01" purity="3.0297920107841492e-01" nType="-99"/>
          </Node>
        </Node>
        <Node pos="r" depth="1" NCoef="0" IVar="1" Cut="1.6319245100021362e+00" cType="1" res="-2.7972617745399475e-01" rms="3.7920621037483215e-01" purity="1.8459297716617584e-01" nType="0">
          <Node pos="l" depth="2" NCoef="0" IVar="0" Cut="1.0048189544677734e+02" cType="0" res="-4.1678644716739655e-02" rms="4.9057248234748840e-01" purity="4.4865626096725464e-01" nType="0">
            <Node pos="l" depth="3" NCoef="0" IVar="-1" Cut="0.0000000000000000e+00" cType="1" res="4.7770384699106216e-03" rms="4.0185898542404175e-01" purity="7.9310578107833862e-01" nType="-99"/>
            <Node pos="r" depth="3" NCoef="0" IVar="-1" Cut="0.0000000000000000e+00" cType="1" res="-9.9654728546738625e-03" rms="4.0125763416290283e-01" purity="2.0675231516361237e-01" nType="-99"/>
          </Node>
          <Node pos="r" depth="2" NCoef="0" IVar="8" Cut="1.1389189958572388e+00" cType="1" res="-3.4788382053375244e-01" rms="3.0853375792503357e-01" purity="1.0898654162883759e-01" nType="0">
            <Node pos="l" depth="3" NCoef="0" IVar="-1" Cut="0.0000000000000000e+00" cType="1" res="-5.5477996356785297e-03" rms="4.5284265279769897e-01" purity="2.9422226548194885e-01" nType="-99"/>
            <Node pos="r" depth="3" NCoef="0" IVar="-1" Cut="0.0000000000000000e+00" cType="1" res="-1.3840844854712486e-02" rms="2.6850765943527222e-01" purity="8.0367319285869598e-02" nType="-99"/>
          </Node>
        </Node>
      </Node>
    </BinaryTree>
    <BinaryTree type="DecisionTree" boostWeight="1.0000000000000000e+00" itree="8">
      <Node pos="s" depth="0" NCoef="0" IVar="5" Cut="1.8532218933105469e+00" cType="1" res="1.1755262501537800e-02" rms="4.8291555047035217e-01" purity="5.0272905826568604e-01" nType="0">
        <Node pos="l" depth="1" NCoef="0" IVar="11" Cut="1.8862746953964233e+00" cType="1" res="1.8758752942085266e-01" rms="4.5434826612472534e-01" purity="6.9752430915832520e-01" nType="0">
          <Node pos="l" depth="2" NCoef="0" IVar="12" Cut="1.1287797689437866e+00" cType="1" res="3.5062471032142639e-01" rms="3.3449286222457886e-01" purity="8.7001299858093262e-01" nType="0">
            <Node pos="l" depth="3" NCoef="0" IVar="-1" Cut="0.0000000000000000e+00" cType="1" res="5.8207502588629723e-03" rms="2.5330585241317749e-01" purity="9.3044257164001465e-01" nType="-99"/>
            <Node pos="r" depth="3" NCoef="0" IVar="-1" Cut="0.0000000000000000e+00" cType="1" res="3.3088766504079103e-03" rms="4.2970064282417297e-01" purity="7.5286895036697388e-01" nType="-99"/>
          </Node>
          <Node pos="r" depth="2" NCoef="0" IVar="13" Cut="1.3309507369995117e+00" cType="1" res="3.9387241005897522e-02" rms="4.9623551964759827e-01" purity="5.4073268175125122e-01" nType="0">
            <Node pos="l" depth="3" NCoef="0" IVar="-1" Cut="0.0000000000000000e+00" cType="1" res="4.1710860095918179e-03" rms="3.9943519234657288e-01" purity="7.9932421445846558e-01" nType="-99"/>
            <Node pos="r" depth="3" NCoef="0" IVar="-1" Cut="0.0000000000000000e+00" cType="1" res="-5.3589494200423360e-04" rms="4.9820932745933533e-01" purity="4.7569987177848816e-01" nType="-99"/>
          </Node>
        </Node>
        <Node pos="r" depth="1" NCoef="0" IVar="11" Cut="1.4138627052307129e+00" cType="1" res="-2.3108848929405212e-01" rms="4.1050449013710022e-01" purity="2.3369534313678741e-01" nType="0">
          <Node pos="l" depth="2" NCoef="0" IVar="1" Cut="1.8652018308639526e+00" cType="1" res="7.1038804948329926e-02" rms="4.8601886630058289e-01" purity="5.6957805156707764e-01" nType="0">
            <Node pos="l" depth="3" NCoef="0" IVar="-1" Cut="0.0000000000000000e+00" cType="1" res="4.3961550109088421e-03" rms="4.0957650542259216e-01" purity="7.8103739023208618e-01" nType="-99"/>
            <Node pos="r" depth="3" NCoef="0" IVar="-1" Cut="0.0000000000000000e+00" cType="1" res="-4.3674916960299015e-03" rms="4.6457937359809875e-01" purity="3.2414305210113525e-01" nType="-99"/>
          </Node>
          <Node pos="r" depth="2" NCoef="0" IVar="5" Cut="2.3622097969055176e+00" cType="1" res="-3.0913996696472168e-01" rms="3.4835427999496460e-01" purity="1.4692352712154388e-01" nType="0">
            <Node pos="l" depth="3" NCoef="0" IVar="-1" Cut="0.0000000000000000e+00" cType="1" res="-6.8936133757233620e-03" rms="4.3241339921951294e-01" purity="2.5787404179573059e-01" nType="-99"/>
            <Node pos="r" depth="3" NCoef="0" IVar="-1" Cut="0.0000000000000000e+00" cType="1" res="-1.2587605044245720e-02" rms="2.7666854858398438e-01" purity="8.6098320782184601e-02" nType="-99"/>
          </Node>
        </Node>
      </Node>
    </BinaryTree>
    <BinaryTree type="DecisionTree" boostWeight="1.0000000000000000e+00" itree="9">
      <Node pos="s" depth="0" NCoef="0" IVar="5" Cut="2.0462136268615723e+00" cType="1" res="1.1390455998480320e-02" rms="4.8106765747070312e-01" purity="5.0163161754608154e-01" nType="0">
        <Node pos="l" depth="1" NCoef="0" IVar="11" Cut="1.8790410757064819e+00" cType="1" res="1.6151009500026703e-01" rms="4.6278205513954163e-01" purity="6.7027068138122559e-01" nType="0">
          <Node pos="l" depth="2" NCoef="0" IVar="16" Cut="7.1427512168884277e-01" cType="1" res="3.3678859472274780e-01" rms="3.4660187363624573e-01" purity="8.5718303918838501e-01" nType="0">
            <Node pos="l" depth="3" NCoef="0" IVar="-1" Cut="0.0000000000000000e+00" cType="1" res="5.2627637051045895e-03" rms="3.0732709169387817e-01" purity="8.9291858673095703e-01" nType="-99"/>
            <Node pos="r" depth="3" NCoef="0" IVar="-1" Cut="0.0000000000000000e+00" cType="1" res="9.6728245262056589e-04" rms="4.9533793330192566e-01" purity="5.5198621749877930e-01" nType="-99"/>
          </Node>
          <Node pos="r" depth="2" NCoef="0" IVar="13" Cut="1.0999875068664551e+00" cType="1" res="5.6456546299159527e-03" rms="4.9615809321403503e-01" purity="5.0406092405319214e-01" nType="0">
            <Node pos="l" depth="3" NCoef="0" IVar="-1" Cut="0.0000000000000000e+00" cType="1" res="4.4364249333739281e-03" rms="3.9339867234230042e-01" purity="8.0466455221176147e-01" nType="-99"/>
            <Node pos="r" depth="3" NCoef="0" IVar="-1" Cut="0.0000000000000000e+00" cType="1" res="-8.8669214164838195e-04" rms="4.9449002742767334e-01" purity="4.4721072912216187e-01" nType="-99"/>
          </Node>
        </Node>
        <Node pos="r" depth="1" NCoef="0" IVar="11" Cut="1.4790215492248535e+00" cType="1" res="-2.6672232151031494e-01" rms="3.7987247109413147e-01" purity="1.8920965492725372e-01" nType="0">
          <Node pos="l" depth="2" NCoef="0" IVar="1" Cut="2.0990829467773438e+00" cType="1" res="-1.2738043442368507e-02" rms="4.9026840925216675e-01" purity="4.7923696041107178e-01" nType="0">
            <Node pos="l" depth="3" NCoef="0" IVar="-1" Cut="0.0000000000000000e+00" cType="1" res="3.0919716227799654e-03" rms="4.6296828985214233e-01" purity="6.7493623495101929e-01" nType="-99"/>
            <Node pos="r" depth="3" NCoef="0" IVar="-1" Cut="0.0000000000000000e+00" cType="1" res="-7.3025193996727467e-03" rms="4.2787119746208191e-01" purity="2.4327361583709717e-01" nType="-99"/>
          </Node>
          <Node pos="r" depth="2" NCoef="0" IVar="1" Cut="1.6424286365509033e+00" cType="1" res="-3.3160609006881714e-01" rms="3.1476002931594849e-01" purity="1.1511819809675217e-01" nType="0">
            <Node pos="l" depth="3" NCoef="0" IVar="-1" Cut="0.0000000000000000e+00" cType="1" res="-5.7420805096626282e-03" rms="4.4250556826591492e-01" purity="2.7493321895599365e-01" nType="-99"/>
            <Node pos="r" depth="3" NCoef="0" IVar="-1" Cut="0.0000000000000000e+00" cType="1" res="-1.3212415389716625e-02" rms="2.6603361964225769e-01" purity="7.7015109360218048e-02" nType="-99"/>
          </Node>
        </Node>
      </Node>
    </BinaryTree>
    <BinaryTree type="DecisionTree" boostWeight="1.0000000000000000e+00" itree="10">
      <Node pos="s" depth="0" NCoef="0" IVar="5" Cut="2.0903577804565430e+00" cType="1" res="1.4262177050113678e-02" rms="4.7950154542922974e-01" purity="5.0368064641952515e-01" nType="0">
        <Node pos="l" depth="1" NCoef="0" IVar="12" Cut="1.3800603151321411e+00" cType="1" res="1.5393628180027008e-01" rms="4.6431919932365417e-01" purity="6.6315144300460815e-01" nType="0">
          <Node pos="l" depth="2" NCoef="0" IVar="16" Cut="6.6644990444183350e-01" cType="1" res="3.5712441802024841e-01" rms="3.2216152548789978e-01" purity="8.7890022993087769e-01" nType="0">
            <Node pos="l" depth="3" NCoef="0" IVar="-1" Cut="0.0000000000000000e+00" cType="1" res="5.6070112623274326e-03" rms="2.7247631549835205e-01" purity="9.1782891750335693e-01" nType="-99"/>
            <Node pos="r" depth="3" NCoef="0" IVar="-1" Cut="0.0000000000000000e+00" cType="1" res="2.0477301441133022e-03" rms="4.7929802536964417e-01" purity="6.3042211532592773e-01" nType="-99"/>
          </Node>
          <Node pos="r" depth="2" NCoef="0" IVar="13" Cut="1.3310105800628662e+00" cType="1" res="2.1522441878914833e-02" rms="4.9397838115692139e-01" purity="5.2255201339721680e-01" nType="0">
            <Node pos="l" depth="3" NCoef="0" IVar="-1" Cut="0.0000000000000000e+00" cType="1" res="4.2026923038065434e-03" rms="4.1118657588958740e-01" purity="7.7865213155746460e-01" nType="-99"/>
            <Node pos="r" depth="3" NCoef="0" IVar="-1" Cut="0.0000000000000000e+00" cType="1" res="-1.3270588824525476e-03" rms="4.9120867252349854e-01" purity="4.2635557055473328e-01" nType="-99"/>
          </Node>
        </Node>
        <Node pos="r" depth="1" NCoef="0" IVar="1" Cut="1.6453747749328613e+00" cType="1" res="-2.6315221190452576e-01" rms="3.7772449851036072e-01" purity="1.8694700300693512e-01" nType="0">
          <Node pos="l" depth="2" NCoef="0" IVar="0" Cut="9.9980140686035156e+01" cType="0" res="-4.2877707630395889e-02" rms="4.8512274026870728e-01" purity="4.4123563170433044e-01" nType="0">
            <Node pos="l" depth="3" NCoef="0" IVar="-1" Cut="0.0000000000000000e+00" cType="1" res="4.7398572787642479e-03" rms="4.0109437704086304e-01" purity="7.9158377647399902e-01" nType="-99"/>
            <Node pos="r" depth="3" NCoef="0" IVar="-1" Cut="0.0000000000000000e+00" cType="1" res="-9.6772648394107819e-03" rms="3.8659006357192993e-01" purity="1.8958914279937744e-01" nType="-99"/>
          </Node>
          <Node pos="r" depth="2" NCoef="0" IVar="8" Cut="1.1352353096008301e+00" cType="1" res="-3.2968959212303162e-01" rms="3.0919277667999268e-01" purity="1.1013510823249817e-01" nType="0">
            <Node pos="l" depth="3" NCoef="0" IVar="-1" Cut="0.0000000000000000e+00" cType="1" res="-5.0171692855656147e-03" rms="4.4401252269744873e-01" purity="2.7713310718536377e-01" nType="-99"/>
            <Node pos="r" depth="3" NCoef="0" IVar="-1" Cut="0.0000000000000000e+00" cType="1" res="-1.3268425129354000e-02" rms="2.7475717663764954e-01" purity="8.4777899086475372e-02" nType="-99"/>
          </Node>
        </Node>
      </Node>
    </BinaryTree>
    <BinaryTree type="DecisionTree" boostWeight="1.0000000000000000e+00" itree="11">
      <Node pos="s" depth="0" NCoef="0" IVar="5" Cut="1.8574975728988647e+00" cType="1" res="1.4082958921790123e-02" rms="4.7744581103324890e-01" purity="5.0249749422073364e-01" nType="0">
        <Node pos="l" depth="1" NCoef="0" IVar="11" Cut="1.8303539752960205e+00" cType="1" res="1.7636062204837799e-01" rms="4.5545834302902222e-01" purity="6.9004249572753906e-01" nType="0">
          <Node pos="l" depth="2" NCoef="0" IVar="12" Cut="1.1242202520370483e+00" cType="1" res="3.4364423155784607e-01" rms="3.3322390913963318e-01" purity="8.7063866853713989e-01" nType="0">
            <Node pos="l" depth="3" NCoef="0" IVar="-1" Cut="0.0000000000000000e+00" cType="1" res="5.7189702056348324e-03" rms="2.5375330448150635e-01" purity="9.2995673418045044e-01" nType="-99"/>
            <Node pos="r" depth="3" NCoef="0" IVar="-1" Cut="0.0000000000000000e+00" cType="1" res="3.3360624220222235e-03" rms="4.3365436792373657e-01" purity="7.4527096748352051e-01" nType="-99"/>
          </Node>
          <Node pos="r" depth="2" NCoef="0" IVar="8" Cut="1.1248906850814819e+00" cType="1" res="2.7952423319220543e-02" rms="4.9610221385955811e-01" purity="5.2982389926910400e-01" nType="0">
            <Node pos="l" depth="3" NCoef="0" IVar="-1" Cut="0.0000000000000000e+00" cType="1" res="4.4082775712013245e-03" rms="4.0010064840316772e-01" purity="7.9825735092163086e-01" nType="-99"/>
            <Node pos="r" depth="3" NCoef="0" IVar="-1" Cut="0.0000000000000000e+00" cType="1" res="-4.2909325566142797e-04" rms="4.9582463502883911e-01" purity="4.6853414177894592e-01" nType="-99"/>
          </Node>
        </Node>
        <Node pos="r" depth="1" NCoef="0" IVar="11" Cut="1.3737579584121704e+00" cType="1" res="-2.1535722911357880e-01" rms="4.0875461697578430e-01" purity="2.3733246326446533e-01" nType="0">
          <Node pos="l" depth="2" NCoef="0" IVar="1" Cut="2.1125965118408203e+00" cType="1" res="8.2839712500572205e-02" rms="4.8046812415122986e-01" purity="5.7984000444412231e-01" nType="0">
            <Node pos="l" depth="3" NCoef="0" IVar="-1" Cut="0.0000000000000000e+00" cType="1" res="4.0103043429553509e-03" rms="4.2377817630767822e-01" purity="7.5376808643341064e-01" nType="-99"/>
            <Node pos="r" depth="3" NCoef="0" IVar="-1" Cut="0.0000000000000000e+00" cType="1" res="-4.5485510490834713e-03" rms="4.6102654933929443e-01" purity="3.1687730550765991e-01" nType="-99"/>
          </Node>
          <Node pos="r" depth="2" NCoef="0" IVar="1" Cut="1.6458677053451538e+00" cType="1" res="-2.8902354836463928e-01" rms="3.5204121470451355e-01" purity="1.5271967649459839e-01" nType="0">
            <Node pos="l" depth="3" NCoef="0" IVar="-1" Cut="0.0000000000000000e+00" cType="1" res="-4.0209791623055935e-03" rms="4.6582844853401184e-01" purity="3.3748841285705566e-01" nType="-99"/>
            <Node pos="r" depth="3" NCoef="0" IVar="-1" Cut="0.0000000000000000e+00" cType="1" res="-1.1924874037504196e-02" rms="3.0388855934143066e-01" purity="1.0515505820512772e-01" nType="-99"/>
          </Node>
        </Node>
      </Node>
    </BinaryTree>
    <BinaryTree type="DecisionTree" boostWeight="1.0000000000000000e+00" itree="12">
      <Node pos="s" depth="0" NCoef="0" IVar="5" Cut="1.8470072746276855e+00" cType="1" res="1.3046065345406532e-02" rms="4.7546696662902832e-01" purity="5.0034928321838379e-01" nType="0">
        <Node pos="l" depth="1" NCoef="0" IVar="11" Cut="1.7485786676406860e+00" cType="1" res="1.7860361933708191e-01" rms="4.5362564921379089e-01" purity="6.9335734844207764e-01" nType="0">
          <Node pos="l" depth="2" NCoef="0" IVar="16" Cut="6.6667711734771729e-01" cType="1" res="3.5245749354362488e-01" rms="3.1986564397811890e-01" purity="8.8237607479095459e-01" nType="0">
            <Node pos="l" depth="3" NCoef="0" IVar="-1" Cut="0.0000000000000000e+00" cType="1" res="5.3927535191178322e-03" rms="2.8021165728569031e-01" purity="9.1348814964294434e-01" nType="-99"/>
            <Node pos="r" depth="3" NCoef="0" IVar="-1" Cut="0.0000000000000000e+00" cType="1" res="2.0992953795939684e-03" rms="4.7389185428619385e-01" purity="6.5536904335021973e-01" nType="-99"/>
          </Node>
          <Node pos="r" depth="2" NCoef="0" IVar="16" Cut="8.0951708555221558e-01" cType="1" res="3.9111535996198654e-02" rms="4.9505567550659180e-01" purity="5.4169774055480957e-01" nType="0">
            <Node pos="l" depth="3" NCoef="0" IVar="-1" Cut="0.0000000000000000e+00" cType="1" res="1.6132552409544587e-03" rms="4.8557108640670776e-01" purity="6.0866981744766235e-01" nType="-99"/>
            <Node pos="r" depth="3" NCoef="0" IVar="-1" Cut="0.0000000000000000e+00" cType="1" res="-2.7591628022491932e-03" rms="4.6426326036453247e-01" purity="3.2009083032608032e-01" nType="-99"/>
          </Node>
        </Node>
        <Node pos="r" depth="1" NCoef="0" IVar="11" Cut="9.8764657974243164e-01" cType="1" res="-2.1715851128101349e-01" rms="4.0395423769950867e-01" purity="2.3197537660598755e-01" nType="0">
          <Node pos="l" depth="2" NCoef="0" IVar="-1" Cut="0.0000000000000000e+00" cType="1" res="2.9206634499132633e-03" rms="4.5979142189025879e-01" purity="6.6022223234176636e-01" nType="-99"/>
          <Node pos="r" depth="2" NCoef="0" IVar="1" Cut="1.6453747749328613e+00" cType="1" res="-2.7199435234069824e-01" rms="3.6401399970054626e-01" purity="1.6958342492580414e-01" nType="0">
            <Node pos="l" depth="3" NCoef="0" IVar="-1" Cut="0.0000000000000000e+00" cType="1" res="-2.5056218728423119e-03" rms="4.7623339295387268e-01" purity="3.8180801272392273e-01" nType="-99"/>
            <Node pos="r" depth="3" NCoef="0" IVar="-1" Cut="0.0000000000000000e+00" cType="1" res="-1.1247299611568451e-02" rms="3.0891454219818115e-01" purity="1.1084085702896118e-01" nType="-99"/>
          </Node>
        </Node>
      </Node>
    </BinaryTree>
    <BinaryTree type="DecisionTree" boostWeight="1.0000000000000000e+00" itree="13">
      <Node pos="s" depth="0" NCoef="0" IVar="5" Cut="1.8579275608062744e+00" cType="1" res="9.6283387392759323e-03" rms="4.7383362054824829e-01" purity="4.9591130018234253e-01" nType="0">
        <Node pos="l" depth="1" NCoef="0" IVar="11" Cut="1.8321126699447632e+00" cType="1" res="1.7028044164180756e-01" rms="4.5591357350349426e-01" purity="6.8617945909500122e-01" nType="0">
          <Node pos="l" depth="2" NCoef="0" IVar="16" Cut="7.1427512168884277e-01" cType="1" res="3.3519712090492249e-01" rms="3.3678808808326721e-01" purity="8.6691504716873169e-01" nType="0">
            <Node pos="l" depth="3" NCoef="0" IVar="-1" Cut="0.0000000000000000e+00" cType="1" res="5.2208499982953072e-03" rms="2.9948100447654724e-01" purity="8.9947038888931274e-01" nType="-99"/>
            <Node pos="r" depth="3" NCoef="0" IVar="-1" Cut="0.0000000000000000e+00" cType="1" res="1.4084508875384927e-03" rms="4.9293810129165649e-01" purity="5.7411634922027588e-01" nType="-99"/>
          </Node>
          <Node pos="r" depth="2" NCoef="0" IVar="13" Cut="1.3461561203002930e+00" cType="1" res="2.7713183313608170e-02" rms="4.9563470482826233e-01" purity="5.2993696928024292e-01" nType="0">
            <Node pos="l" depth="3" NCoef="0" IVar="-1" Cut="0.0000000000000000e+00" cType="1" res="4.0445369668304920e-03" rms="4.0446549654006958e-01" purity="7.9164910316467285e-01" nType="-99"/>
            <Node pos="r" depth="3" NCoef="0" IVar="-1" Cut="0.0000000000000000e+00" cType="1" res="-5.0327519420534372e-04" rms="4.9665901064872742e-01" purity="4.6174526214599609e-01" nType="-99"/>
          </Node>
        </Node>
        <Node pos="r" depth="1" NCoef="0" IVar="11" Cut="1.7807354927062988e+00" cType="1" res="-2.1769240498542786e-01" rms="3.9987412095069885e-01" purity="2.2668430209159851e-01" nType="0">
          <Node pos="l" depth="2" NCoef="0" IVar="1" Cut="1.8681964874267578e+00" cType="1" res="4.2308708652853966e-03" rms="4.8101183772087097e-01" purity="4.8475903272628784e-01" nType="0">
            <Node pos="l" depth="3" NCoef="0" IVar="-1" Cut="0.0000000000000000e+00" cType="1" res="3.5748726222664118e-03" rms="4.4176688790321350e-01" purity="7.1324521303176880e-01" nType="-99"/>
            <Node pos="r" depth="3" NCoef="0" IVar="-1" Cut="0.0000000000000000e+00" cType="1" res="-5.3494684398174286e-03" rms="4.3665492534637451e-01" purity="2.7098721265792847e-01" nType="-99"/>
          </Node>
          <Node pos="r" depth="2" NCoef="0" IVar="16" Cut="8.0952179431915283e-01" cType="1" res="-3.0531454086303711e-01" rms="3.2335203886032104e-01" purity="1.2478847801685333e-01" nType="0">
            <Node pos="l" depth="3" NCoef="0" IVar="-1" Cut="0.0000000000000000e+00" cType="1" res="-8.6587714031338692e-03" rms="3.7686064839363098e-01" purity="1.8106448650360107e-01" nType="-99"/>
            <Node pos="r" depth="3" NCoef="0" IVar="-1" Cut="0.0000000000000000e+00" cType="1" res="-1.3118203729391098e-02" rms="2.1538457274436951e-01" purity="4.9866557121276855e-02" nType="-99"/>
          </Node>
        </Node>
      </Node>
    </BinaryTree>
    <BinaryTree type="DecisionTree" boostWeight="1.0000000000000000e+00" itree="14">
      <Node pos="s" depth="0" NCoef="0" IVar="5" Cut="2.0589842796325684e+00" cType="1" res="1.7736900597810745e-02" rms="4.7195562720298767e-01" purity="5.0357848405838013e-01" nType="0">
        <Node pos="l" depth="1" NCoef="0" IVar="11" Cut="1.4943481683731079e+00" cType="1" res="1.5594707429409027e-01" rms="4.5935547351837158e-01" purity="6.6916203498840332e-01" nType="0">
          <Node pos="l" depth="2" NCoef="0" IVar="16" Cut="6.6666591167449951e-01" cType="1" res="3.5777825117111206e-01" rms="3.0720856785774231e-01" purity="8.9190852642059326e-01" nType="0">
            <Node pos="l" depth="3" NCoef="0" IVar="-1" Cut="0.0000000000000000e+00" cType="1" res="5.4970714263617992e-03" rms="2.6837238669395447e-01" purity="9.2093908786773682e-01" nType="-99"/>
            <Node pos="r" depth="3" NCoef="0" IVar="-1" Cut="0.0000000000000000e+00" cType="1" res="2.0787422545254230e-03" rms="4.6842071413993835e-01" purity="6.6715586185455322e-01" nType="-99"/>
          </Node>
          <Node pos="r" depth="2" NCoef="0" IVar="16" Cut="7.6190143823623657e-01" cType="1" res="3.1016683205962181e-02" rms="4.9231836199760437e-01" purity="5.3128552436828613e-01" nType="0">
            <Node pos="l" depth="3" NCoef="0" IVar="-1" Cut="0.0000000000000000e+00" cType="1" res="1.7119983676820993e-03" rms="4.8210257291793823e-01" purity="6.1248767375946045e-01" nType="-99"/>
            <Node pos="r" depth="3" NCoef="0" IVar="-1" Cut="0.0000000000000000e+00" cType="1" res="-3.0020135454833508e-03" rms="4.6186628937721252e-01" purity="3.2010218501091003e-01" nType="-99"/>
          </Node>
        </Node>
        <Node pos="r" depth="1" NCoef="0" IVar="1" Cut="1.6107301712036133e+00" cType="1" res="-2.4607186019420624e-01" rms="3.7294042110443115e-01" purity="1.8752083182334900e-01" nType="0">
          <Node pos="l" depth="2" NCoef="0" IVar="0" Cut="9.9537673950195312e+01" cType="0" res="-2.2310398519039154e-02" rms="4.8165145516395569e-01" purity="4.5820644497871399e-01" nType="0">
            <Node pos="l" depth="3" NCoef="0" IVar="-1" Cut="0.0000000000000000e+00" cType="1" res="4.8493961803615093e-03" rms="3.9209577441215515e-01" purity="8.0068290233612061e-01" nType="-99"/>
            <Node pos="r" depth="3" NCoef="0" IVar="-1" Cut="0.0000000000000000e+00" cType="1" res="-9.2277480289340019e-03" rms="3.9642658829689026e-01" purity="2.0593537390232086e-01" nType="-99"/>
          </Node>
          <Node pos="r" depth="2" NCoef="0" IVar="8" Cut="1.1352353096008301e+00" cType="1" res="-3.1190440058708191e-01" rms="3.0444508790969849e-01" purity="1.0788278281688690e-01" nType="0">
            <Node pos="l" depth="3" NCoef="0" IVar="-1" Cut="0.0000000000000000e+00" cType="1" res="-4.2721414938569069e-03" rms="4.4173428416252136e-01" purity="2.7573254704475403e-01" nType="-99"/>
            <Node pos="r" depth="3" NCoef="0" IVar="-1" Cut="0.0000000000000000e+00" cType="1" res="-1.2283585965633392e-02" rms="2.7021831274032593e-01" purity="8.2899332046508789e-02" nType="-99"/>
          </Node>
        </Node>
      </Node>
    </BinaryTree>
    <BinaryTree type="DecisionTree" boostWeight="1.0000000000000000e+00" itree="15">
      <Node pos="s" depth="0" NCoef="0" IVar="5" Cut="1.8685930967330933e+00" cType="1" res="1.2585742399096489e-02" rms="4.7018957138061523e-01" purity="4.9738276004791260e-01" nType="0">
        <Node pos="l" depth="1" NCoef="0" IVar="12" Cut="1.3800603151321411e+00" cType="1" res="1.7050124704837799e-01" rms="4.5372176170349121e-01" purity="6.8863725662231445e-01" nType="0">
          <Node pos="l" depth="2" NCoef="0" IVar="16" Cut="6.1907589435577393e-01" cType="1" res="3.5934111475944519e-01" rms="3.0387446284294128e-01" purity="8.9429479837417603e-01" nType="0">
            <Node pos="l" depth="3" NCoef="0" IVar="-1" Cut="0.0000000000000000e+00" cType="1" res="5.5184764787554741e-03" rms="2.5601461529731750e-01" purity="9.2858541011810303e-01" nType="-99"/>
            <Node pos="r" depth="3" NCoef="0" IVar="-1" Cut="0.0000000000000000e+00" cType="1" res="2.8866371139883995e-03" rms="4.4746816158294678e-01" purity="7.1588778495788574e-01" nType="-99"/>
          </Node>
          <Node pos="r" depth="2" NCoef="0" IVar="13" Cut="1.3316693305969238e+00" cType="1" res="4.6946916729211807e-02" rms="4.9146944284439087e-01" purity="5.5407953262329102e-01" nType="0">
            <Node pos="l" depth="3" NCoef="0" IVar="-1" Cut="0.0000000000000000e+00" cType="1" res="4.3027387000620365e-03" rms="3.8589218258857727e-01" purity="8.1524246931076050e-01" nType="-99"/>
            <Node pos="r" depth="3" NCoef="0" IVar="-1" Cut="0.0000000000000000e+00" cType="1" res="-7.7130348654463887e-04" rms="4.9485537409782410e-01" purity="4.4845002889633179e-01" nType="-99"/>
          </Node>
        </Node>
        <Node pos="r" depth="1" NCoef="0" IVar="11" Cut="1.4138627052307129e+00" cType="1" res="-2.1570089459419250e-01" rms="3.9358395338058472e-01" purity="2.2090043127536774e-01" nType="0">
          <Node pos="l" depth="2" NCoef="0" IVar="1" Cut="2.1101937294006348e+00" cType="1" res="5.7179722934961319e-02" rms="4.7942113876342773e-01" purity="5.4990345239639282e-01" nType="0">
            <Node pos="l" depth="3" NCoef="0" IVar="-1" Cut="0.0000000000000000e+00" cType="1" res="3.8117927033454180e-03" rms="4.3416932225227356e-01" purity="7.2946321964263916e-01" nType="-99"/>
            <Node pos="r" depth="3" NCoef="0" IVar="-1" Cut="0.0000000000000000e+00" cType="1" res="-4.6055088751018047e-03" rms="4.4536015391349792e-01" purity="2.8228309750556946e-01" nType="-99"/>
          </Node>
          <Node pos="r" depth="2" NCoef="0" IVar="16" Cut="7.6190382242202759e-01" cType="1" res="-2.8607669472694397e-01" rms="3.3380436897277832e-01" purity="1.3605065643787384e-01" nType="0">
            <Node pos="l" depth="3" NCoef="0" IVar="-1" Cut="0.0000000000000000e+00" cType="1" res="-7.1378224529325962e-03" rms="3.9498916268348694e-01" purity="2.0799291133880615e-01" nType="-99"/>
            <Node pos="r" depth="3" NCoef="0" IVar="-1" Cut="0.0000000000000000e+00" cType="1" res="-1.2645198963582516e-02" rms="2.2412431240081787e-01" purity="5.3874254226684570e-02" nType="-99"/>
          </Node>
        </Node>
      </Node>
    </BinaryTree>
    <BinaryTree type="DecisionTree" boostWeight="1.0000000000000000e+00" itree="16">
      <Node pos="s" depth="0" NCoef="0" IVar="5" Cut="1.8574975728988647e+00" cType="1" res="1.7371537163853645e-02" rms="4.6861240267753601e-01" purity="5.0110322237014771e-01" nType="0">
        <Node pos="l" depth="1" NCoef="0" IVar="11" Cut="1.8303539752960205e+00" cType="1" res="1.7336620390415192e-01" rms="4.5148640871047974e-01" purity="6.9289594888687134e-01" nType="0">
          <Node pos="l" depth="2" NCoef="0" IVar="16" Cut="7.1427023410797119e-01" cType="1" res="3.3239886164665222e-01" rms="3.3188840746879578e-01" purity="8.7084352970123291e-01" nType="0">
            <Node pos="l" depth="3" NCoef="0" IVar="-1" Cut="0.0000000000000000e+00" cType="1" res="5.1282560452818871e-03" rms="2.9855915904045105e-01" purity="8.9976847171783447e-01" nType="-99"/>
            <Node pos="r" depth="3" NCoef="0" IVar="-1" Cut="0.0000000000000000e+00" cType="1" res="1.3780676526948810e-03" rms="4.8475337028503418e-01" purity="6.1637312173843384e-01" nType="-99"/>
          </Node>
          <Node pos="r" depth="2" NCoef="0" IVar="8" Cut="1.1298485994338989e+00" cType="1" res="3.3538147807121277e-02" rms="4.9439561367034912e-01" purity="5.3643715381622314e-01" nType="0">
            <Node pos="l" depth="3" NCoef="0" IVar="-1" Cut="0.0000000000000000e+00" cType="1" res="4.3108593672513962e-03" rms="3.9263096451759338e-01" purity="8.0756604671478271e-01" nType="-99"/>
            <Node pos="r" depth="3" NCoef="0" IVar="-1" Cut="0.0000000000000000e+00" cType="1" res="-4.4420655467547476e-04" rms="4.9486947059631348e-01" purity="4.7259336709976196e-01" nType="-99"/>
          </Node>
        </Node>
        <Node pos="r" depth="1" NCoef="0" IVar="11" Cut="1.4790215492248535e+00" cType="1" res="-2.0047639310359955e-01" rms="4.0020290017127991e-01" purity="2.3326298594474792e-01" nType="0">
          <Node pos="l" depth="2" NCoef="0" IVar="1" Cut="1.8652018308639526e+00" cType="1" res="6.7058116197586060e-02" rms="4.7731405496597290e-01" purity="5.5795854330062866e-01" nType="0">
            <Node pos="l" depth="3" NCoef="0" IVar="-1" Cut="0.0000000000000000e+00" cType="1" res="4.1245012544095516e-03" rms="4.1340884566307068e-01" purity="7.6844286918640137e-01" nType="-99"/>
            <Node pos="r" depth="3" NCoef="0" IVar="-1" Cut="0.0000000000000000e+00" cType="1" res="-4.0883398614823818e-03" rms="4.6052122116088867e-01" purity="3.2359263300895691e-01" nType="-99"/>
          </Node>
          <Node pos="r" depth="2" NCoef="0" IVar="1" Cut="1.6319245100021362e+00" cType="1" res="-2.7541258931159973e-01" rms="3.3992007374763489e-01" purity="1.4231604337692261e-01" nType="0">
            <Node pos="l" depth="3" NCoef="0" IVar="-1" Cut="0.0000000000000000e+00" cType="1" res="-3.9436174556612968e-03" rms="4.5726495981216431e-01" purity="3.1801539659500122e-01" nType="-99"/>
            <Node pos="r" depth="3" NCoef="0" IVar="-1" Cut="0.0000000000000000e+00" cType="1" res="-1.1297215707600117e-02" rms="2.9518565535545349e-01" purity="9.9336467683315277e-02" nType="-99"/>
          </Node>
        </Node>
      </Node>
    </BinaryTree>
    <BinaryTree type="DecisionTree" boostWeight="1.0000000000000000e+00" itree="17">
      <Node pos="s" depth="0" NCoef="0" IVar="5" Cut="2.0544011592864990e+00" cType="1" res="1.8233774229884148e-02" rms="4.6652868390083313e-01" purity="5.0158476829528809e-01" nType="0">
        <Node pos="l" depth="1" NCoef="0" IVar="11" Cut="1.8327889442443848e+00" cType="1" res="1.5305256843566895e-01" rms="4.5715355873107910e-01" purity="6.6904926300048828e-01" nType="0">
          <Node pos="l" depth="2" NCoef="0" IVar="16" Cut="7.1427470445632935e-01" cType="1" res="3.2209110260009766e-01" rms="3.4102654457092285e-01" purity="8.6017012596130371e-01" nType="0">
            <Node pos="l" depth="3" NCoef="0" IVar="-1" Cut="0.0000000000000000e+00" cType="1" res="5.0709210336208344e-03" rms="3.0249670147895813e-01" purity="8.9577448368072510e-01" nType="-99"/>
            <Node pos="r" depth="3" NCoef="0" IVar="-1" Cut="0.0000000000000000e+00" cType="1" res="9.7106432076543570e-04" rms="4.9299392104148865e-01" purity="5.5716139078140259e-01" nType="-99"/>
          </Node>
          <Node pos="r" depth="2" NCoef="0" IVar="13" Cut="1.3302443027496338e+00" cType="1" res="8.3802500739693642e-03" rms="4.9288278818130493e-01" purity="5.0547766685485840e-01" nType="0">
            <Node pos="l" depth="3" NCoef="0" IVar="-1" Cut="0.0000000000000000e+00" cType="1" res="3.8609779439866543e-03" rms="4.1727468371391296e-01" purity="7.6702851057052612e-01" nType="-99"/>
            <Node pos="r" depth="3" NCoef="0" IVar="-1" Cut="0.0000000000000000e+00" cType="1" res="-9.3416735762730241e-04" rms="4.9145501852035522e-01" purity="4.4096097350120544e-01" nType="-99"/>
          </Node>
        </Node>
        <Node pos="r" depth="1" NCoef="0" IVar="11" Cut="1.3737579584121704e+00" cType="1" res="-2.3793657124042511e-01" rms="3.6598289012908936e-01" purity="1.8338409066200256e-01" nType="0">
          <Node pos="l" depth="2" NCoef="0" IVar="-1" Cut="0.0000000000000000e+00" cType="1" res="2.0602931908797473e-04" rms="4.8111104965209961e-01" purity="5.0370836257934570e-01" nType="-99"/>
          <Node pos="r" depth="2" NCoef="0" IVar="1" Cut="1.6319533586502075e+00" cType="1" res="-2.9347324371337891e-01" rms="3.0899608135223389e-01" purity="1.1383038759231567e-01" nType="0">
            <Node pos="l" depth="3" NCoef="0" IVar="-1" Cut="0.0000000000000000e+00" cType="1" res="-4.8575834371149540e-03" rms="4.4283002614974976e-01" purity="2.8560182452201843e-01" nType="-99"/>
            <Node pos="r" depth="3" NCoef="0" IVar="-1" Cut="0.0000000000000000e+00" cType="1" res="-1.1838116683065891e-02" rms="2.6115778088569641e-01" purity="7.4731372296810150e-02" nType="-99"/>
          </Node>
        </Node>
      </Node>
    </BinaryTree>
    <BinaryTree type="DecisionTree" boostWeight="1.0000000000000000e+00" itree="18">
      <Node pos="s" depth="0" NCoef="0" IVar="5" Cut="2.0307700634002686e+00" cType="1" res="1.5825729817152023e-02" rms="4.6551483869552612e-01" purity="4.9814146757125854e-01" nType="0">
        <Node pos="l" depth="1" NCoef="0" IVar="12" Cut="1.1341012716293335e+00" cType="1" res="1.4942345023155212e-01" rms="4.5765116810798645e-01" purity="6.6676634550094604e-01" nType="0">
          <Node pos="l" depth="2" NCoef="0" IVar="16" Cut="5.7142829895019531e-01" cType="1" res="3.6680826544761658e-01" rms="2.8341513872146606e-01" purity="9.0844887495040894e-01" nType="0">
            <Node pos="l" depth="3" NCoef="0" IVar="-1" Cut="0.0000000000000000e+00" cType="1" res="5.6895432062447071e-03" rms="2.2914537787437439e-01" purity="9.4324851036071777e-01" nType="-99"/>
            <Node pos="r" depth="3" NCoef="0" IVar="-1" Cut="0.0000000000000000e+00" cType="1" res="3.7747188471257687e-03" rms="4.2571273446083069e-01" purity="7.5174784660339355e-01" nType="-99"/>
          </Node>
          <Node pos="r" depth="2" NCoef="0" IVar="13" Cut="1.3309507369995117e+00" cType="1" res="3.9576236158609390e-02" rms="4.8861560225486755e-01" purity="5.4464113712310791e-01" nType="0">
            <Node pos="l" depth="3" NCoef="0" IVar="-1" Cut="0.0000000000000000e+00" cType="1" res="4.2218919843435287e-03" rms="3.9735430479049683e-01" purity="7.9590892791748047e-01" nType="-99"/>
            <Node pos="r" depth="3" NCoef="0" IVar="-1" Cut="0.0000000000000000e+00" cType="1" res="-8.5539871361106634e-04" rms="4.9147102236747742e-01" purity="4.4633623957633972e-01" nType="-99"/>
          </Node>
        </Node>
        <Node pos="r" depth="1" NCoef="0" IVar="12" Cut="1.0634213685989380e+00" cType="1" res="-2.2889609634876251e-01" rms="3.7070041894912720e-01" purity="1.8925772607326508e-01" nType="0">
          <Node pos="l" depth="2" NCoef="0" IVar="-1" Cut="0.0000000000000000e+00" cType="1" res="1.0459985351189971e-03" rms="4.7125282883644104e-01" purity="5.1153981685638428e-01" nType="-99"/>
          <Node pos="r" depth="2" NCoef="0" IVar="13" Cut="1.1314516067504883e+00" cType="1" res="-2.7560421824455261e-01" rms="3.2865017652511597e-01" purity="1.3444495201110840e-01" nType="0">
            <Node pos="l" depth="3" NCoef="0" IVar="-1" Cut="0.0000000000000000e+00" cType="1" res="-1.9294711528345942e-03" rms="4.5038008689880371e-01" purity="3.3867177367210388e-01" nType="-99"/>
            <Node pos="r" depth="3" NCoef="0" IVar="-1" Cut="0.0000000000000000e+00" cType="1" res="-1.1326951906085014e-02" rms="2.9557403922080994e-01" purity="1.0305278748273849e-01" nType="-99"/>
          </Node>
        </Node>
      </Node>
    </BinaryTree>
    <BinaryTree type="DecisionTree" boostWeight="1.0000000000000000e+00" itree="19">
      <Node pos="s" depth="0" NCoef="0" IVar="5" Cut="1.8579275608062744e+00" cType="1" res="2.0370811223983765e-02" rms="4.6384620666503906e-01" purity="5.0234293937683105e-01" nType="0">
        <Node pos="l" depth="1" NCoef="0" IVar="11" Cut="1.8303539752960205e+00" cType="1" res="1.6931958496570587e-01" rms="4.4983530044555664e-01" purity="6.9219094514846802e-01" nType="0">
          <Node pos="l" depth="2" NCoef="0" IVar="16" Cut="7.1422654390335083e-01" cType="1" res="3.3029600977897644e-01" rms="3.2597723603248596e-01" purity="8.7563258409500122e-01" nType="0">
            <Node pos="l" depth="3" NCoef="0" IVar="-1" Cut="0.0000000000000000e+00" cType="1" res="5.0382046028971672e-03" rms="2.9208281636238098e-01" purity="9.0443271398544312e-01" nType="-99"/>
            <Node pos="r" depth="3" NCoef="0" IVar="-1" Cut="0.0000000000000000e+00" cType="1" res="1.3395253336057067e-03" rms="4.8516255617141724e-01" purity="6.1383587121963501e-01" nType="-99"/>
          </Node>
          <Node pos="r" depth="2" NCoef="0" IVar="8" Cut="1.1298485994338989e+00" cType="1" res="2.9015196487307549e-02" rms="4.9379324913024902e-01" purity="5.3230637311935425e-01" nType="0">
            <Node pos="l" depth="3" NCoef="0" IVar="-1" Cut="0.0000000000000000e+00" cType="1" res="4.2758290655910969e-03" rms="3.9826270937919617e-01" purity="7.9931753873825073e-01" nType="-99"/>
            <Node pos="r" depth="3" NCoef="0" IVar="-1" Cut="0.0000000000000000e+00" cType="1" res="-4.4623547000810504e-04" rms="4.9408507347106934e-01" purity="4.7155418992042542e-01" nType="-99"/>
          </Node>
        </Node>
        <Node pos="r" depth="1" NCoef="0" IVar="12" Cut="1.1459894180297852e+00" cType="1" res="-1.9446857273578644e-01" rms="3.9428645372390747e-01" purity="2.2851170599460602e-01" nType="0">
          <Node pos="l" depth="2" NCoef="0" IVar="-1" Cut="0.0000000000000000e+00" cType="1" res="1.6262287972494960e-03" rms="4.6707078814506531e-01" purity="5.5682080984115601e-01" nType="-99"/>
          <Node pos="r" depth="2" NCoef="0" IVar="13" Cut="1.1324781179428101e+00" cType="1" res="-2.5576531887054443e-01" rms="3.4762528538703918e-01" purity="1.5606141090393066e-01" nType="0">
            <Node pos="l" depth="3" NCoef="0" IVar="-1" Cut="0.0000000000000000e+00" cType="1" res="-9.1493711806833744e-04" rms="4.6526184678077698e-01" purity="3.9325132966041565e-01" nType="-99"/>
            <Node pos="r" depth="3" NCoef="0" IVar="-1" Cut="0.0000000000000000e+00" cType="1" res="-1.0459382086992264e-02" rms="3.1110942363739014e-01" purity="1.1755800247192383e-01" nType="-99"/>
          </Node>
        </Node>
      </Node>
    </BinaryTree>
    <BinaryTree type="DecisionTree" boostWeight="1.0000000000000000e+00" itree="20">
      <Node pos="s" depth="0" NCoef="0" IVar="5" Cut="2.0462136268615723e+00" cType="1" res="1.7596114426851273e-02" rms="4.6251812577247620e-01" purity="4.9865278601646423e-01" nType="0">
        <Node pos="l" depth="1" NCoef="0" IVar="12" Cut="1.3727521896362305e+00" cType="1" res="1.4746296405792236e-01" rms="4.5647752285003662e-01" purity="6.6636836528778076e-01" nType="0">
          <Node pos="l" depth="2" NCoef="0" IVar="16" Cut="6.6666114330291748e-01" cType="1" res="3.3183407783508301e-01" rms="3.2330000400543213e-01" purity="8.7540709972381592e-01" nType="0">
            <Node pos="l" depth="3" NCoef="0" IVar="-1" Cut="0.0000000000000000e+00" cType="1" res="5.3242533467710018e-03" rms="2.7926743030548096e-01" purity="9.1224426031112671e-01" nType="-99"/>
            <Node pos="r" depth="3" NCoef="0" IVar="-1" Cut="0.0000000000000000e+00" cType="1" res="2.0158481784164906e-03" rms="4.7624737024307251e-01" purity="6.3325190544128418e-01" nType="-99"/>
          </Node>
          <Node pos="r" depth="2" NCoef="0" IVar="13" Cut="1.5778788328170776e+00" cType="1" res="2.8118077665567398e-02" rms="4.8923096060752869e-01" purity="5.3105598688125610e-01" nType="0">
            <Node pos="l" depth="3" NCoef="0" IVar="-1" Cut="0.0000000000000000e+00" cType="1" res="3.5684839822351933e-03" rms="4.2486792802810669e-01" purity="7.5162625312805176e-01" nType="-99"/>
            <Node pos="r" depth="3" NCoef="0" IVar="-1" Cut="0.0000000000000000e+00" cType="1" res="-1.3798411237075925e-03" rms="4.8734307289123535e-01" purity="4.1544586420059204e-01" nType="-99"/>
          </Node>
        </Node>
        <Node pos="r" depth="1" NCoef="0" IVar="1" Cut="1.6424286365509033e+00" cType="1" res="-2.2814370691776276e-01" rms="3.6349120736122131e-01" purity="1.8129377067089081e-01" nType="0">
          <Node pos="l" depth="2" NCoef="0" IVar="0" Cut="9.9068946838378906e+01" cType="0" res="-3.0676424503326416e-02" rms="4.7274774312973022e-01" purity="4.3583947420120239e-01" nType="0">
            <Node pos="l" depth="3" NCoef="0" IVar="-1" Cut="0.0000000000000000e+00" cType="1" res="4.8456066288053989e-03" rms="4.0289431810379028e-01" purity="7.7910023927688599e-01" nType="-99"/>
            <Node pos="r" depth="3" NCoef="0" IVar="-1" Cut="0.0000000000000000e+00" cType="1" res="-8.7052201852202415e-03" rms="3.8427487015724182e-01" purity="1.9295893609523773e-01" nType="-99"/>
          </Node>
          <Node pos="r" depth="2" NCoef="0" IVar="8" Cut="1.1231255531311035e+00" cType="1" res="-2.8688353300094604e-01" rms="2.9983070492744446e-01" purity="1.0557503998279572e-01" nType="0">
            <Node pos="l" depth="3" NCoef="0" IVar="-1" Cut="0.0000000000000000e+00" cType="1" res="-3.4743673168122768e-03" rms="4.3581706285476685e-01" purity="2.6565009355545044e-01" nType="-99"/>
            <Node pos="r" depth="3" NCoef="0" IVar="-1" Cut="0.0000000000000000e+00" cType="1" res="-1.1548824608325958e-02" rms="2.6764529943466187e-01" purity="8.2325898110866547e-02" nType="-99"/>
          </Node>
        </Node>
      </Node>
    </BinaryTree>
    <BinaryTree type="DecisionTree" boostWeight="1.0000000000000000e+00" itree="21">
      <Node pos="s" depth="0" NCoef="0" IVar="5" Cut="1.8624492883682251e+00" cType="1" res="2.0522832870483398e-02" rms="4.6086835861206055e-01" purity="5.0066608190536499e-01" nType="0">
        <Node pos="l" depth="1" NCoef="0" IVar="11" Cut="1.8251349925994873e+00" cType="1" res="1.6662377119064331e-01" rms="4.4912683963775635e-01" purity="6.9175344705581665e-01" nType="0">
          <Node pos="l" depth="2" NCoef="0" IVar="16" Cut="7.1423381567001343e-01" cType="1" res="3.2154190540313721e-01" rms="3.3035725355148315e-01" purity="8.7126767635345459e-01" nType="0">
            <Node pos="l" depth="3" NCoef="0" IVar="-1" Cut="0.0000000000000000e+00" cType="1" res="4.9913609400391579e-03" rms="2.9668045043945312e-01" purity="9.0083849430084229e-01" nType="-99"/>
            <Node pos="r" depth="3" NCoef="0" IVar="-1" Cut="0.0000000000000000e+00" cType="1" res="1.3063470833003521e-03" rms="4.8697105050086975e-01" purity="6.0379827022552490e-01" nType="-99"/>
          </Node>
          <Node pos="r" depth="2" NCoef="0" IVar="8" Cut="1.1221225261688232e+00" cType="1" res="3.2074239104986191e-02" rms="4.9312666058540344e-01" purity="5.3584176301956177e-01" nType="0">
            <Node pos="l" depth="3" NCoef="0" IVar="-1" Cut="0.0000000000000000e+00" cType="1" res="4.2943931184709072e-03" rms="3.9691287279129028e-01" purity="8.0163049697875977e-01" nType="-99"/>
            <Node pos="r" depth="3" NCoef="0" IVar="-1" Cut="0.0000000000000000e+00" cType="1" res="-4.4365925714373589e-04" rms="4.9400767683982849e-01" purity="4.7427260875701904e-01" nType="-99"/>
          </Node>
        </Node>
        <Node pos="r" depth="1" NCoef="0" IVar="11" Cut="1.4790215492248535e+00" cType="1" res="-1.8933448195457458e-01" rms="3.9121168851852417e-01" purity="2.2619092464447021e-01" nType="0">
          <Node pos="l" depth="2" NCoef="0" IVar="1" Cut="1.8317677974700928e+00" cType="1" res="5.3066473454236984e-02" rms="4.7509470582008362e-01" purity="5.3855377435684204e-01" nType="0">
            <Node pos="l" depth="3" NCoef="0" IVar="-1" Cut="0.0000000000000000e+00" cType="1" res="4.1347057558596134e-03" rms="4.1945546865463257e-01" purity="7.5207960605621338e-01" nType="-99"/>
            <Node pos="r" depth="3" NCoef="0" IVar="-1" Cut="0.0000000000000000e+00" cType="1" res="-3.7693958729505539e-03" rms="4.6042746305465698e-01" purity="3.2898774743080139e-01" nType="-99"/>
          </Node>
          <Node pos="r" depth="2" NCoef="0" IVar="1" Cut="1.6458965539932251e+00" cType="1" res="-2.5491511821746826e-01" rms="3.3643540740013123e-01" purity="1.4168237149715424e-01" nType="0">
            <Node pos="l" depth="3" NCoef="0" IVar="-1" Cut="0.0000000000000000e+00" cType="1" res="-3.7148438859730959e-03" rms="4.5534229278564453e-01" purity="3.2239899039268494e-01" nType="-99"/>
            <Node pos="r" depth="3" NCoef="0" IVar="-1" Cut="0.0000000000000000e+00" cType="1" res="-1.0680966079235077e-02" rms="2.8974342346191406e-01" purity="9.6122682094573975e-02" nType="-99"/>
          </Node>
        </Node>
      </Node>
    </BinaryTree>
    <BinaryTree type="DecisionTree" boostWeight="1.0000000000000000e+00" itree="22">
      <Node pos="s" depth="0" NCoef="0" IVar="5" Cut="1.8624492883682251e+00" cType="1" res="1.8332473933696747e-02" rms="4.5913976430892944e-01" purity="4.9707627296447754e-01" nType="0">
        <Node pos="l" depth="1" NCoef="0" IVar="11" Cut="1.8251349925994873e+00" cType="1" res="1.6508185863494873e-01" rms="4.4867768883705139e-01" purity="6.9140028953552246e-01" nType="0">
          <Node pos="l" depth="2" NCoef="0" IVar="16" Cut="7.1427786350250244e-01" cType="1" res="3.1913644075393677e-01" rms="3.3031776547431946e-01" purity="8.7119787931442261e-01" nType="0">
            <Node pos="l" depth="3" NCoef="0" IVar="-1" Cut="0.0000000000000000e+00" cType="1" res="4.9613025039434433e-03" rms="2.9607668519020081e-01" purity="9.0134930610656738e-01" nType="-99"/>
            <Node pos="r" depth="3" NCoef="0" IVar="-1" Cut="0.0000000000000000e+00" cType="1" res="1.2960926396772265e-03" rms="4.8860973119735718e-01" purity="5.9700953960418701e-01" nType="-99"/>
          </Node>
          <Node pos="r" depth="2" NCoef="0" IVar="13" Cut="1.0831396579742432e+00" cType="1" res="3.0599687248468399e-02" rms="4.9294662475585938e-01" purity="5.3444582223892212e-01" nType="0">
            <Node pos="l" depth="3" NCoef="0" IVar="-1" Cut="0.0000000000000000e+00" cType="1" res="4.5119384303689003e-03" rms="3.6470445990562439e-01" purity="8.4075987339019775e-01" nType="-99"/>
            <Node pos="r" depth="3" NCoef="0" IVar="-1" Cut="0.0000000000000000e+00" cType="1" res="-3.5998495877720416e-04" rms="4.9582007527351379e-01" purity="4.7807016968727112e-01" nType="-99"/>
          </Node>
        </Node>
        <Node pos="r" depth="1" NCoef="0" IVar="11" Cut="1.4790215492248535e+00" cType="1" res="-1.8662178516387939e-01" rms="3.8986000418663025e-01" purity="2.2567786276340485e-01" nType="0">
          <Node pos="l" depth="2" NCoef="0" IVar="1" Cut="1.8652018308639526e+00" cType="1" res="4.9162190407514572e-02" rms="4.7395551204681396e-01" purity="5.3566026687622070e-01" nType="0">
            <Node pos="l" depth="3" NCoef="0" IVar="-1" Cut="0.0000000000000000e+00" cType="1" res="4.0558353066444397e-03" rms="4.2283987998962402e-01" purity="7.4741125106811523e-01" nType="-99"/>
            <Node pos="r" depth="3" NCoef="0" IVar="-1" Cut="0.0000000000000000e+00" cType="1" res="-3.8275290280580521e-03" rms="4.5260569453239441e-01" purity="3.1073653697967529e-01" nType="-99"/>
          </Node>
          <Node pos="r" depth="2" NCoef="0" IVar="16" Cut="7.6190674304962158e-01" cType="1" res="-2.5221171975135803e-01" rms="3.3468800783157349e-01" purity="1.3944759964942932e-01" nType="0">
            <Node pos="l" depth="3" NCoef="0" IVar="-1" Cut="0.0000000000000000e+00" cType="1" res="-6.4880065619945526e-03" rms="3.9534187316894531e-01" purity="2.1183229982852936e-01" nType="-99"/>
            <Node pos="r" depth="3" NCoef="0" IVar="-1" Cut="0.0000000000000000e+00" cType="1" res="-1.1763313785195351e-02" rms="2.3005862534046173e-01" purity="5.8211904019117355e-02" nType="-99"/>
          </Node>
        </Node>
      </Node>
    </BinaryTree>
    <BinaryTree type="DecisionTree" boostWeight="1.0000000000000000e+00" itree="23">
      <Node pos="s" depth="0" NCoef="0" IVar="5" Cut="2.0507185459136963e+00" cType="1" res="2.2298503667116165e-02" rms="4.5803248882293701e-01" purity="5.0115364789962769e-01" nType="0">
        <Node pos="l" depth="1" NCoef="0" IVar="12" Cut="1.3717389106750488e+00" cType="1" res="1.4492619037628174e-01" rms="4.5409899950027466e-01" purity="6.6638326644897461e-01" nType="0">
          <Node pos="l" depth="2" NCoef="0" IVar="16" Cut="6.6644054651260376e-01" cType="1" res="3.3494296669960022e-01" rms="3.1205368041992188e-01" purity="8.8452136516571045e-01" nType="0">
            <Node pos="l" depth="3" NCoef="0" IVar="-1" Cut="0.0000000000000000e+00" cType="1" res="5.2433856762945652e-03" rms="2.7132958173751831e-01" purity="9.1729736328125000e-01" nType="-99"/>
            <Node pos="r" depth="3" NCoef="0" IVar="-1" Cut="0.0000000000000000e+00" cType="1" res="1.9840530585497618e-03" rms="4.6147209405899048e-01" purity="6.7455178499221802e-01" nType="-99"/>
          </Node>
          <Node pos="r" depth="2" NCoef="0" IVar="13" Cut="1.3493058681488037e+00" cType="1" res="2.1337172016501427e-02" rms="4.8808899521827698e-01" purity="5.2450382709503174e-01" nType="0">
            <Node pos="l" depth="3" NCoef="0" IVar="-1" Cut="0.0000000000000000e+00" cType="1" res="3.9511518552899361e-03" rms="4.0876185894012451e-01" purity="7.7703481912612915e-01" nType="-99"/>
            <Node pos="r" depth="3" NCoef="0" IVar="-1" Cut="0.0000000000000000e+00" cType="1" res="-1.1610386427491903e-03" rms="4.8797750473022461e-01" purity="4.2572799324989319e-01" nType="-99"/>
          </Node>
        </Node>
        <Node pos="r" depth="1" NCoef="0" IVar="12" Cut="1.1538301706314087e+00" cType="1" res="-2.0899297297000885e-01" rms="3.6701834201812744e-01" purity="1.8950928747653961e-01" nType="0">
          <Node pos="l" depth="2" NCoef="0" IVar="-1" Cut="0.0000000000000000e+00" cType="1" res="5.1007280126214027e-04" rms="4.6773198246955872e-01" purity="4.8538139462471008e-01" nType="-99"/>
          <Node pos="r" depth="2" NCoef="0" IVar="13" Cut="1.1314516067504883e+00" cType="1" res="-2.5728625059127808e-01" rms="3.2219749689102173e-01" purity="1.2940688431262970e-01" nType="0">
            <Node pos="l" depth="3" NCoef="0" IVar="-1" Cut="0.0000000000000000e+00" cType="1" res="-1.9895136356353760e-03" rms="4.4978359341621399e-01" purity="3.3137589693069458e-01" nType="-99"/>
            <Node pos="r" depth="3" NCoef="0" IVar="-1" Cut="0.0000000000000000e+00" cType="1" res="-1.0933054611086845e-02" rms="2.8878211975097656e-01" purity="9.8666884005069733e-02" nType="-99"/>
          </Node>
        </Node>
      </Node>
    </BinaryTree>
    <BinaryTree type="DecisionTree" boostWeight="1.0000000000000000e+00" itree="24">
      <Node pos="s" depth="0" NCoef="0" IVar="5" Cut="1.8579275608062744e+00" cType="1" res="1.9596284255385399e-02" rms="4.5668408274650574e-01" purity="4.9791505932807922e-01" nType="0">
        <Node pos="l" depth="1" NCoef="0" IVar="12" Cut="1.1299282312393188e+00" cType="1" res="1.5971475839614868e-01" rms="4.4885087013244629e-01" purity="6.8851435184478760e-01" nType="0">
          <Node pos="l" depth="2" NCoef="0" IVar="16" Cut="5.2382820844650269e-01" cType="1" res="3.5567352175712585e-01" rms="2.7738529443740845e-01" purity="9.1326814889907837e-01" nType="0">
            <Node pos="l" depth="3" NCoef="0" IVar="-1" Cut="0.0000000000000000e+00" cType="1" res="5.5743129923939705e-03" rms="2.2380380332469940e-01" purity="9.4672197103500366e-01" nType="-99"/>
            <Node pos="r" depth="3" NCoef="0" IVar="-1" Cut="0.0000000000000000e+00" cType="1" res="3.9936518296599388e-03" rms="3.9406853914260864e-01" purity="8.0026668310165405e-01" nType="-99"/>
          </Node>
          <Node pos="r" depth="2" NCoef="0" IVar="13" Cut="1.3309507369995117e+00" cType="1" res="5.6682635098695755e-02" rms="4.8593670129776001e-01" purity="5.7034218311309814e-01" nType="0">
            <Node pos="l" depth="3" NCoef="0" IVar="-1" Cut="0.0000000000000000e+00" cType="1" res="4.2050010524690151e-03" rms="3.8218811154365540e-01" purity="8.1884109973907471e-01" nType="-99"/>
            <Node pos="r" depth="3" NCoef="0" IVar="-1" Cut="0.0000000000000000e+00" cType="1" res="-5.0037866458296776e-04" rms="4.9456134438514709e-01" purity="4.6728655695915222e-01" nType="-99"/>
          </Node>
        </Node>
        <Node pos="r" depth="1" NCoef="0" IVar="11" Cut="9.8764657974243164e-01" cType="1" res="-1.8003152310848236e-01" rms="3.8838559389114380e-01" purity="2.2636696696281433e-01" nType="0">
          <Node pos="l" depth="2" NCoef="0" IVar="-1" Cut="0.0000000000000000e+00" cType="1" res="2.8769827913492918e-03" rms="4.5471978187561035e-01" purity="6.4347231388092041e-01" nType="-99"/>
          <Node pos="r" depth="2" NCoef="0" IVar="16" Cut="7.6190465688705444e-01" cType="1" res="-2.2644002735614777e-01" rms="3.5447317361831665e-01" purity="1.6654843091964722e-01" nType="0">
            <Node pos="l" depth="3" NCoef="0" IVar="-1" Cut="0.0000000000000000e+00" cType="1" res="-4.9328599125146866e-03" rms="4.1124755144119263e-01" purity="2.4740788340568542e-01" nType="-99"/>
            <Node pos="r" depth="3" NCoef="0" IVar="-1" Cut="0.0000000000000000e+00" cType="1" res="-1.1520853266119957e-02" rms="2.4196529388427734e-01" purity="6.5590076148509979e-02" nType="-99"/>
          </Node>
        </Node>
      </Node>
    </BinaryTree>
    <BinaryTree type="DecisionTree" boostWeight="1.0000000000000000e+00" itree="25">
      <Node pos="s" depth="0" NCoef="0" IVar="5" Cut="2.1133956909179688e+00" cType="1" res="2.5071963667869568e-02" rms="4.5545685291290283e-01" purity="5.0303941965103149e-01" nType="0">
        <Node pos="l" depth="1" NCoef="0" IVar="11" Cut="1.8244268894195557e+00" cType="1" res="1.3843707740306854e-01" rms="4.5398625731468201e-01" purity="6.5889388322830200e-01" nType="0">
          <Node pos="l" depth="2" NCoef="0" IVar="16" Cut="6.6665655374526978e-01" cType="1" res="3.0029475688934326e-01" rms="3.4451875090599060e-01" purity="8.5354673862457275e-01" nType="0">
            <Node pos="l" depth="3" NCoef="0" IVar="-1" Cut="0.0000000000000000e+00" cType="1" res="4.9193394370377064e-03" rms="3.0326119065284729e-01" purity="8.9349663257598877e-01" nType="-99"/>
            <Node pos="r" depth="3" NCoef="0" IVar="-1" Cut="0.0000000000000000e+00" cType="1" res="1.4332861173897982e-03" rms="4.8241379857063293e-01" purity="6.0044062137603760e-01" nType="-99"/>
          </Node>
          <Node pos="r" depth="2" NCoef="0" IVar="13" Cut="1.0999875068664551e+00" cType="1" res="5.5762086994946003e-03" rms="4.8856702446937561e-01" purity="4.9911314249038696e-01" nType="0">
            <Node pos="l" depth="3" NCoef="0" IVar="-1" Cut="0.0000000000000000e+00" cType="1" res="4.1777519509196281e-03" rms="3.8451290130615234e-01" purity="8.1083494424819946e-01" nType="-99"/>
            <Node pos="r" depth="3" NCoef="0" IVar="-1" Cut="0.0000000000000000e+00" cType="1" res="-8.6305395234376192e-04" rms="4.8785588145256042e-01" purity="4.3816512823104858e-01" nType="-99"/>
          </Node>
        </Node>
        <Node pos="r" depth="1" NCoef="0" IVar="11" Cut="1.4790215492248535e+00" cType="1" res="-2.0985138416290283e-01" rms="3.5831740498542786e-01" purity="1.8006670475006104e-01" nType="0">
          <Node pos="l" depth="2" NCoef="0" IVar="-1" Cut="0.0000000000000000e+00" cType="1" res="-4.6316019142977893e-04" rms="4.7457307577133179e-01" purity="4.6731233596801758e-01" nType="-99"/>
          <Node pos="r" depth="2" NCoef="0" IVar="16" Cut="6.1909586191177368e-01" cType="1" res="-2.6048249006271362e-01" rms="3.0281442403793335e-01" purity="1.0998402535915375e-01" nType="0">
            <Node pos="l" depth="3" NCoef="0" IVar="-1" Cut="0.0000000000000000e+00" cType="1" res="-7.1895406581461430e-03" rms="3.8078010082244873e-01" purity="1.9193105399608612e-01" nType="-99"/>
            <Node pos="r" depth="3" NCoef="0" IVar="-1" Cut="0.0000000000000000e+00" cType="1" res="-1.1444711126387119e-02" rms="2.3389716446399689e-01" purity="6.0350049287080765e-02" nType="-99"/>
          </Node>
        </Node>
      </Node>
    </BinaryTree>
    <BinaryTree type="DecisionTree" boostWeight="1.0000000000000000e+00" itree="26">
      <Node pos="s" depth="0" NCoef="0" IVar="5" Cut="1.8517836332321167e+00" cType="1" res="1.9261553883552551e-02" rms="4.5394146442413330e-01" purity="4.9586442112922668e-01" nType="0">
        <Node pos="l" depth="1" NCoef="0" IVar="11" Cut="1.5102055072784424e+00" cType="1" res="1.5557886660099030e-01" rms="4.4833549857139587e-01" purity="6.8616652488708496e-01" nType="0">
          <Node pos="l" depth="2" NCoef="0" IVar="16" Cut="6.1904907226562500e-01" cType="1" res="3.3810353279113770e-01" rms="2.9332306981086731e-01" purity="9.0180557966232300e-01" nType="0">
            <Node pos="l" depth="3" NCoef="0" IVar="-1" Cut="0.0000000000000000e+00" cType="1" res="5.1717679016292095e-03" rms="2.5052300095558167e-01" purity="9.3194597959518433e-01" nType="-99"/>
            <Node pos="r" depth="3" NCoef="0" IVar="-1" Cut="0.0000000000000000e+00" cType="1" res="2.7330913580954075e-03" rms="4.4441843032836914e-01" purity="7.2004079818725586e-01" nType="-99"/>
          </Node>
          <Node pos="r" depth="2" NCoef="0" IVar="13" Cut="1.1349344253540039e+00" cType="1" res="4.0762543678283691e-02" rms="4.8906457424163818e-01" purity="5.5051976442337036e-01" nType="0">
            <Node pos="l" depth="3" NCoef="0" IVar="-1" Cut="0.0000000000000000e+00" cType="1" res="4.3746619485318661e-03" rms="3.6929842829704285e-01" purity="8.3521586656570435e-01" nType="-99"/>
            <Node pos="r" depth="3" NCoef="0" IVar="-1" Cut="0.0000000000000000e+00" cType="1" res="-6.5021522459574044e-05" rms="4.9416181445121765e-01" purity="4.8789203166961670e-01" nType="-99"/>
          </Node>
        </Node>
        <Node pos="r" depth="1" NCoef="0" IVar="11" Cut="1.4160946607589722e+00" cType="1" res="-1.7118795216083527e-01" rms="3.8845464587211609e-01" purity="2.2999249398708344e-01" nType="0">
          <Node pos="l" depth="2" NCoef="0" IVar="1" Cut="2.1093754768371582e+00" cType="1" res="6.8268433213233948e-02" rms="4.6896776556968689e-01" purity="5.5853861570358276e-01" nType="0">
            <Node pos="l" depth="3" NCoef="0" IVar="-1" Cut="0.0000000000000000e+00" cType="1" res="3.7622812669724226e-03" rms="4.2972809076309204e-01" purity="7.2544378042221069e-01" nType="-99"/>
            <Node pos="r" depth="3" NCoef="0" IVar="-1" Cut="0.0000000000000000e+00" cType="1" res="-3.9144307374954224e-03" rms="4.5648720860481262e-01" purity="3.2689940929412842e-01" nType="-99"/>
          </Node>
          <Node pos="r" depth="2" NCoef="0" IVar="1" Cut="1.6458965539932251e+00" cType="1" res="-2.3212109506130219e-01" rms="3.3915585279464722e-01" purity="1.4638915657997131e-01" nType="0">
            <Node pos="l" depth="3" NCoef="0" IVar="-1" Cut="0.0000000000000000e+00" cType="1" res="-3.0162266921252012e-03" rms="4.5426681637763977e-01" purity="3.2923609018325806e-01" nType="-99"/>
            <Node pos="r" depth="3" NCoef="0" IVar="-1" Cut="0.0000000000000000e+00" cType="1" res="-1.0053401812911034e-02" rms="2.9355707764625549e-01" purity="9.9421963095664978e-02" nType="-99"/>
          </Node>
        </Node>
      </Node>
    </BinaryTree>
    <BinaryTree type="DecisionTree" boostWeight="1.0000000000000000e+00" itree="27">
      <Node pos="s" depth="0" NCoef="0" IVar="12" Cut="1.1420980691909790e+00" cType="1" res="2.4849679321050644e-02" rms="4.5239606499671936e-01" purity="5.0172460079193115e-01" nType="0">
        <Node pos="l" depth="1" NCoef="0" IVar="5" Cut="2.1786046028137207e+00" cType="1" res="2.8539937734603882e-01" rms="3.4848600625991821e-01" purity="8.2472437620162964e-01" nType="0">
          <Node pos="l" depth="2" NCoef="0" IVar="1" Cut="2.1107146739959717e+00" cType="1" res="3.4623885154724121e-01" rms="2.8572225570678711e-01" purity="9.0374022722244263e-01" nType="0">
            <Node pos="l" depth="3" NCoef="0" IVar="-1" Cut="0.0000000000000000e+00" cType="1" res="5.4978015832602978e-03" rms="2.2780984640121460e-01" purity="9.4232702255249023e-01" nType="-99"/>
            <Node pos="r" depth="3" NCoef="0" IVar="-1" Cut="0.0000000000000000e+00" cType="1" res="3.6984302569180727e-03" rms="3.9589762687683105e-01" purity="7.8888082504272461e-01" nType="-99"/>
          </Node>
          <Node pos="r" depth="2" NCoef="0" IVar="-1" Cut="0.0000000000000000e+00" cType="1" res="-3.0852781492285430e-04" rms="4.5761227607727051e-01" purity="4.2828589677810669e-01" nType="-99"/>
        </Node>
        <Node pos="r" depth="1" NCoef="0" IVar="5" Cut="1.8030849695205688e+00" cType="1" res="-7.7099516987800598e-02" rms="4.4751352071762085e-01" purity="3.7533959746360779e-01" nType="0">
          <Node pos="l" depth="2" NCoef="0" IVar="13" Cut="1.5937377214431763e+00" cType="1" res="5.6159451603889465e-02" rms="4.8509079217910767e-01" purity="5.7094925642013550e-01" nType="0">
            <Node pos="l" depth="3" NCoef="0" IVar="-1" Cut="0.0000000000000000e+00" cType="1" res="3.7102408241480589e-03" rms="4.0850132703781128e-01" purity="7.8013569116592407e-01" nType="-99"/>
            <Node pos="r" depth="3" NCoef="0" IVar="-1" Cut="0.0000000000000000e+00" cType="1" res="-6.1035132966935635e-04" rms="4.9410179257392883e-01" purity="4.5811265707015991e-01" nType="-99"/>
          </Node>
          <Node pos="r" depth="2" NCoef="0" IVar="13" Cut="1.1409180164337158e+00" cType="1" res="-2.1532736718654633e-01" rms="3.5551354289054871e-01" purity="1.7243616282939911e-01" nType="0">
            <Node pos="l" depth="3" NCoef="0" IVar="-1" Cut="0.0000000000000000e+00" cType="1" res="-1.8387062300462276e-04" rms="4.6002003550529480e-01" purity="4.1522741317749023e-01" nType="-99"/>
            <Node pos="r" depth="3" NCoef="0" IVar="-1" Cut="0.0000000000000000e+00" cType="1" res="-9.3771954998373985e-03" rms="3.1980225443840027e-01" purity="1.2903407216072083e-01" nType="-99"/>
          </Node>
        </Node>
      </Node>
    </BinaryTree>
    <BinaryTree type="DecisionTree" boostWeight="1.0000000000000000e+00" itree="28">
      <Node pos="s" depth="0" NCoef="0" IVar="11" Cut="1.3737579584121704e+00" cType="1" res="2.4224692955613136e-02" rms="4.5180448889732361e-01" purity="5.0033181905746460e-01" nType="0">
        <Node pos="l" depth="1" NCoef="0" IVar="5" Cut="2.1984205245971680e+00" cType="1" res="2.6548445224761963e-01" rms="3.6574706435203552e-01" purity="8.1230229139328003e-01" nType="0">
          <Node pos="l" depth="2" NCoef="0" IVar="16" Cut="6.1904478073120117e-01" cType="1" res="3.2505601644515991e-01" rms="3.0763790011405945e-01" purity="8.8749516010284424e-01" nType="0">
            <Node pos="l" depth="3" NCoef="0" IVar="-1" Cut="0.0000000000000000e+00" cType="1" res="5.1841447129845619e-03" rms="2.5674781203269958e-01" purity="9.2668789625167847e-01" nType="-99"/>
            <Node pos="r" depth="3" NCoef="0" IVar="-1" Cut="0.0000000000000000e+00" cType="1" res="2.5467486120760441e-03" rms="4.5764759182929993e-01" purity="6.7912107706069946e-01" nType="-99"/>
          </Node>
          <Node pos="r" depth="2" NCoef="0" IVar="-1" Cut="0.0000000000000000e+00" cType="1" res="-7.6670816633850336e-04" rms="4.7190904617309570e-01" purity="4.5568037033081055e-01" nType="-99"/>
        </Node>
        <Node pos="r" depth="1" NCoef="0" IVar="5" Cut="1.6024593114852905e+00" cType="1" res="-7.5732901692390442e-02" rms="4.4628438353538513e-01" purity="3.7107765674591064e-01" nType="0">
          <Node pos="l" depth="2" NCoef="0" IVar="16" Cut="7.6190507411956787e-01" cType="1" res="8.2692690193653107e-02" rms="4.8165613412857056e-01" purity="5.9629744291305542e-01" nType="0">
            <Node pos="l" depth="3" NCoef="0" IVar="-1" Cut="0.0000000000000000e+00" cType="1" res="2.2953320294618607e-03" rms="4.6403715014457703e-01" purity="6.6670912504196167e-01" nType="-99"/>
            <Node pos="r" depth="3" NCoef="0" IVar="-1" Cut="0.0000000000000000e+00" cType="1" res="-1.5864827437326312e-03" rms="4.8128601908683777e-01" purity="3.8540908694267273e-01" nType="-99"/>
          </Node>
          <Node pos="r" depth="2" NCoef="0" IVar="1" Cut="1.8781750202178955e+00" cType="1" res="-1.9738386571407318e-01" rms="3.7402448058128357e-01" purity="1.9813711941242218e-01" nType="0">
            <Node pos="l" depth="3" NCoef="0" IVar="-1" Cut="0.0000000000000000e+00" cType="1" res="-2.0430362783372402e-03" rms="4.5987370610237122e-01" purity="3.7599605321884155e-01" nType="-99"/>
            <Node pos="r" depth="3" NCoef="0" IVar="-1" Cut="0.0000000000000000e+00" cType="1" res="-8.6164250969886780e-03" rms="3.2223111391067505e-01" purity="1.3166597485542297e-01" nType="-99"/>
          </Node>
        </Node>
      </Node>
    </BinaryTree>
    <BinaryTree type="DecisionTree" boostWeight="1.0000000000000000e+00" itree="29">
      <Node pos="s" depth="0" NCoef="0" IVar="5" Cut="2.1129965782165527e+00" cType="1" res="2.4323498830199242e-02" rms="4.4948095083236694e-01" purity="4.9966585636138916e-01" nType="0">
        <Node pos="l" depth="1" NCoef="0" IVar="11" Cut="1.8303539752960205e+00" cType="1" res="1.3553321361541748e-01" rms="4.5037272572517395e-01" purity="6.5911257266998291e-01" nType="0">
          <Node pos="l" depth="2" NCoef="0" IVar="16" Cut="7.6188802719116211e-01" cType="1" res="2.9588338732719421e-01" rms="3.3995839953422546e-01" purity="8.5666954517364502e-01" nType="0">
            <Node pos="l" depth="3" NCoef="0" IVar="-1" Cut="0.0000000000000000e+00" cType="1" res="4.7080838121473789e-03" rms="3.0820491909980774e-01" purity="8.8830959796905518e-01" nType="-99"/>
            <Node pos="r" depth="3" NCoef="0" IVar="-1" Cut="0.0000000000000000e+00" cType="1" res="2.9905653718742542e-05" rms="4.9404001235961914e-01" purity="5.1051515340805054e-01" nType="-99"/>
          </Node>
          <Node pos="r" depth="2" NCoef="0" IVar="8" Cut="8.8784438371658325e-01" cType="1" res="-1.5915710246190429e-03" rms="4.8648622632026672e-01" purity="4.9017018079757690e-01" nType="0">
            <Node pos="l" depth="3" NCoef="0" IVar="-1" Cut="0.0000000000000000e+00" cType="1" res="4.8063057474792004e-03" rms="3.7339350581169128e-01" purity="8.2282638549804688e-01" nType="-99"/>
            <Node pos="r" depth="3" NCoef="0" IVar="-1" Cut="0.0000000000000000e+00" cType="1" res="-7.5407105032354593e-04" rms="4.8358333110809326e-01" purity="4.4191691279411316e-01" nType="-99"/>
          </Node>
        </Node>
        <Node pos="r" depth="1" NCoef="0" IVar="1" Cut="1.6284854412078857e+00" cType="1" res="-2.0384041965007782e-01" rms="3.5064780712127686e-01" purity="1.7253617942333221e-01" nType="0">
          <Node pos="l" depth="2" NCoef="0" IVar="0" Cut="9.9068946838378906e+01" cType="0" res="-2.8129795566201210e-02" rms="4.6193054318428040e-01" purity="4.2154586315155029e-01" nType="0">
            <Node pos="l" depth="3" NCoef="0" IVar="-1" Cut="0.0000000000000000e+00" cType="1" res="4.9285511486232281e-03" rms="4.0459194779396057e-01" purity="7.7062785625457764e-01" nType="-99"/>
            <Node pos="r" depth="3" NCoef="0" IVar="-1" Cut="0.0000000000000000e+00" cType="1" res="-8.6411079391837120e-03" rms="3.6974608898162842e-01" purity="1.8263283371925354e-01" nType="-99"/>
          </Node>
          <Node pos="r" depth="2" NCoef="0" IVar="8" Cut="1.1430979967117310e+00" cType="1" res="-2.5348618626594543e-01" rms="2.9362681508064270e-01" purity="1.0218028724193573e-01" nType="0">
            <Node pos="l" depth="3" NCoef="0" IVar="-1" Cut="0.0000000000000000e+00" cType="1" res="-3.2083664555102587e-03" rms="4.3416643142700195e-01" purity="2.7006542682647705e-01" nType="-99"/>
            <Node pos="r" depth="3" NCoef="0" IVar="-1" Cut="0.0000000000000000e+00" cType="1" res="-1.0981971397995949e-02" rms="2.5720223784446716e-01" purity="7.6227203011512756e-02" nType="-99"/>
          </Node>
        </Node>
      </Node>
    </BinaryTree>
    <BinaryTree type="DecisionTree" boostWeight="1.0000000000000000e+00" itree="30">
      <Node pos="s" depth="0" NCoef="0" IVar="12" Cut="1.1371777057647705e+00" cType="1" res="2.8386205434799194e-02" rms="4.4831988215446472e-01" purity="5.0273752212524414e-01" nType="0">
        <Node pos="l" depth="1" NCoef="0" IVar="14" Cut="2.1430118083953857e+00" cType="1" res="2.8120425343513489e-01" rms="3.4715378284454346e-01" purity="8.2378071546554565e-01" nType="0">
          <Node pos="l" depth="2" NCoef="0" IVar="16" Cut="5.7141625881195068e-01" cType="1" res="3.4303009510040283e-01" rms="2.8237345814704895e-01" purity="9.0378510951995850e-01" nType="0">
